{{-1.1788173, -0.72772515, -0.34205422, -1.1865088, -1.2646378, -0.13815507, -1.127027, 0.06644925, -1.5019476, 0.12079983, -0.097227946, 1.671705, 0.103073284, 0.413641, 0.4762066, 1.0962093, 0.8832225, -0.2108705, 0.28321788, -0.4474029, -0.36765742, 1.2381359, 0.94487154, -0.053306885, -0.8830043, -0.6226681, -0.29144242, 0.7942813, -0.87461203, 0.37878215, 1.3007104, 0.112148546}, 
{-0.90026003, -0.69588554, 0.07078915, -0.7532667, -1.1866059, -0.40463886, -0.8268889, 0.20404786, -1.4501735, -0.4201741, 0.09991668, 1.4932504, -0.06274019, 0.26055303, 0.8340524, 0.70565814, 0.8136309, -0.24924186, 0.1229314, -0.15268822, -0.20412534, 0.9837935, 0.51534593, -0.048374224, -0.3234363, -0.78503436, -0.17845817, 0.5782496, -1.0462747, -0.200451, 1.1850415, 0.2821254}, 
{-0.3631029, -1.4383805, -0.9392096, 0.51302904, -0.6435016, -0.6901756, 0.033658955, 0.34382814, -1.2286489, -0.6329261, -0.38107723, 0.30969432, 0.6227916, -0.36413082, 0.9589815, 1.299759, -0.15428565, -0.46623448, -0.46623433, 0.2927536, -0.5284647, 1.0619949, 0.98480594, -0.7352559, 0.3743439, 0.26746318, -0.76106, -0.79839593, -0.15017699, -0.24656977, 0.88533115, -0.674272}, 
{1.4873878, -1.854726, -0.2441152, 0.84323335, 0.6478031, -1.4820597, 1.3504014, 0.5853454, -1.5340259, -1.8428365, -1.5165682, -0.33919573, 1.7607024, -0.9125031, 1.7701018, 1.4305664, -1.6171596, -1.4418727, -1.7033403, 1.5871316, -0.6228546, -0.08109828, 0.36747897, -1.4996905, 1.792158, 1.2556589, -1.3051322, -1.5432539, 1.7666589, -1.599738, -0.16038075, -1.8271796}, 
{1.1118864, -1.3657504, -1.390404, 1.5539055, 1.0822986, -1.2603885, 0.93216354, 1.154141, -1.7983919, -1.2146876, -0.98670053, -0.7038573, 1.0274552, -1.3981932, 1.3178902, 0.9157743, -2.0331776, -1.1407963, -1.6373248, 1.3729825, 0.08448921, 0.9915298, 1.1341591, -1.2096137, 1.4663614, 1.707311, -1.9705893, -1.9301978, 1.6027408, -1.4617618, 1.0036957, -1.3633652}, 
{0.69044536, -1.139059, -1.1209012, 0.9433506, 0.7957658, -0.8813742, 1.2536585, 0.30056998, -1.4782493, -0.76740134, -0.3302135, -1.0666211, 0.89942276, -0.97706723, 1.0528258, 0.944265, -1.2302055, -1.4700367, -0.8348562, 0.9237362, 0.39460826, 0.9042733, 0.64054453, -1.2900869, 0.7061756, 1.1221226, -1.2544048, -1.5448884, 1.1604884, -0.7738763, 1.3444047, -1.4252355}, 
{1.5636953, -1.206325, -0.16979745, 1.4191656, 1.2101462, -0.9225532, 1.1969277, 0.3813353, -1.5135653, -1.0065452, -0.9380773, -1.1781732, 0.7254693, -0.7057736, 0.9331983, 0.7877269, -0.88478726, -0.94921345, -1.0740837, 0.75296175, -0.63262933, 0.81551874, 1.0261011, -1.0742344, 0.95314854, 0.4548863, -1.384505, -0.91336143, 1.6304477, -1.7026298, 1.0118057, -1.1940329}, 
{1.9069693, -1.5545658, 0.72502184, 1.5447816, 1.4184586, -0.4341225, 1.1771543, 0.17986998, -1.1711422, -1.1391226, -1.8159364, -1.5873778, 0.93370926, -0.42857033, 1.4156722, 0.77520365, -0.84837204, -1.246024, -1.2765466, 0.36791936, -0.97050893, 0.08279988, 0.6543085, -1.6873065, 1.2269331, 0.21310022, -1.0910717, -0.7209641, 1.986503, -2.016189, 0.14645006, -1.1088191}, 
{1.8336657, -1.716516, 0.26445344, 0.33453456, 1.8181926, 0.52515465, 1.3616561, 0.49379334, -0.65314406, -0.91024053, -1.806482, -0.68338937, 1.1380212, 0.6876352, 1.2129264, 0.69884086, -0.9396068, 0.5146147, -0.7332737, 0.31245747, -1.3479351, -1.364308, -0.32542768, -1.4977779, 1.0430001, -0.0055902414, -0.6382937, 0.24239095, 2.2522714, -1.8618702, -0.8967397, -1.2206618}, 
{1.0818961, 0.41112038, -1.5977207, -0.63144493, 1.2685535, 1.4343761, -0.4816427, 1.556224, -0.86808085, 1.6601912, -1.6162434, -0.21576014, -0.1224847, 0.80406255, -0.18583299, -1.0986834, -1.0860703, 1.2333996, 0.122430034, -0.7055463, -1.6119077, -1.2930714, 0.3320694, -1.1501904, -0.8896378, -1.4447815, -1.7025602, 1.5333035, 1.2925013, -1.2337514, -1.5687124, 0.84987444}, 
{-0.983857, -0.6972285, 0.23464118, -0.68262005, -1.5523416, -0.10945799, -1.1701419, -0.10910707, -1.4583793, -0.46934968, 0.21358028, 1.4588556, -0.44559684, 0.6745529, 0.5831052, 0.9599912, 0.99636185, -0.56392616, 0.6425506, -0.3512144, -0.32330403, 1.184185, 0.9330364, 0.039179977, -0.49533048, -1.0441222, 0.048158005, 1.0222569, -1.0626415, 0.3913684, 1.0701255, -0.08669673}, 
{-1.2570615, 0.40521437, 0.43182698, -0.19992702, -1.3199315, -0.38461858, -0.586149, -0.6421137, -1.1063722, 0.47524, -0.18537623, 0.25045973, 1.0049357, -0.046843063, 0.25624105, 0.9845321, 0.57724947, -0.07501449, -0.22839177, -0.31224456, -0.5859888, 0.662813, 0.5009819, -0.82653916, -1.0482614, -0.9565053, 0.052002788, 0.6891976, -0.72112393, 0.81155694, 0.290887, 0.037910435}, 
{-1.2159382, -0.10860881, 0.29933834, -0.04685224, -0.54245687, -1.0845499, -0.5316804, -0.12626788, -1.2044023, 0.27397838, -0.05360033, 0.77653676, 1.1731573, -0.490822, -0.38217503, 1.1879699, -0.16133058, 0.4710292, -1.0239077, 0.091502555, -0.20467247, 0.7720936, 0.56954926, -1.3249192, -0.8169339, 0.010214455, -0.32875457, -0.025889099, -0.14395355, 0.33330402, 0.73252827, 0.15675746}, 
{-1.0791566, -0.2824252, -0.6025896, -0.0024535004, -0.17027378, -0.64241076, -0.746628, 0.36337003, -1.0024779, 0.18679142, 0.3926433, 0.4878243, 1.2883183, -0.712235, -0.15799674, 0.96810406, -0.81688213, -0.033050835, -0.8550416, 0.049758296, 0.044379003, 0.6374273, 0.97870535, -0.6526592, -0.51555985, 0.6657725, -0.5578048, -0.45974317, 0.23245424, 0.1718862, 0.6941196, 0.29081994}, 
{-0.7953692, -0.025526049, -0.48873988, 0.3516475, -1.0087881, -0.37035406, -0.8259202, 0.4607046, -0.623603, 0.71838605, 0.19924758, -0.20962138, 0.21555151, -0.69997543, -0.5861087, 0.4792255, -0.6588395, -0.3388193, -1.044478, -0.45978567, 0.42377216, 0.3938008, 0.8440531, 0.72784746, -0.33254346, 0.42252684, -0.6613782, -0.22368613, 0.40712747, 0.868067, 0.3269112, 0.22074994}, 
{0.07112347, -0.073285885, -0.95166075, -0.12615223, -0.619841, 0.18992814, -0.34385324, 0.86060286, -1.1303328, 1.339253, 0.71229136, -0.21189013, -0.38492063, -0.32537904, -0.6917262, 0.32223108, -1.1683167, -0.5296287, -0.9676837, -0.4883408, 0.17936389, 0.1158171, 0.9950426, 0.43072, -0.17284419, 0.07245539, -1.3981746, -0.14391892, 1.7401545, 0.36134678, 0.22157343, -0.32509625}, 
{0.2446863, -0.5418961, -0.90116554, 0.39727053, 0.50619876, 0.20294426, 0.054525178, 0.9442088, -1.2286633, 0.83685786, 0.15267631, -0.4234088, 0.13102712, -0.3851461, -0.007752545, 0.29410714, -0.6432756, 0.18338968, -1.2886374, -0.40558937, -0.5385055, -0.30442005, 1.1717616, -0.1814394, 0.038045328, 0.28325835, -1.5143294, 0.1773098, 2.0051446, -0.81538254, 0.8882014, -0.4187599}, 
{1.1863234, -0.72195536, -0.28211877, 1.3963462, 0.45762542, 0.58170605, 0.38214326, 1.2151165, -0.3422458, -0.20026618, -0.9949618, -1.4074254, 0.38296226, -0.23601635, 0.85933805, 0.20438385, -0.3353382, -0.035816763, -0.43320656, 0.4156629, -0.28592032, -0.80599016, 0.9434976, -0.42816696, 0.0010241689, -0.065424494, -1.4410104, -0.515968, 1.5003316, -0.6119331, 0.66844684, -0.86190134}, 
{1.7191012, -1.1096077, 0.6813951, 0.37976214, 0.8131161, 0.3257079, 1.0339409, 1.1462848, -0.5264402, 0.25829336, -1.6062421, -1.7955592, 0.5171084, 0.34344843, 1.3245257, 0.0792562, 0.5065732, 0.72530323, -0.105506435, 0.6737569, -0.10408806, -1.2083741, 0.3146155, -1.2963475, -0.006231243, -0.30241674, -1.020054, -0.089306526, 1.5929388, -1.4670076, -0.5091657, -0.44941372}, 
{0.8568104, 0.5027448, -1.4708074, 0.020525485, 1.1533754, 0.8502053, -0.59770715, 1.5566498, -1.0232831, 1.836725, -1.3734071, -0.18034895, -0.13213062, 0.37996146, -0.5745751, -0.9180301, -1.3260169, 0.8681086, -0.80550605, -0.56657964, -1.4975411, -1.0115721, 0.30570045, -0.8165671, -0.87469685, -0.74419785, -1.7048931, 1.0847183, 1.1073539, -0.6985791, -1.3378947, 0.99656063}, 
{-0.75656414, -0.32676095, -0.057501193, -1.3025383, -1.7177231, -0.60624367, -1.4148948, -0.5200563, -1.6650205, -0.46932927, 0.9930827, 1.4911593, -0.9722409, -0.018716596, 0.48451176, 1.1431851, 1.0273831, -0.6339161, 0.7677365, 0.095591746, -0.07685621, 1.7211682, 0.8815831, 0.8223551, -0.99527854, -0.6721769, 0.38529336, 0.06750794, -1.2669613, 0.13260648, 1.8153414, -0.27279258}, 
{-1.3209593, 0.19591267, -0.005978843, -0.606524, -1.9062755, -0.32263792, -0.79352134, -0.54768825, -1.3736557, 0.3056446, 0.45918882, 0.3349598, -0.26386836, -0.22854204, 0.38816875, 1.3007227, 0.64190495, -0.011149702, 0.5079326, -0.19161722, -1.2187529, 1.1348478, 0.7100677, -0.15207627, -1.1781862, -1.2172146, -0.0015299413, 0.981148, -0.76054925, 0.42899278, 0.77736056, 0.04594172}, 
{-0.57718295, -0.7711626, -0.3160011, -0.5005181, -0.88823456, -0.30776078, -0.88050056, -0.12805511, -1.6503829, -0.09198591, -0.14855494, 1.705668, 0.34394857, 0.54681116, 0.81464344, 1.0419341, 0.954685, -0.22433083, 0.1907064, -0.8636082, -0.5796036, 0.767258, 0.50903416, -0.45385408, -0.5516759, -0.91588724, 0.014829224, 1.2058316, -0.7736593, 0.39646187, 1.0691515, 0.11042706}, 
{-0.17192239, -0.24360141, -0.8748901, -0.33559898, 0.31901962, 0.27737734, -1.4749726, 0.18256453, -0.928774, -0.16369484, 0.5706274, 1.7088777, 0.94182056, 1.1068133, 0.29495424, 0.8574279, 0.83936524, -0.46322072, -0.50333387, -1.5601507, 0.053572953, 0.29302126, -0.08124384, 0.08418077, -0.105023116, -0.47898114, -0.033355735, 1.0676239, -0.6434522, 0.33320856, 0.6906737, 0.0987682}, 
{0.07532766, 0.97938406, -0.5621284, 0.79364884, 0.11387187, -0.16156162, -0.8797743, -0.13488735, 0.44878095, 0.354257, 1.1926466, 1.5381429, 1.0435598, 0.6349687, 0.028893948, 0.3569339, -0.10627597, -0.26724845, -0.63140863, -1.8842349, 0.5429449, 0.22139885, -0.3308052, 0.5074693, -0.65153277, -0.18590142, 0.4233997, 0.56950516, -0.704248, 1.1161575, 0.3585385, 0.12988754}, 
{0.20776895, 1.0867081, -0.7064318, 1.4544802, -0.37888083, -0.7259317, -0.38048422, -0.7725905, 1.6755424, -0.16326384, 0.29893255, 1.2279458, 0.6511026, 0.5602899, -0.36758178, 0.29189196, -0.43429267, 0.9273829, -0.6637437, -1.6613805, -0.41741773, -0.037319593, -0.89743245, 0.568015, -0.19789484, 0.47871432, 0.85681486, -0.8547522, -0.38878682, 1.0088638, -0.26111862, 0.18608387}, 
{0.11543491, 0.6221404, -0.4849759, 0.42945102, -0.20623747, -0.3324474, -0.5404017, -0.23407686, 0.9908408, 0.2998733, 0.4705469, 0.90141815, -0.26597944, 1.194494, -0.5627976, -0.4009773, -0.3914128, 0.7166047, -0.13153666, -1.4852862, 0.16419412, -0.73465854, -0.80014783, 0.5089365, 0.02733764, -0.0005882344, 0.6519962, 0.1649784, 0.9717469, 0.0584402, -0.26271665, 0.46910757}, 
{0.90020204, 0.25679094, -0.050385714, -0.5709038, 0.61481845, 0.44600075, -0.26912877, 0.6035441, 0.11634067, 0.9663593, 0.7412803, -0.11824887, -0.60916793, 0.7175341, -0.21851394, -0.31400785, 0.6392442, 0.13111916, 0.45419362, -1.21653, 0.3403869, -0.3200843, -0.49028346, 0.25388396, -0.22164184, -0.38040105, -0.59817797, 0.09198432, 1.3874793, -0.47041833, -0.71144694, 0.25578874}, 
{1.6912895, -0.56472963, 0.039696243, -1.0808138, 1.1877708, 0.82748234, 0.1711589, 1.2134343, -0.7475913, 1.0468309, -1.3707212, 0.07229254, -0.38980052, 1.1699202, 0.092411526, -0.8681599, 0.37869355, 0.40728557, 1.0962133, -0.3978354, -1.1693178, -1.1396593, -0.5680386, -0.6802577, -0.2575986, -0.77058446, -1.4426731, 0.5196216, 1.4374123, -1.3057944, -1.5749427, 0.06888716}, 
{0.09040756, 0.21064243, -1.2954339, -0.62748975, 1.4658122, 1.9523119, -0.089868166, 0.99866337, -0.5420797, 1.6264486, -1.6878185, -0.089810856, 0.22012915, 0.9859805, -0.6515499, -0.91313773, -1.3358238, 1.2012584, -0.40190357, -0.64637125, -1.7793933, -1.4164622, 0.6146661, -1.540049, -1.4233454, -1.6634511, -1.6463685, 1.6460756, 1.1183219, -1.230832, -1.9459555, 0.5263525}, 
{-1.3697022, 1.4992381, -1.5477922, -1.7000948, -2.6547532, -1.1728922, -2.1260138, -0.008171921, -1.7483784, 0.8277382, 2.1099372, 2.007506, -1.7642279, -0.86262107, -0.98675406, 0.3226616, 1.0574163, -0.35656992, 1.1848286, 0.59798425, 1.6349497, 2.1078274, 1.7009753, 2.1079135, -1.7801696, 0.45992342, 0.16002344, -0.6914772, -1.655369, 1.782052, 2.1553452, 1.307227}, 
{-0.60450065, 0.21254884, -0.43621463, -0.74244535, -2.0471683, -0.10948783, -1.2118028, 0.03340471, -1.7334092, 0.5511546, 0.894539, 1.7160027, -1.0529548, -0.25720128, -0.2216638, 0.29034054, 0.6609918, -0.59763104, 0.72656745, -0.1616448, -0.46946844, 1.5699643, 1.4402806, 1.3977762, -1.0015705, -0.58558494, -0.5098047, 0.4023044, -0.7479495, 0.62237793, 1.2144037, 0.34270084}, 
{0.7870202, -0.5066898, -0.7840587, -0.25708812, -0.89094925, 0.21359049, -0.3647904, 0.19525889, -1.2226596, 0.47905397, -0.13417584, 1.759983, -0.44260335, 0.7420435, 0.2513064, 0.107596725, 0.42529583, -0.6457348, 0.006007548, -0.62239, 0.127161, -0.20888469, 0.39565527, 0.776315, -0.121136785, -1.3862569, -0.47838145, 0.63014156, -0.32888225, 0.6014159, 0.27363595, -0.20396034}, 
{1.6475937, 0.047354143, -0.707628, -0.21306467, 0.7040609, 1.0575663, -0.17661744, 0.034921758, -0.19862013, 0.23640622, -0.68275464, 1.3709607, -0.20048815, 0.69619125, 0.55534357, -0.15665531, 0.25593117, -0.94127744, -0.6949422, -0.99840164, 0.040794916, -0.8356744, -0.27481222, 0.94297653, 0.6775872, -0.698134, -0.13536215, 0.54664445, -0.2111409, 0.3615773, -0.34579784, -0.2167252}, 
{1.347345, 0.3616728, -0.32948008, 0.40551826, 0.728829, 0.762758, -0.50435066, -0.30066186, -0.007343369, -0.28395036, -1.4551424, -0.44189385, -0.81563705, 0.7895853, 0.6882234, -0.8560013, 0.21813655, -0.34506774, 0.4484378, -0.5247124, -0.24581558, -1.0101452, -0.7027189, 1.0274036, 0.40197882, -0.34238183, 0.2767757, 0.0052162474, -1.621145, 0.63743424, 0.09254166, 0.2648649}, 
{-0.71452165, 0.90182376, -0.51366884, 0.749316, -1.5095752, 0.4795793, -1.3229839, -0.9293911, 0.25393257, 0.15004165, 0.33316523, -0.9814614, -1.3313775, -0.0740692, -0.99077743, -0.7081357, 0.2619433, 0.44234455, 1.5085193, 0.059589308, 0.75764394, 0.55184776, 0.0047492743, 0.9896663, -0.3014086, -0.4670328, 1.1560354, -0.14359313, -1.204564, 0.70776045, 1.0412124, 0.60330695}, 
{-0.47740102, 0.6276762, 0.7358821, -1.2420896, -1.6998935, -0.11937364, -1.0461214, 0.12778294, -0.27140138, -0.36945927, 0.7512071, 1.0393126, -1.4712967, 1.1135615, -1.2329782, -0.64539117, 0.49885184, -0.30231276, 1.0173646, -0.328258, -0.22217439, -0.078783065, -1.4678499, 1.1024935, 0.19813648, -0.3850923, 0.66015023, 0.6830277, 0.33034018, 0.73905694, 0.31633186, 0.31936905}, 
{-0.14193961, 0.9158987, -0.3319806, -0.76365507, -1.0692389, -0.017187182, -0.15343799, 0.2654612, 0.13367637, 0.36799994, 0.52715313, 0.85996956, -0.5949787, 0.4089683, -1.3806471, -0.56087786, 0.59175116, -0.5319115, 0.5146619, -0.66565716, -1.2991514, 0.0036759237, -0.11627742, 1.0234041, 0.65999717, -0.17220849, -0.66964304, 0.04579964, 0.42456257, 1.1167145, -0.16056612, 0.4137627}, 
{0.8043625, 0.980485, -1.6788139, 0.08816839, 1.3127524, 1.6781714, -0.07484858, 1.2354968, -0.72655016, 1.3686938, -1.5289513, 0.6848936, -0.9872853, 0.94173217, -0.9569901, -1.4882083, -0.26090634, 1.4824578, 0.5244126, -0.64679235, -1.8279583, -1.5017722, -0.4393669, 0.86145616, 0.56658626, -0.6870426, -1.6351858, 1.471556, 1.1647406, 0.1468774, -1.2778509, 0.7959631}, 
{-0.8828433, 2.1550846, -1.9531775, -1.5032454, 2.7055607, 2.5379634, -1.2677101, 1.8502047, -1.223868, 2.3138175, -1.0857329, 0.15794629, -0.9612141, 0.8270145, -1.2233639, -2.1059837, -1.3825133, 2.347882, 0.4475558, -0.95181143, -1.5473487, -2.047103, 0.16764219, -1.0620714, -1.5896598, -2.0544004, -1.8523734, 2.3846607, 1.2518812, -0.16481341, -1.9304676, 1.6778792}, 
{-1.3485717, 1.6836526, -1.5585004, -2.1920998, -2.4531286, -1.152105, -2.1378908, 0.52829677, -1.9646246, 1.0144377, 2.278048, 1.9883505, -1.6725597, -1.0443064, -1.47483, -0.0641443, 1.1005212, -0.70103294, 1.0654625, 0.7413974, 1.5717174, 2.0339563, 1.7870864, 2.248085, -1.6298411, 0.42085555, -0.20944017, -1.1309465, -1.8845168, 1.7670183, 2.2200553, 1.744323}, 
{0.32036653, -0.20971338, -0.27063105, 0.21624044, -1.3931861, 0.12697825, 0.25236943, -0.73480624, -0.28839934, -0.12382327, -2.065723, 1.4038737, -0.38422, 0.64103913, 1.1634074, -0.6847962, 1.2906845, -1.1397588, 0.4667047, -0.08425661, -0.8920854, -0.8251991, -0.024949623, 0.81532294, -0.720488, -1.3858976, 0.24109331, 0.1833576, -0.5624148, 0.51092756, -0.04834321, 0.27308553}, 
{0.97445965, 0.1133658, -0.37047392, 1.7575517, 0.7023401, 0.42767394, 1.6948808, -0.6450392, 0.41709405, -0.43575788, -1.7753204, 0.4139735, -0.49309963, 0.72454363, 1.2454039, -0.6936144, 0.52635145, -0.92082065, -0.24351895, 0.2438297, -1.7320379, -1.3682085, -0.66305107, -1.1447704, 0.48733845, -1.3878788, -0.15596794, 0.96267503, -0.2454111, -0.37251568, -0.82259876, 0.28066206}, 
{0.70871216, -0.47142684, 0.7481232, 1.1141031, 0.7726657, 0.6988359, 1.1440018, -0.49039164, -0.4353684, -0.93497, -1.2770782, -0.31179637, -0.19442359, 0.85480803, 0.8942504, -0.6161034, -0.20663832, 0.71011555, -0.60597, 0.12393879, -1.4750576, -1.135421, -0.8379335, -1.1636285, 0.4563549, -0.5312996, 0.18416086, 1.2865217, 0.6207415, -0.73737687, -0.70409155, 0.7555311}, 
{-0.3554531, 0.038659204, -0.014922602, 1.0050857, 0.9994094, 0.86217284, 1.233112, 0.4215177, -1.3780285, 0.12912972, -2.17522, -1.2993131, 0.47349116, 0.43455788, 0.39928547, -1.2414969, -1.8240554, 0.9348041, -0.93513966, 0.33084163, -1.301131, -1.122975, 0.2507501, -1.4496931, -0.018268835, -0.4720069, -0.91753685, 1.1474596, 0.8620911, -0.09021412, -0.7339952, 0.2833979}, 
{-0.6984221, 0.012752186, 0.9489548, 0.92405826, -0.47491127, 1.467817, 1.7395977, -0.6535458, 0.6219402, 0.8544701, -0.09115128, -0.86896676, 0.8388215, -0.4881727, -0.93838406, 1.3558177, -0.2667388, -0.20354502, 0.85664475, -0.03351079, 0.59500194, 0.625731, 0.7821762, -1.291988, -0.32162264, -1.6823146, 0.57472134, 1.2702489, -0.3507932, 1.0378152, -0.18192464, -1.5141431}, 
{0.36983505, -0.25963932, 1.1266613, 0.16947806, -0.92201126, 0.11020262, 0.4773926, -0.721121, 0.8824277, -0.95625734, -0.08103015, 1.2584088, 0.45481536, 0.08726543, 0.25620362, 0.6545654, 0.6828389, -0.22345386, -0.1793125, -0.3246842, -0.7126709, -0.010663989, -0.34934542, -0.044614777, 0.11473975, -0.43014404, 1.0004164, 1.3233522, 0.032852676, 0.88728136, 0.24332242, -0.3178127}, 
{1.3492879, -0.39029342, 0.2806653, 1.4983565, -1.8010172, -0.81190753, 1.4130136, -0.9998592, 1.0288702, -0.7405898, -0.859365, 0.7679543, -0.49814045, 0.081429936, 0.067168795, 0.010405009, 0.7002093, -1.0731605, -0.6073709, -0.0774019, -1.2545382, -0.04677168, -0.17910065, 1.1004566, 0.8726403, 0.41573107, 0.48778364, -1.0339919, -0.19087467, 0.9065651, 0.54509664, -1.1827618}, 
{1.1669401, -0.9143572, -1.4737667, 2.2022676, -2.7198298, -1.2437047, 1.4733653, 0.5093545, -0.56864244, -1.7776723, -1.4043143, 0.11813411, -0.3216661, -0.39035615, 0.4841598, -0.12898812, -0.60499716, -1.9530356, -0.85323167, 0.54036945, -1.8069115, 0.119619004, 0.26478603, 0.5857168, 2.0655978, 1.0683167, -1.4592729, -1.821085, 0.8296094, -0.057157457, 0.8492157, -0.732468}, 
{-1.2822095, 1.4811769, -1.9361413, -1.3662527, 1.015872, 0.8304106, -1.0775129, 2.0795083, -1.5917823, 2.4554844, 0.7331586, 1.6398649, -0.50058573, -0.6690703, -1.7827303, -1.3505657, -1.4063456, 1.7086418, -0.28405693, -0.6995428, -0.8100983, -0.18936789, 1.4712895, 0.53623194, -1.4389197, 0.14887822, -1.8369559, 2.000432, 0.9522808, 0.92094886, 0.1281253, 1.23173}, 
{-1.5980015, 1.5927595, -1.762315, -1.9597757, -1.602341, -0.5966746, -2.0064492, 1.024797, -1.9026326, 1.9224954, 1.9496019, 1.480322, -1.5294629, -0.6857212, -2.2151852, -0.124123365, 0.056651663, 1.813201, 0.1465951, 0.25138077, -0.20233947, 1.4157989, 1.483736, 1.4949583, -1.843347, 0.26477638, -1.0181557, 0.987022, -1.0016917, 0.79916674, 2.1921031, 1.8562136}, 
{0.43878618, 0.086552806, 0.4130329, -1.1035776, -1.4878681, -0.91920304, -0.3311945, -0.7756312, -0.09725494, -0.61018836, -0.6120597, 1.3118283, 0.044731103, -0.25324032, 0.32852736, -0.13466781, 0.3020143, -0.008958591, -0.43712932, 0.84851056, -1.1259614, -1.1626565, -0.9669306, 0.4932768, 0.26707563, 0.08648611, 1.1966004, -0.95684713, 0.36652535, -0.26509023, -0.15993267, -0.008208388}, 
{0.49686888, -0.019446494, 0.83804727, -0.1362932, -1.3680092, -1.5796852, 1.2159729, -0.75293577, -0.35588458, -1.1162089, -0.7373275, 0.88232523, -0.03398792, 0.36169323, 1.0666984, -0.12898718, 0.5972048, 0.666002, -0.0550958, 1.0933803, -1.374329, -1.3253542, -1.1108463, -0.70739496, 0.90813965, 0.63314855, 1.106614, -1.2499509, 0.61910975, -0.4714964, -0.9854671, -0.16664012}, 
{0.22619909, 0.3334207, 0.46228427, -0.39727122, 0.4003168, -1.3860474, 0.22709048, 0.087637775, -0.29805464, -0.9790089, -0.51411307, 0.9487193, 0.31098792, 0.43358526, 0.3669316, 0.63913065, -0.35287708, 1.215446, -0.5616383, 1.1445328, -1.6339449, -0.38622773, -1.2152439, -0.39694956, 0.49143395, 0.7440646, 0.30416793, -0.52864677, 0.62261903, -0.94147784, -0.5096573, -0.23704192}, 
{-0.17913692, -0.59996223, 0.28738052, -0.48530498, 0.22442073, 0.13096507, 0.8812981, 0.5660593, 0.66055924, 1.176778, 0.022777993, 0.07166072, 1.766842, -0.55771375, -1.403532, 1.2258358, -1.3603559, 0.51775527, -0.6698868, 0.6291522, 0.5651336, 0.43169665, 1.0790986, -0.1635116, 0.52038395, 0.076704785, -0.5607864, 0.2724026, 1.2179593, -0.45241743, -1.6377659, -1.2481107}, 
{0.42481393, -1.2170869, 1.0629889, -0.5465132, -0.5450884, 0.67537564, 0.8468469, -0.47050467, 0.22445086, 0.07684393, 0.5622281, -0.5405569, 1.61765, -0.12448721, -0.660433, 1.6279851, 0.0018417429, -1.0493991, 0.26276684, 0.37738088, 0.47900516, 0.7073226, 1.1652596, -0.54076254, 0.7674092, -0.8265747, 0.44585776, 0.83432263, 0.15289062, 0.4351517, -1.047798, -1.0432724}, 
{0.40917575, -0.19696864, 1.2029859, -0.7122805, 0.099931136, -0.011680941, 0.046698608, -1.1215192, -0.2713111, -1.064217, 0.05633099, 1.6727074, 0.57565254, 0.35162425, 0.17373706, 1.1988207, 1.3372637, -0.0065993983, 0.00578519, 0.56300783, -2.0433965, -0.09021199, -0.46605325, -0.16865133, 0.01069758, -0.52425, 1.2409425, 0.85681427, -0.37744415, -0.70529836, 0.23132092, -1.1359279}, 
{-0.2715128, 0.21872766, -0.01550747, 0.6015822, 0.38360456, 0.21473959, -0.3581295, -0.4843026, -1.31506, -1.1728637, -0.6292806, 0.068464145, -0.21413204, -0.52654344, 0.95834833, 0.16476645, 0.681773, 0.20415564, -0.123101994, 0.17434166, -1.8154533, 0.21196045, -0.06794066, -0.33138868, -0.4773862, 0.035986304, 0.50519, -0.55889934, -0.55443174, -0.8649712, 1.4876767, 0.08299531}, 
{0.43276843, 0.3770628, -0.5909255, 0.21015087, -0.6180789, -0.72218287, 0.21641275, 0.7971288, -1.6634371, -1.0553333, -0.8952388, 0.33710527, -0.38133028, -0.45844352, 1.1326345, -0.5042449, -0.08130283, -0.25150555, -0.42501035, 0.7583655, -1.2389504, 0.2890055, -0.66162205, -0.41181636, 0.455492, 0.71268815, -0.36445922, -0.110880435, 0.09926216, -0.82224566, 1.8027554, 0.49470308}, 
{-0.123090945, 0.695714, -0.9424341, -2.2421992, -1.6524364, -1.895469, -1.9084746, 1.859268, -1.8684205, 0.9305895, 2.052443, 1.8975431, -0.24182759, -1.6994922, -1.3869177, 1.005891, -0.72277546, 2.0610166, -0.9884071, 1.6470301, 1.7829753, 1.7778354, 0.6359405, 1.222252, 0.118916124, 1.6239183, -0.4946, -1.0772038, -0.12487039, -1.2282854, 1.9232068, 1.0078859}, 
{-1.7946357, 2.4817998, -0.8025102, -0.67023736, 2.3719728, 1.718696, -1.4362446, 0.35216138, 0.17581542, 2.4298115, 1.0859749, 0.20351012, -1.0202773, -0.33650994, -0.44341624, -1.7072448, -0.0723288, 2.2112513, 0.2851762, -1.3320326, -1.8163878, -1.430208, 0.7295564, -1.2665174, -2.275198, -1.2813505, -0.53633344, 2.5532277, 0.3954357, 0.049069285, -0.21850331, 1.4519044}, 
{-0.776402, 1.9078904, -0.21879767, -0.75909656, -0.3013507, -0.001998174, -1.0602088, 0.28350782, -0.68980837, 1.2742778, 1.3310795, 0.8904072, -0.6031932, -1.2500533, -0.6602202, -0.46699718, -0.38390765, 2.1073475, -0.94748247, -0.2889252, -0.73353463, 0.09827292, 0.3593789, 0.9980344, -1.4260453, 0.07126575, -0.2244187, 0.7161492, 0.99975395, 0.07604355, 0.5170421, 0.62075233}, 
{0.7682079, 0.48410702, -0.08260422, -1.0056379, -1.229427, -0.24134861, 0.30426612, 0.3510555, -0.4027327, 0.2622626, 0.70754784, 0.49438396, -0.41627696, -0.51945233, -0.59527874, -0.4876825, -0.4354959, 1.8352779, -0.6481338, 0.40553427, -1.0736268, -1.2494714, -0.44568568, 0.49704695, 1.411257, 0.30653033, -0.18323177, -0.35748887, 0.8637038, -0.469699, -0.4033549, -0.3283321}, 
{1.8579285, -0.4757727, -0.6315465, 0.35219523, -1.5650582, -1.1699047, 1.2655934, 1.2071104, 0.32265493, -0.28908134, -0.7684584, 0.21652718, -0.32040355, -0.30143422, 0.006691468, -0.006400636, 0.24392693, -1.59534, -0.84517515, 0.48800197, 0.4807152, 0.3104061, 0.09238057, 1.0747105, 2.0192285, 1.0337603, -0.41827178, -1.4492251, 0.735972, -0.3228872, -0.69967645, -1.2464174}, 
{1.5810694, -1.0014222, 0.11116997, -0.8320145, -0.927698, -0.78338486, 1.0275472, 0.5673664, 0.1427293, 0.42925948, 0.58242357, -0.9710477, 0.71172833, -0.7691744, -1.013794, 0.99049073, 0.7211171, -1.1772004, 0.99825335, 0.6555633, 1.3244767, 0.9724534, 0.87013865, 0.44183424, 2.2009478, 0.45886448, -0.43184465, -1.2465382, 0.010920255, 0.535712, -0.49982, -0.8639218}, 
{0.6802786, -0.6511324, 0.454318, -1.4629661, 0.023961384, 0.25809664, 0.07840074, -0.40430257, -0.23373382, -0.5600468, 0.97570324, 0.42876792, 0.93766785, -0.102399044, 0.35845736, 0.61049575, 0.24828558, 0.14906134, 0.26467466, 1.0345103, 0.24670216, -0.16222204, -0.5811957, 0.09237189, 0.3874085, -0.3194515, 0.18393521, 0.61316645, -0.37216157, -0.834906, -0.57047725, -1.1153576}, 
{-0.63356286, 0.542718, -0.70000386, -0.0034242256, -0.28849858, -0.6477772, -0.70445114, 0.1720083, 0.02390627, -0.5969644, -0.52174264, 1.4433082, 0.6267404, -0.56554204, 0.7619744, 0.59707826, -0.28073093, 1.026183, -1.2824583, 0.68186104, -2.0597308, 0.41065612, 0.14813885, 0.0045297933, -0.74979895, 0.30139175, -0.10561091, -0.39831325, 0.24595252, -0.92062426, 0.5978157, 0.57484293}, 
{-0.99204046, 0.7365078, -0.38256258, 0.22509919, -0.11002297, -0.09133438, -0.83126336, -0.017144801, -1.1410543, -0.20824231, -0.5429564, -0.19596228, 0.8491044, -0.34371918, 0.30234167, 0.5332586, -0.103802204, 0.97538906, -0.80926645, 0.060610246, -0.44155285, 0.41712785, 0.33880115, -0.43657476, -0.7966746, 0.22806072, -0.2795735, -0.60816115, -0.64715594, -0.43021396, 0.90286046, 0.31924686}, 
{-0.7083917, 0.5890154, -0.70698166, -0.9235911, 0.5230339, -0.8653672, -1.5107297, 1.1633182, -1.599831, 0.7816968, 0.40199047, 1.1762016, 0.34534264, -0.89184177, -0.7262228, 0.27500153, -0.765788, 1.4974788, -1.3598956, 0.701431, 1.3885672, 0.24593459, 0.6151838, -0.28918192, -0.74408686, 0.46671617, -1.1197231, -0.0011323942, 0.3254837, -0.48045132, 0.8819712, 0.71763355}, 
{-0.058189098, -0.48830572, -0.86703527, -1.9297177, -2.2566755, -1.6252192, -1.6608827, 1.4000925, -1.5233164, -0.46220282, 1.7749941, 2.0999987, 0.48237026, -1.9047887, -1.3592259, 1.5718294, -0.7976316, 1.1482445, -1.4091148, 1.8158382, 2.11749, 2.130282, 0.44231126, 1.8895205, 1.4966375, 1.5381657, 0.1218132, -1.9866315, -0.2695033, -1.0399888, 2.1732175, 0.6173293}, 
{-1.5797958, 2.2782993, -1.1476556, -0.70594454, 2.2747214, 1.4894199, -1.1074921, 0.48574287, -0.34532565, 2.306256, 0.7047336, 0.12717223, -0.62700874, -0.38565734, -0.31395003, -1.3633082, -0.47122595, 2.2545364, 0.09552881, -1.3246907, -2.1046214, -1.878175, 0.60865045, -1.2926058, -1.9989839, -0.81328255, -1.0273005, 2.2509441, 0.8354303, -0.09633129, -0.24148735, 1.6038998}, 
{-0.81358236, 1.6648818, -0.31909415, -0.60137033, -0.14258036, -0.2676821, -0.9770511, 0.73803586, -0.72069484, 0.6986288, 1.3547299, 0.442797, 0.3672507, -0.8764385, -0.6114442, 0.54737735, -0.5584401, 1.2823706, -0.9192425, -0.399237, -0.054000404, 1.0410624, 0.8071874, 0.8391627, -0.8314786, 0.60733104, -0.5950523, -0.13002835, 0.8783513, 0.2067687, 1.3115782, 0.095327884}, 
{0.0775347, 0.83173573, -0.77270186, -0.51236993, 0.045948684, 0.016339561, -0.26959267, 0.63728607, -0.1365956, 0.6090563, 1.1114738, 0.19887985, -0.16216895, -0.68964195, -0.66950834, -0.3213889, -0.37461454, 0.49803725, -0.5066774, -1.1397748, 0.08878916, -0.08933908, 1.3375218, 0.6440117, -0.13572404, 0.09700562, -1.3597146, -0.14713803, 1.256231, 0.1233582, 0.16617268, -0.3206593}, 
{0.10843117, 0.096041776, -1.169331, -0.2816479, 0.5120577, -0.08588817, -0.64399743, 0.87193006, -0.73198825, 1.0879906, 0.5512025, -0.68722713, -0.88541937, -0.90647674, -0.7534794, -0.7532202, -0.601946, 0.19347721, -0.2896549, 0.020426124, -0.08915395, 0.356632, 1.0308312, 0.22613345, -0.13777734, 0.9063353, -1.1456025, -0.99009466, 1.5692658, -0.12619473, 0.7160336, 0.0993425}, 
{0.48881555, -0.41000873, -1.6454006, 0.5488201, 0.46275333, -0.4938695, -0.5205836, 1.0152507, -1.4972618, -0.63752943, -0.2940104, -1.1210319, -0.93118477, -0.70029277, 0.7639828, -0.036634844, -0.7090861, -0.07697246, 0.32644197, 0.7167244, 0.015407442, 0.04360416, 0.44219986, -0.41082963, 0.021161791, 0.98541254, -1.2938348, -0.9108534, 0.6137416, 0.113195226, 1.4971092, 0.0778318}, 
{-0.11368341, 0.23758018, -0.94435287, 0.56482023, 0.08967242, -0.080890305, -0.067321345, 0.29980078, -1.0201766, -0.10226742, -0.71908975, -1.1780713, 0.15707685, -0.5769246, 1.2416483, 0.4673863, -1.2074387, -0.04018759, -0.8808589, 0.30634043, -0.028914014, 0.8852207, 1.1404607, -0.70864105, -0.7444481, 0.31018066, -1.0071049, -0.28322846, 0.26542997, -0.055143416, 1.4529803, -0.16667467}, 
{-0.21335569, 0.2545261, -0.5079175, -0.25025642, 0.119563356, -0.61595374, 0.24125098, 0.20301148, -0.9649497, 0.7255289, -0.22150761, -0.46646187, 1.1597492, -0.11304706, 0.33501685, 0.44892085, -1.0658109, 0.32748264, -1.242958, 0.2709736, 0.7485814, 0.4775289, 1.0753875, -0.7115561, -0.5752228, 0.44824067, -1.1247472, -0.40325546, 0.42891377, -0.42689893, 0.59824437, -0.00018555441}, 
{-0.1377212, 0.22663023, -0.82807976, -0.53445077, 0.5696262, -0.7736577, -0.115939856, 0.5087072, -1.2841971, 1.4700627, 0.415451, 0.93845654, 1.2353234, -0.12925653, -0.55363923, 1.0797118, -1.063957, 0.5702841, -1.443508, -0.36678374, 1.293668, -0.29926097, 0.73037016, -0.41707498, -0.39704028, 0.4930779, -1.1720876, -0.812797, 0.34994754, 0.12801398, -0.27529335, 0.003045007}, 
{1.1264378, -0.43922135, -1.0022197, -0.9091149, 0.8193592, -0.7601897, -1.08768, 0.9020188, -1.1760558, 1.3437784, 0.5318429, 1.312785, 1.3675774, -0.5014456, -0.839758, 0.69843286, -0.8274677, 1.2030549, -1.2512074, 0.04441058, 1.0119274, -0.6187275, -0.60497457, 0.7011647, 0.43665212, 0.5018016, -1.0152632, -0.70452505, 0.46104425, -0.21673487, -0.093913965, 0.38469896}, 
{0.9000249, -0.6051956, -0.6471951, -1.644791, -1.1525812, -1.6318991, -1.7790552, 0.89070433, -1.1209261, -0.3648845, 1.7071868, 1.6882484, 0.5881111, -1.7121763, -0.87629634, 1.1206214, -0.50910383, 1.4517714, -0.9769618, 1.2037742, 1.7304237, 1.5443506, -0.36713365, 1.4418483, 1.1366862, 1.2693818, -0.026702791, -1.402774, 0.13737856, -0.73422986, 1.6982872, 0.18112421}, 
{-1.528657, 2.0921452, -0.8871725, -0.3153231, 2.4289782, 1.7186965, -1.1653023, 0.34371594, -0.058507703, 2.129235, 0.5225952, -0.24363494, 0.013355669, 0.10772036, -0.4496986, -1.1355529, -0.31253076, 2.4281845, 0.24568817, -1.1333107, -1.6055506, -1.4269927, 0.4840595, -1.7692283, -2.358094, -1.220278, -0.523616, 2.3490105, 0.33913073, -0.44365585, -0.40063235, 1.5762004}, 
{-1.086634, 1.4857607, -0.46609363, -0.22868729, 0.60328877, -0.30897108, -1.1987474, 0.12834036, -0.02723356, 0.95961934, 1.5143708, -0.59684134, 0.61950904, -0.63860804, -0.4761953, 0.8029831, 0.07554905, 1.6931111, 0.14307928, -0.06547025, 0.40288582, 1.4542773, 1.0899036, -0.6068903, -1.4134065, -0.20427695, 0.15852574, 0.00375448, -0.1795008, 0.3209093, 1.671171, 0.6602321}, 
{-0.5006425, 0.17604254, 0.13057548, 0.957667, -0.506563, -0.62662846, -0.6514992, -0.091458224, 0.558036, -0.44869202, 0.9316258, -0.28988382, -0.02544357, 0.14608236, -0.5408835, 0.32615957, 0.39973587, 0.0062214746, 0.5016078, -0.97241354, 0.26120225, 0.99035335, 0.42759463, 0.3357807, -0.3643724, -0.18522805, 0.15366904, -0.86390525, 0.016559185, 0.64395624, 1.1196345, -0.09183099}, 
{-0.69002736, -0.05925278, -0.391581, 0.57837814, 0.28445587, 0.01528267, -0.41093117, -0.1530341, 0.15730192, -0.043998726, 0.45215055, 0.5011578, 0.23848765, 0.8756594, -0.09707868, -0.21277007, -0.40955105, 0.0562303, -0.027310098, -1.1636364, -0.93818617, -0.06959183, 0.12024124, -0.21600349, -0.5732118, -0.03311325, -0.18540744, -0.17939691, 0.35440034, 0.59344196, 0.82734025, 0.35874993}, 
{-0.2248106, 0.19438112, -0.8928962, 0.6940323, 0.0018822562, 0.46489123, -0.47379115, 0.83117193, -0.1937205, 0.7022883, -0.79126245, 1.5424906, -0.41526583, 1.7754786, -0.12271535, -0.34133306, -0.09468761, -0.3633083, -0.71729505, -1.1591098, -0.9479076, -0.44708064, -0.2819034, 0.12812029, -0.23538785, -0.037297133, -0.7399107, 0.19162805, 0.4788474, 0.39128658, 0.20976269, 0.8358809}, 
{0.07525362, 0.059911463, -0.72801113, 0.06250427, -0.025387477, 0.6369118, -0.033240445, 0.59655476, -0.51803106, 1.1183311, -0.7996307, 0.9606481, -0.41096318, 1.557111, 0.17563969, -0.14672294, -0.31805578, -0.8767503, -0.66453207, -0.7113559, 0.16986905, -0.25866565, 0.16293041, 0.3392389, -0.04087486, -0.36687925, -1.0363598, 0.45392278, 0.2078395, -0.05688658, 0.0047552246, 0.7466856}, 
{0.3586327, 0.24719526, -0.15226194, -0.4458602, -0.0033357604, -0.045583457, 0.52061844, 0.11830779, -0.26002952, 1.3830796, -0.5455517, 0.49612772, 0.046406254, 1.2706845, -0.5040353, 0.33856237, -0.50144935, -0.38461894, -1.2475798, -0.69626397, 0.8062486, -0.011550368, 0.03654636, 0.11956794, -0.09935964, -0.27445537, -0.24487166, 0.3292196, 0.4988382, 0.19786046, -0.8044286, 0.34932888}, 
{0.93089336, -0.2550523, 0.025446529, -0.47403353, 0.43117368, -1.4573342, 0.26142475, -0.31316152, -0.15147904, 0.8426997, -0.28765237, 1.8589305, 1.6236494, 0.63861656, -0.81860435, 1.2410587, -0.15313779, 0.22249065, -1.2887036, -1.077977, 1.1064209, -0.80697083, -0.8777466, 0.39363635, 0.91309464, 0.5225208, 0.17107764, 0.22707795, 0.91755027, 0.13654459, -1.8458529, -0.5093612}, 
{1.5160273, -0.085721985, -0.30648863, -0.7337987, 0.5227307, -1.5682682, -1.5401525, -0.15816802, -0.6097921, -0.25970235, 0.28190643, 1.8369356, 1.3812698, 0.99722517, -0.9998443, 0.50778, -0.15920591, 1.0490938, -1.2272745, -1.2031482, 0.38373864, -1.2145708, -1.5123184, 0.49942142, 0.950419, 0.5891959, 0.6341043, -0.37364963, -0.19520299, -0.030899066, -0.55546695, 0.4224149}, 
{0.9205245, -0.6508772, -0.037824996, -1.5467743, -0.4456384, -1.8012227, -1.3434439, 0.47508264, -1.1704322, -0.47802866, 1.6075524, 1.1211874, 0.6552398, -0.97224694, -0.70231164, 1.4672437, -0.76688033, 1.3935966, -0.9365106, 1.0784897, 1.6203133, 0.98686993, -1.0328482, 0.65692675, 0.9956452, 1.1355026, 0.3236889, -1.171868, 0.16247576, -1.0904671, 0.94274735, 0.46007088}, 
{-0.96610177, 1.0540017, -0.0029571827, 1.6262087, 0.6180423, 0.31484997, -0.49421403, -1.0602274, 1.0648444, -0.084747195, 0.56113356, -0.7071669, 0.7638837, 0.8804765, 0.060505964, 0.38144645, 0.893322, 0.69599086, 0.76637536, -0.68827635, -1.3076764, 0.32035774, -0.12710147, -1.2554189, -1.6400965, -1.3633021, 1.1213498, 0.7137537, -0.83875865, 0.69204575, 0.6470358, 0.26786402}, 
{-0.02585391, 0.1433293, 0.751452, 1.657283, 0.66207504, 0.32552007, -0.14643887, -1.5050238, 1.27597, -1.2203575, 0.2411042, -0.5476097, 0.4314222, 1.2924763, 0.36466062, 0.44374883, 1.2953256, 0.3540183, 0.687005, -1.186598, -1.280224, -0.27588457, -1.0800415, -1.0168393, -0.60559577, -1.4316034, 1.6752752, 0.49856627, -0.97380656, 0.5697809, 0.027732754, 0.08304556}, 
{-0.09542936, 0.25077814, 0.80211776, 1.7482288, -0.0340895, 0.5316031, -0.42111608, -1.4350647, 1.4814956, -0.8011006, 0.59697914, 0.08149382, 0.42248335, 1.2988162, 0.20639923, 0.32999867, 1.0316881, 0.2909457, 0.7905052, -1.7249967, -1.3775212, -0.27589998, -1.3570148, -1.0850874, -0.71273905, -0.9563334, 1.8962976, 0.839292, -1.1428106, 1.2439585, 0.40878135, 0.06303719}, 
{-0.8042332, 0.78135395, 0.31432304, 1.2747384, 0.25210208, 0.7972812, -0.80846345, -0.7432222, 1.4390596, -0.16855998, 1.3026793, -0.023143696, 0.23288171, 0.75963086, 0.43013003, 0.62436056, 0.4816453, 0.84232974, 0.6589788, -1.6077896, -1.298505, 0.14500298, -0.7789348, -0.93629056, -1.5207831, -1.158371, 1.2730527, 1.2318689, -1.1360075, 1.5047746, 0.81392497, 0.071020156}, 
{-0.6922598, 1.3916657, -0.07064457, 1.1864961, 0.34657478, 0.7645863, -1.024858, -0.83239, 1.4645104, -0.20367365, 1.2855717, 0.62567544, -0.30459893, 0.6961323, 0.38673073, -0.09599578, 0.6429586, 0.9829432, 0.85440195, -1.5702914, -1.6558024, -0.042554807, -0.8298382, -0.045365192, -1.5532947, -0.8283308, 0.7579868, 1.1920943, -1.0299544, 1.224634, 0.6511484, 0.4150432}, 
{0.1930006, 1.1957107, -0.29600605, 1.0894886, -0.053424746, 0.8059997, -0.8586117, -0.30140635, 1.1973158, -0.6051552, 0.04075381, 0.80758435, -1.3139037, 1.3900692, 0.46696898, -1.0542054, 0.56903195, 0.336351, 0.49273247, -1.3043414, -2.2289727, -0.8650228, -1.4128664, 0.82904583, -0.85203636, -0.96750915, 0.73957324, 1.6793591, -0.86205786, 0.8973486, 0.22093852, 0.70306}, 
{0.37539265, 1.4506536, -0.36449245, 1.9620692, -0.58494127, 1.1106641, -0.5617653, -0.5292013, 1.5877559, -0.27549395, -0.782584, -0.049108256, -1.372221, 0.7699583, -0.010419786, -1.1208339, 0.5092408, 0.052335132, 0.6729682, -1.4686948, -2.416513, -0.7610404, -1.4310607, 0.85139066, -0.9142038, -1.181274, 0.5224057, 1.602227, -1.1736978, 1.5066296, -0.0743033, 0.87600935}, 
{0.39373937, 1.056113, 0.34140706, 2.3502476, 0.039875995, 0.65833485, 0.9346169, -0.7692881, 1.9751745, -0.4972904, -1.721286, -0.32692498, 0.64785165, 0.617723, 0.32342395, 0.43747476, 0.40508696, 0.41399717, 0.20861733, -1.2995282, -1.7262284, -1.5143839, -1.3994524, 0.4644188, -0.27973032, -1.0978477, 0.9853731, 1.143536, -1.0833024, 1.400339, -1.3029366, -0.21757516}, 
{0.95501566, 0.64619404, 0.2543003, 1.4362634, 1.2836087, 0.7473204, 0.39303112, -0.48540494, 1.0322856, -0.16059187, -1.7694111, 0.04736989, 0.730992, 1.0867077, 0.23380202, -0.19822364, -0.11720745, 0.45238593, -0.039986756, -0.9812839, -1.4187549, -1.3595762, -1.5337818, -0.31078872, -0.002844646, -1.2163961, 0.47880653, 1.4991503, -0.48165053, 0.43496788, -1.2564682, 0.3739371}, 
{0.34058586, -0.04685727, 0.7325177, 0.0012277467, 0.27747172, -0.64439136, 0.31823376, -0.9895514, 0.418034, -0.81743896, 0.06522898, -0.15079048, 0.19842817, -0.09965483, 0.4117269, 0.41802806, -0.07247947, 0.68604, 0.4614341, -0.485536, 0.41993186, -0.22033237, -1.1607093, -0.5333958, 0.21306385, -0.15700145, 0.84428924, -0.121990934, -0.60624576, 0.22559409, -0.34403402, -0.3507319}}