{{-1.9547993, 0.07372573, 0.2569301, 1.648929, 0.86056995, -0.38869783, -1.5297937, -0.75476116, 1.468146, 1.063567, -0.8481674, -1.1983155, 0.8842529, 0.06553191, -0.12391219, 0.27616566, 0.09636298, -0.28883308, -0.24803987, -0.39862785, 0.37655598, 2.0762336, -0.9667384, -1.083407, 1.0815893, 0.019688282, -0.5383692, -0.048670314, -0.21782306, 0.21000792, 1.0013878, -0.9490931},
			{-0.91201717, -1.056959, -0.58398306, -0.057055783, 0.6470149, -0.8915873, 0.12090888, -1.4515508, -0.2879865, 1.2677695, -0.30957252, -0.09278459, -0.38700002, -0.67721045, 0.0658778, 0.80722225, 0.45900196, 1.4091103, -0.8094468, -0.7606132, 2.1839058, 0.7303175, -1.0939511, 0.7387742, 0.9174495, -2.0139227, -0.08171739, -0.639063, -0.13420795, -0.06080151, -0.17832808, -0.4130288},
			{0.27461287, -0.79232216, 0.11531596, 0.86695665, -0.6180089, -0.23131283, -0.18324913, -1.3014843, 1.3203694, -0.28116974, -0.3675986, 1.9607809, -0.5133326, -0.049656987, -1.2667428, 1.5066367, 1.3233528, 0.33544165, -1.1435515, -0.9501721, -0.94760376, 0.43346977, 0.30298004, -0.047624916, 1.227786, 0.62903214, 1.5902286, -0.19797514, 0.547348, -0.4576644, -1.8579569, 1.0458179},
			{-0.42698044, -1.420561, -0.17933227, 1.0755491, 0.51359415, -0.77073747, 0.2888003, -2.2955403, -1.180811, -0.09619186, -1.1598433, -0.9349233, -1.0159414, 0.47439712, 0.85847723, -1.0850167, 0.98739916, 1.5523013, -0.14531094, -0.30612275, 0.77820396, -0.009312914, -0.7832646, 0.54438883, 1.3921949, 0.75100905, -0.16903275, -0.02213145, 1.3275338, 1.2072742, 0.7444272, -0.5955991},
			{1.3951684, -0.65035814, 0.27850726, 0.102682404, 0.31223437, 0.17488456, 0.58094066, -1.4947991, -1.7684449, 0.10951224, -1.065902, -0.8752935, 0.6266919, -1.1506267, 0.2305788, -1.3544478, 0.61307114, 1.2323424, -1.2237958, -0.5106929, 0.8586059, 0.4066858, -1.2931122, 0.18891308, 1.3794787, -0.95648515, 0.031243846, 0.6025022, 0.7710732, -0.05673552, -0.22397958, 0.11947499},
			{1.3970672, -1.1067137, 0.6952158, 0.24470173, 0.206958, 0.8194886, -0.32921162, -0.9743394, -1.2156152, -0.6248849, -1.8455597, -0.21745948, 0.41992927, -0.6814117, 0.5634502, -1.3103046, 1.3195478, 0.70310766, -1.4343797, -0.67427343, 1.1796702, 0.6570599, -0.7361393, 0.30896303, 1.4788052, -0.2946244, 0.36075553, 0.48708045, 0.7587622, 0.72658896, -0.38484263, 0.2438182},
			{0.8120835, -0.45498806, 2.1168754, 0.0036450867, 0.54218036, 0.64500546, 0.06866545, -0.3157419, -0.9736871, -1.3119531, -1.5159526, 0.43132725, 1.5183643, -0.50921494, 2.1786282, 0.56149566, 0.15050283, -0.34090415, 0.40461126, -0.2939161, 0.33358777, -1.1616673, -1.105778, 0.6749058, 0.02941796, -0.54861647, 0.7688114, 0.5367595, 0.2002468, -1.8355426, 0.024353083, -0.63477236},
			{0.48412642, -0.23339756, 1.3770413, -0.54371214, 0.7534234, -0.47571132, -0.1954793, -1.018013, -1.2716908, -1.5580794, -2.0466678, -1.2416685, 0.45561105, -1.4093565, 2.2381065, -0.007897418, 0.71029764, -0.17935155, 0.70519984, 0.46451613, -0.78364766, -2.9258955, -1.1019149, 0.8930425, 0.13936841, -0.6506905, 1.1658043, 0.5658701, 1.3582952, -1.9428447, 0.027189549, 0.5198848},
			{0.14512518, 0.36219215, -0.2184789, 0.036509342, -0.2337506, -0.79980195, 0.06581341, -0.73649013, 0.44130853, -0.9194283, -1.7975584, -2.3412771, -0.6057029, 0.82564133, 2.2017548, 0.21975084, 0.94977146, 0.5302468, 0.18610622, 0.20768243, -0.8531862, -4.03628, 0.097200364, 1.3682902, 0.16534528, 1.1800367, 0.51514405, 0.7981154, 1.1465446, 0.29368255, 0.28315273, -0.89964664},
			{0.88771546, 1.8153431, -0.011321412, 0.8330759, -0.9961425, -1.083491, -1.8574826, 0.9128276, 0.4855112, -3.2798064, -1.1427206, 0.1791018, -1.6562986, 1.4019223, 2.448792, 0.65164554, 0.9528114, 0.6860409, -2.9969008, -0.55711704, -0.35974956, 1.0048809, 1.0699893, 1.1153201, -1.0474486, 2.6697505, -0.46517283, 2.9201508, -0.80990237, -0.59858364, -0.92489105, -0.9520645},
			{-1.5955225, 0.6410087, 0.3960871, 0.7837631, -0.00029798283, -0.46820027, -0.97029424, 0.75995064, 0.29537576, 1.452889, -0.06571565, -0.91579264, 1.4999251, -0.13601722, 0.4177353, -0.3864073, 0.6331405, -0.52897197, 1.1507109, -0.63887316, 1.5512335, 2.0783057, -1.2275947, -0.6192124, 0.6536753, -0.4490261, -0.6890929, 0.32174036, -0.3563571, 1.1407408, 1.2312384, 0.04035746},
			{-0.054644354, 1.7230252, 0.38432232, 1.1598754, -1.5678113, 1.0120713, -1.8261242, 1.4114847, 1.348104, -1.1251298, -0.7413381, 0.5196882, 0.94227374, -1.200633, -0.5719264, 0.71800065, 1.153354, -0.38453534, -0.2510832, -1.7834243, -0.23739298, 2.2209005, 0.033074714, 0.17257385, -0.20610951, 0.3292773, 0.20237532, 0.1439777, -0.26613128, -0.33248907, -1.263795, -0.011522703},
			{-0.29732656, 0.41611472, 1.6054157, 0.44059324, 0.6448185, 0.23462287, 0.20427376, -0.2790784, -0.02330218, -0.7311203, -0.31137177, -0.7096613, 0.86882335, -0.17266342, -0.8860281, -0.21050638, 1.0199845, 0.1762451, -1.0371913, -1.1176549, 0.9906969, 0.8827335, -0.18523677, 0.22083268, -0.62468547, 0.18678536, 1.0457075, -0.23285724, -0.19057491, -0.25354776, -0.30043873, -1.0732826},
			{0.38104793, 0.05733479, 0.902865, 1.4406991, -0.41062734, -0.39108747, 0.061687037, 0.12151648, 0.012173657, -0.12008606, -1.1239018, -0.5090269, -0.11803395, -0.8102411, -0.9110706, -0.5281717, 1.3180478, 0.7062527, -0.53780645, -0.51835066, 0.4502636, 0.20603994, -0.8025043, -0.26412854, 0.12275288, -0.27787194, 0.32348782, -0.46130702, 0.33159235, 0.08629309, -0.4370327, -0.9664056},
			{0.7788974, -0.55039275, 0.08866792, 0.9174948, 0.13834284, -0.34978458, -0.35806853, -0.006505212, 0.29608038, 0.51738405, -0.22725578, -0.9190672, -0.18102792, -0.2839121, -0.4748895, -0.61084133, 0.46465483, 0.5113259, 0.053035405, -0.19498602, -0.34010774, 0.42889485, 0.117041685, 0.39747167, 0.4454728, 0.95977527, 1.0964267, 0.111047134, -0.43129697, -0.19798058, -0.026978249, -0.20623681},
			{0.72084576, 0.1580656, -0.087893665, 0.47389826, 0.031047262, -0.20464872, 0.28918537, 0.23394954, -0.052658018, 0.7418315, 0.21705025, -0.17576906, 0.49034798, -0.13527054, 0.05538407, -0.1835076, 0.28359437, 0.04341855, -0.24005781, 0.32421386, -0.14780588, -0.09556899, 0.14817794, 0.55123234, -0.13830976, 0.7532616, 0.7741615, 0.4171614, -0.3138821, -0.16966003, 0.06475482, 0.059569623},
			{-0.37432548, 0.5171341, -0.48669726, 0.45743564, -0.67347413, -0.16947265, 0.42380235, -0.09873601, -0.0010042903, 0.102414794, -0.45926, -0.78586787, 0.4769926, -0.3411267, 0.565902, 0.028871186, -0.20470072, 0.24176042, 0.14698842, -0.34974694, 0.3228847, -0.63606197, -0.06561032, 0.89298296, 0.69913906, -0.14012781, 0.38870305, 0.62682277, -0.15667704, 0.08322542, -0.3503771, -0.1176738},
			{0.6703179, 0.3711583, 0.05740598, -0.12482783, -0.05187654, 0.42334965, 0.82383233, -0.1843263, -0.1172099, -0.16742502, -0.04220885, -1.2906994, -0.22330411, -0.09780862, 0.8290808, -0.33155218, -0.35684955, 0.49300256, 0.26253793, -0.8695744, 0.027140958, -0.9662005, -0.22922045, 0.5423897, -0.07343999, 0.07256325, 0.25434068, 0.8428716, 0.5181525, -0.27646717, -0.50759375, -0.8511644},
			{-0.81299114, 0.8647175, 0.008601039, -0.13014863, -0.12462961, -0.2796278, 0.44612557, -0.5471317, 0.48378512, -0.6902023, -0.31604645, -0.6559096, -0.43643537, -0.48245332, 1.034182, 1.5388286, -0.22734061, 0.07576071, 0.3545412, -0.58542776, 0.47926337, -0.8090768, 0.026818018, -0.077569194, 0.033107415, 0.060277376, -0.5633311, 0.31212217, 0.42682675, -1.0648274, 0.3682188, 0.053112116},
			{-0.8917739, 1.3727148, -1.009822, 0.46232656, 0.6599416, -2.0681834, -0.09580681, 0.04443253, 0.5384868, -1.2448261, -1.1336055, -0.5481413, -0.79494643, 2.4915786, -0.41052866, 2.1458457, 0.5302591, 1.0766912, -1.0630541, -0.5495999, 2.3881779, -0.7824942, 1.0925778, -0.8540161, 0.31244284, 0.2253574, -1.2404828, 0.055881843, -0.70129395, -1.4587256, 0.8030275, -0.7722625},
			{-0.46668628, 0.4059145, 1.5249002, 0.07315234, 0.31750795, 0.071495146, -0.7464, 0.010589572, 0.91713834, -0.7409031, 0.9381388, 0.30638546, 0.79353267, -0.43719804, 1.2392709, -0.38770425, 1.5614789, 0.312257, -0.032503195, -0.57882744, 2.9040644, 0.1807528, 0.26379317, -0.3149001, -1.1189625, -0.052050497, -2.4550393, 0.099662654, 0.5450972, 0.5759903, -0.36060235, 1.1859154},
			{-0.7665337, 0.8648324, 0.56682056, 0.46821982, 0.3377553, 0.47089815, -0.10715372, -0.11679897, 0.19642472, -0.27077004, -0.2142065, 0.045402262, 1.2595445, -0.83773196, 0.34782606, 0.55611885, 1.4057611, 0.43434495, 0.1587649, -0.90670913, -0.49040404, 0.7576236, 0.18248942, -0.25854856, 0.23424025, -0.5517664, -0.58934015, 0.27392137, -0.4415267, -0.11914238, -0.091104046, -0.250186},
			{0.40338257, 0.19260065, 0.581936, 0.1756011, 0.7767836, 0.09459214, -0.062265657, -0.20907997, 0.003460826, -0.17568794, -0.45607528, -0.034777317, -0.5490683, 0.111964904, -0.089541316, -0.017881444, 0.06438052, 0.0063879937, -1.2908393, 0.09808373, -0.047982547, -0.022342982, -0.0742716, 0.22586496, -0.2714943, -0.22060499, -0.090933464, -0.48813683, -0.18116125, 0.12071651, 0.30591908, -1.049824},
			{0.38129726, -0.28847742, 0.07458157, 0.10844081, 0.693881, 0.48198706, -0.2529584, -0.31555864, 0.079826556, -0.3794622, -0.64065635, -0.3744853, -0.45583194, -0.011474347, -0.17589708, 0.071445525, -0.427866, 0.41382307, -1.000342, -0.25814342, 0.121762104, 0.22446339, 0.24746053, -0.12213089, 0.11795226, -0.14208916, -0.89430624, -0.12053725, 0.2499072, 0.3896454, 0.052658904, -0.6186432},
			{0.45930707, -0.46500996, -0.017608883, 0.08471883, 0.6836964, 0.54849166, 0.116995394, -0.13534573, 0.32527375, -0.08913778, -0.17092702, -0.5178099, -0.35728723, -0.20212997, 0.11179883, -0.13235354, -0.7355976, 0.72567374, -0.09917758, -0.0843881, 0.28287667, 0.09529755, 0.47803015, 0.1415031, 0.23759773, 1.0028529, 0.064469025, 0.017610151, 0.13683099, 0.41801792, 0.13477501, 0.5117493},
			{-0.3356447, 0.05654677, -0.11956748, -0.039443284, 0.12207446, 0.51401585, -0.2056949, -0.13355678, 0.1244091, 0.20446406, -0.30698693, -0.78600305, -0.09967364, 0.13730979, -0.1549195, -0.6722784, -0.30861464, 0.24308139, -0.3504196, 0.25706246, -0.4855019, 0.42884016, 0.911147, 0.39582202, 0.38385952, 0.5443854, 0.85178304, 0.12496689, 0.058014512, -0.23283769, -0.24732597, 0.5842042},
			{0.17327358, 0.21655099, 0.37251234, -0.10107731, 0.05570978, -0.0789065, 0.27710092, 0.17249918, 0.1863174, 0.29408973, -0.057449274, -0.03627407, 0.66849744, 0.35841817, 0.30017507, -0.2988749, -0.55679834, -0.023665765, -0.15487535, -0.025646191, 0.0061783334, -0.51277465, 0.28930023, -0.0028427644, 0.25381312, 0.1356457, 1.125804, 0.2586029, -0.09899495, -0.32980683, -0.04439842, -0.69296384},
			{0.17195809, 0.2875603, 0.5343267, -0.10978956, -0.2783008, 0.31929594, 0.81481266, 0.07488927, 0.09833999, -0.18371749, -0.2750208, 0.18083929, -0.16284168, 0.031006245, 0.7238734, 0.19377355, -0.7965997, 0.59731185, 0.26470196, -0.36453128, -0.10754341, -0.8136356, 0.0052961316, -0.20805289, -0.23371245, 0.011997134, 0.4251126, -0.20059326, 0.34839672, -0.20223798, -0.49447626, -0.54180264},
			{0.22823466, 0.60672307, -0.06107371, 0.33490956, 0.20271127, 0.6691813, 0.52260923, -0.016241847, -0.10945996, -0.50732696, -0.27882007, -0.010669706, -0.05872273, -0.06351244, 0.69701445, 0.27976078, -0.47319874, 0.49179462, 0.16223845, -0.35168687, -0.4757411, 0.6134019, 0.14157619, -0.0033131484, -0.3016029, -0.5898461, 0.15899421, -0.40281144, 0.27600798, -0.6772382, -0.10431711, 0.25068623},
			{0.2552669, 1.035426, -0.7084013, 0.50934887, -0.34010687, -4.6254334, -2.6235275, -0.26176018, -0.5805393, -2.3919175, -0.8507981, -1.2645828, -0.98168236, -0.30952877, 0.08896143, -0.47714272, 0.76176167, 0.329515, -1.652186, -0.11936911, 0.9858417, 0.19607079, 0.6751401, 1.1409125, 0.12009357, 0.83884764, 0.08116096, 1.0145895, 0.08032281, -0.46017238, 0.1276372, -0.27306914},
			{-3.537987, 0.09351528, 0.2780399, 1.486113, -1.1070597, 1.2589812, -0.8963211, 0.5015171, -0.0006025639, 0.61140025, 2.0581665, 1.1465174, 3.3364766, 2.4383895, -0.16478162, 1.45059, 0.0972531, 0.5664879, 0.3999719, -0.9152163, 1.0375178, 2.3822005, 0.29776743, -1.1085007, 1.2694595, 0.51559436, -0.09791501, 1.0728382, -4.3609347, 0.26017776, -1.0479586, -0.81834173},
			{-0.62624043, 0.4120924, 0.14660183, 0.16534221, 1.0691264, -0.202948, -0.7740383, -0.094488256, -0.19042502, -0.13823538, -1.7597102, 0.2799695, 0.7337406, 0.37006512, -0.16302282, 0.39860597, -0.1201468, -0.0749182, 0.36147287, -0.048007995, -0.37560463, -0.29752788, 0.15996757, -0.33814213, 0.87162215, -0.3360279, -0.21787201, -0.41632408, -0.60375583, 0.69214404, 0.19397937, -0.18043682},
			{-0.52387303, 0.13569303, 0.07438347, 0.29690236, 0.6277569, 0.35944352, -0.25186002, 0.13913505, 0.13526134, -0.7215344, -0.39906824, -0.005659278, 0.57186204, -0.36546287, -0.26827398, 0.14026332, -0.25977224, -0.48590755, -0.44409811, 0.08356546, -0.66764987, -0.5661294, 0.58796877, 0.25408813, 0.17525941, -0.3721209, -0.058242492, -0.08014402, -0.18250369, 0.12162535, -0.24876437, 0.056754664},
			{0.45440215, -0.27091047, 0.16464877, -0.118031114, -0.072313815, 0.15789126, -0.24780843, -0.38053957, -0.05764341, -0.24738877, -0.030015113, -0.02290269, 0.27583006, 0.042828817, -0.055928297, 0.13583866, -0.35849908, -0.2207329, -0.8192311, 0.16325308, -0.5518048, -0.24991909, 0.3426302, 0.08588367, -0.28078353, -0.49184042, -0.23970212, -0.32018894, 0.06278713, 0.16352941, -0.31294957, -0.5371953},
			{0.8475186, -0.1953014, 0.5244887, 0.06137475, 0.7180041, -0.62591624, -0.0066592926, 0.16105172, -0.020726724, -0.16231145, -0.30169865, 0.23494469, -0.5329446, 0.08169062, -0.30057597, 0.6595582, -0.50910264, 0.23766491, 0.6194115, 0.24201937, -0.15282892, 0.44811046, 0.48309433, -0.23283783, -0.0053230003, 0.9046525, -0.44763473, 0.3208225, -0.15947793, 0.40842956, 0.18330699, 0.41247383},
			{-0.8560218, 0.3890878, -0.10843843, -0.03536516, 0.37651926, -0.14024028, -0.8336645, 0.44995156, -0.08221178, 0.10554593, 0.15241313, 0.5680575, 0.5291564, -0.19667861, 0.021279497, -0.050652973, -0.19427893, 0.06385825, 0.18372595, 0.56521606, -0.009053856, 0.72308487, 0.41993275, 0.30278704, -0.1178589, -0.48243102, 0.22134684, -0.14592639, 0.078519225, 0.30633554, -0.22412287, 0.15436314},
			{-0.3078822, -0.08716929, 0.24686508, 0.16675998, 0.67548066, 0.10136865, 0.09705421, 0.6436384, -0.11584528, 0.4643772, 0.67169046, -0.052647218, 0.40045056, -0.28085157, 0.039155204, 0.16798939, -0.35081047, 0.19213146, 0.0012241125, 0.33033943, 0.080236875, -0.7913769, 0.0096405735, -0.040562138, -0.008975497, -0.47406498, 0.022346526, -0.36893392, -0.41777372, 0.36165926, 0.5291933, -0.5770284},
			{-0.17231284, -0.29761997, 0.73852324, -0.027868468, 0.40623933, 0.11970524, 1.3550447, 0.1411896, -0.087849304, -0.11030488, 0.7187749, 0.11412725, -0.8203362, -0.049076393, 0.8600815, 0.11796762, -0.12518945, -0.31963187, -0.35549018, -0.14350851, 0.037401576, -1.950395, -0.34995806, -0.5265737, -0.23561484, 0.39771616, 0.29364127, -0.0676211, -0.05843104, 0.31907916, 0.450159, 0.44592613},
			{-0.2129266, -0.022644272, 0.5446733, -0.6310149, 0.1022653, 0.30618948, 0.11066751, -0.118511744, -0.06409413, -0.7804341, 0.48399398, -0.18124752, -0.84408194, -1.1479003, 0.78408176, 0.02952874, -0.7268373, -0.24005154, -0.78710926, -0.25219524, -0.055706937, 1.1635329, 0.59302646, -0.16289514, -0.5322725, -0.24651338, 0.23265813, -0.7007194, 0.00940906, 0.28573376, -0.48359632, 0.012797007},
			{0.2264766, 0.14953125, 0.5571454, -1.0065616, -0.55366045, -3.1865728, -1.2170461, -0.21884598, -0.16859807, -0.9719385, 0.9369315, -0.73109156, -0.3850023, -1.2105137, 0.7303549, -0.02664641, 0.08621048, -0.22487715, -0.25276572, -0.13490623, 0.62443197, 1.3141664, 1.0115083, -0.39872873, -1.2322738, 0.4882274, -1.6428725, -1.4222612, 0.46222067, -0.86107814, -0.85412896, -0.5881922},
			{-3.2981217, 0.36727402, 0.9267002, 1.720777, 0.23167019, -0.06814275, 0.0998018, -0.07853621, -0.75236714, 0.99709857, 0.83419096, 0.2382913, 1.00933, 2.9585035, -0.3503171, 0.9190809, 0.2256329, -0.6266291, 0.88071084, 1.2586739, 1.001083, 2.0614905, 0.18289717, -1.1818426, 1.2977499, -0.4020715, -1.3830539, -0.75630695, -1.3702275, 0.08503731, 0.4366949, 0.36534363},
			{0.17123093, 0.18801531, 0.268294, -1.6578705, 0.3027335, -1.9929852, -0.015590599, 0.18681945, -0.13664718, 0.05423007, -0.035926364, 0.28541595, -0.2023614, -0.18891676, -0.24627714, 0.31720245, -0.089166, -0.33326498, -0.5265991, 0.20218922, -0.24110119, 0.5880042, 0.2562623, -0.3638226, 0.8286149, -0.023434255, -0.4565408, 0.2404438, -0.049969472, -0.32938156, -0.37415037, -0.623758},
			{-0.0834645, 0.09079549, -0.389358, -0.91786754, -0.46973893, -1.6138666, -0.14543399, 0.18377633, -0.08390843, 0.014295975, -0.10076875, -0.015704822, -0.54900986, -0.5211947, 0.27223718, 0.7397728, -0.01153774, -0.47232947, -0.4195014, 0.36347765, -0.24930148, -0.038348466, 0.4543141, 0.26494062, -0.06593428, -0.45556578, -0.44582847, -0.26620004, 0.16954313, 0.037421077, 0.010867581, -0.06546917},
			{0.016956633, 0.084923185, 0.5607213, 0.052078754, -0.32335135, -1.361116, 0.09895483, 0.06980422, -0.0915605, -0.026590979, 0.2723986, 0.124108516, -0.418777, -0.17150506, 0.37632027, 0.22578207, 0.2619347, -0.23579651, 0.019500833, 0.1458404, 0.066580385, 0.12363387, 0.29227814, -0.25065285, -0.17591748, -0.10219722, -0.1493347, -0.32761642, 0.3213824, 0.07028439, 0.26976642, 0.031557944},
			{-0.21205594, 0.42673042, 0.15645225, 0.85946697, 0.34654865, -0.70982605, 0.15554486, 0.4014653, 0.27088398, 0.20514408, 0.44913912, 0.24564128, -0.009012943, -0.058190998, 0.47650078, -0.83283347, 0.32496732, 0.65486556, 1.3948249, 0.26844382, 0.8021489, -0.0017480986, 0.5686968, 0.35648477, -0.44936568, 0.41292354, -0.13906313, 0.90306956, 0.1595936, -0.9925263, 0.14137897, 0.019995231},
			{-0.19562878, -0.27684763, 0.4260937, 0.54859805, -0.30875304, 0.31653944, -0.60342294, 0.32493278, 0.18017931, -0.85021245, -0.15275298, 0.47577596, 0.6569455, -0.021640537, 0.26877314, -0.44886383, 0.63576156, -0.4122379, 0.20709208, 0.66678953, -0.00014128974, 0.20484386, -0.0024590602, 0.43831477, 0.4066172, 0.394933, -0.35348728, -0.016526328, 0.57532984, 0.07905689, 0.39998618, -0.021415014},
			{0.026582643, -0.292366, 0.3568317, 0.03713984, 0.5395084, -0.07784527, -0.5155838, 0.43887892, -0.06050607, 0.28088197, -0.37703592, 0.07775741, -0.5168387, 0.081039466, -0.33859238, -0.02905505, 0.36018467, -0.33568776, 0.13706596, 0.55839455, -0.07244216, -0.6178704, -0.07110304, -0.21117146, 0.38080788, 0.14507605, 0.24993226, -0.029835608, -0.08055267, 0.19214644, 0.7617618, -0.41044724},
			{0.041660596, -0.6739038, 0.29138434, -0.83720857, -0.1009853, 0.03238639, 0.4260587, 0.15783891, -0.26931724, -0.33512843, 0.11144683, 0.10880916, -0.11620908, -0.6119246, 0.40595195, 0.0148746325, 0.5098324, -0.22591472, 0.7472053, 0.43774512, -0.19492419, -0.84075814, 0.093956515, -0.19152905, 0.24944845, 0.057774216, 0.43156192, -0.24568555, -0.5282488, 0.33898512, 0.89518327, -0.107078835},
			{0.42701787, -2.127005, 0.083758764, -0.6140665, 0.3497487, -0.41814512, 0.27381802, -1.311896, 0.72724116, 0.050465602, 0.41083252, 0.023401573, 0.009819778, -0.74173343, 0.2894164, -0.36079878, 0.6605654, 0.41049904, -0.5030391, 0.09683226, -0.56255656, 0.7541476, -0.58105904, 0.22440468, 0.6239242, -0.24834809, -0.09140443, -1.0777649, 0.37714398, 0.8181464, -0.31247294, -0.08115254},
			{0.16173473, -1.1439813, 0.06520378, -1.4237967, -1.0538613, -0.3195314, -0.9390214, -0.02621752, -0.5874788, -1.1024723, 1.8569399, 0.17949064, 1.4226747, 0.009606515, 0.90288043, 0.034742396, -0.14626706, 1.0680058, -2.2965791, -0.13522193, 1.4319509, 0.36103353, 1.1359936, -0.34826458, -0.38438964, 0.44054317, -3.0166645, -1.9145969, 0.019683585, -1.7271193, -1.3031822, -0.27748445},
			{-1.6053902, 1.3496028, -0.20101525, 2.3032653, -2.097911, 1.4976474, -1.2290729, 1.2879949, 0.15851618, 0.5946085, 0.72375727, -0.042246293, 2.0094686, 1.798573, -0.36604226, 1.175538, 0.24721953, 0.74763715, -0.50388855, -0.94079745, 2.3374255, 0.039914407, 0.91293067, -1.2472516, 0.3726328, -0.11455994, -1.198344, 1.1655594, -2.6719346, 0.09085313, -0.79479253, 0.31858525},
			{0.46743348, 0.41502997, -0.07186274, -0.17781165, -0.4068595, 0.17342696, 0.34002775, 0.0883878, 0.43386734, 0.4688869, -0.08481002, 0.5207969, -0.9269213, 0.114190884, 0.8129853, -1.6340554, 0.4580957, -0.16001302, 0.1304526, 0.14381298, 0.101936005, -0.098462075, -0.110581554, 0.1783851, 0.14650339, -0.6541351, -0.19710532, -0.234803, -0.81117845, 0.41811073, -0.7383587, -0.5201726},
			{0.16121124, -0.11894696, 0.43306613, -0.80534893, 0.43450046, 0.3426437, 0.6083379, -0.086717315, -0.040410023, -0.36787882, 0.24464558, 0.16371238, -0.4603633, 0.17829864, 0.37133223, -1.6383522, 0.3414962, 0.15558198, -0.35071972, 0.2348988, 0.6210424, 0.16146396, -0.15784897, -0.023506891, 0.04570191, -0.43482426, -0.10896195, -0.04663253, 0.4934507, 0.10416782, -0.29990658, -0.14250962},
			{-0.06489586, -0.23055875, 0.5292575, -1.4129924, 0.61835927, 0.3703613, -0.08358208, -0.31658602, 0.911508, 0.035747856, 0.22576626, -0.010925178, -0.18581113, 0.17906268, 0.72129446, -1.359253, -0.26773545, 0.615147, 0.192124, 0.050995234, 0.49882093, 0.17955868, -0.21984527, -0.09825123, 0.29000723, 0.25411704, 0.089359835, -0.049333386, 0.4862251, -0.24836925, -0.08207777, 0.032725085},
			{-0.13939102, -0.13248678, -0.20552565, -0.4022916, -0.18302387, 0.6266761, -0.09948899, -0.5757332, 0.81547654, -0.18003227, 0.066636704, 0.11766573, 0.6130994, 0.09808043, 0.8909843, -0.063719615, 0.3161421, 0.78526527, 0.4276444, 0.63551307, 0.36790153, -0.21424705, 0.31138638, 0.75663316, 0.67164886, 0.14910425, -0.13865636, 0.83799356, 0.33683667, -0.008233997, 0.5146538, 0.11653168},
			{-0.15682486, -0.28072187, 0.27007416, 0.33567068, 0.00070226716, 0.13573778, -0.4594871, -0.3304677, 0.17042518, -0.79124016, -0.1484042, 0.271184, 0.30691633, 0.10824257, 0.21442673, 0.30291924, 0.41251448, -0.32637855, 0.19232355, 0.57175666, 0.40512532, -0.16482486, 0.15952468, -0.31014678, 0.99105483, 0.6870838, -0.46613395, -0.054319113, 0.6577786, 0.009525966, 0.36124903, -0.21149711},
			{0.0144714145, 0.27901068, 0.05507646, -0.31971303, 0.14758897, 0.09564376, -0.09959159, 0.19172306, 0.0072759883, -0.21761185, -0.62515306, 0.52383125, 0.11716606, 0.45322406, 0.11431054, -0.2556166, 0.25976402, 0.16675904, 0.10815522, 0.48638707, 0.4184341, -0.25746524, 0.39300442, 0.053089898, 0.18188252, 0.35901755, -0.18922618, 0.22653511, 0.57944787, -0.3794819, 0.83893704, -0.15658297},
			{0.11527079, 0.74507123, -0.49546954, 0.26744038, 0.6156483, -0.07405438, 0.5191004, 0.35588965, 0.0014004046, -0.595438, -0.48017067, -0.0898638, 0.3010431, 0.11473764, -0.4405399, -0.07120182, 0.51167476, -0.050777532, -0.46476048, -0.0700512, 0.24069743, 0.17098095, -0.12378588, 0.5363393, 0.58635664, 0.07063963, 0.05206436, -0.30116728, 0.19912544, 0.63393503, -0.110990845, 0.043621417},
			{0.66283864, 0.30570358, 0.15554559, 0.33062798, 0.7093743, -0.09697657, -0.3456807, 0.664082, 0.18998913, 0.011285368, -0.10006351, -0.22658369, 0.30561063, 0.21329647, 0.0567924, 0.2088147, 0.0751485, 0.7639835, -0.6247192, -0.10433338, 0.68426424, 0.24457617, -0.18857606, 0.5291102, -0.17811741, 0.309095, -0.23829776, -0.096868694, -0.42086345, 1.2238933, 0.21726216, -0.17548417},
			{-0.068428926, -0.61042774, -0.8866586, 1.105861, -0.26202762, -0.62599826, -1.3477108, -0.5854577, -2.664647, 0.3289299, -0.1745382, 0.2552042, 0.062193934, 1.0429553, -0.14801078, -1.1400818, 0.6425286, 1.6932213, -1.2061342, -0.2839875, 1.0294479, -0.357003, 0.37733355, 1.3226451, 1.6345426, -0.8475799, -1.2827237, 0.8113825, -0.43106824, -0.86615056, -0.21744207, 1.1352663},
			{0.9491825, 0.8239697, -0.7999868, 1.6360592, -2.7801845, 1.4638269, -0.38333482, 1.9692011, 1.6487725, 0.07493114, 1.2775486, -0.5704757, -0.9858109, -0.55722547, 1.1294225, -1.3689512, -1.6816037, -1.5533464, -0.8809632, 0.51094043, 1.6001235, -0.09731312, 3.0660944, -0.950517, -1.6775784, 0.3794566, -2.4681227, 0.29517344, -1.3300294, -0.21792054, -0.6819549, -0.079756476},
			{-0.402293, 0.20104654, 0.32865456, 0.34097007, 0.037607655, 0.29168248, 0.17052399, 0.5728681, -1.4524817, 0.5872828, -0.36908576, 0.36372438, -1.4222391, 1.1546819, 0.43069705, -0.5339078, 0.51651645, 0.7715669, 0.60483474, -0.1643984, 0.06762467, 0.61830145, -0.31443802, 0.2835273, -0.36911634, 0.2088545, -0.7437243, 0.7011308, -0.15171537, 0.16101258, 0.038378086, 0.2016842},
			{-0.40786433, 0.2979436, -0.36858213, 0.1965539, 0.1268384, 0.8177232, 0.23331133, -0.18896434, -1.8536507, 0.06759293, -0.113065384, 0.05613747, -0.1650878, 0.9341535, 0.8657274, -0.10309267, 0.13398707, 0.23392536, -0.51615787, -0.13572033, 0.3482214, 0.26843992, -0.31400332, 0.32908192, -0.19807206, 0.029184861, 0.35651034, -0.08858899, 0.2352512, 0.24149723, 0.07880431, 0.5374889},
			{0.002493486, 0.203207, 0.24711384, 0.05081572, 0.28959787, 0.043721788, 0.29935434, -0.45794362, -1.5645965, 0.5953163, -0.13343392, 0.28467074, 0.59365815, 1.1080974, 0.330823, 0.3431673, -0.32694492, 0.6518726, -0.25637463, -0.2226564, -0.09069368, 0.06311267, -0.3221385, 0.7043613, -0.08959268, 0.6043643, 0.14655647, -0.12976728, 0.13880739, 0.72160304, -0.1263149, 0.38064176},
			{-0.6305013, -0.5463548, 0.27122113, -1.1319379, 0.41297835, 0.18745413, -0.3846264, -0.12667441, -0.6692153, -0.15888833, 0.41760114, -0.22338359, 0.34855592, 0.77667755, 0.27387193, 0.80307627, 0.19224042, 0.35859954, 0.44169393, 0.2146697, -0.09790802, -0.07725614, -0.34939072, 0.24043249, 0.3191456, 0.09779579, -0.15425493, 0.03330013, 0.016840419, 0.5036937, 0.368095, 0.14515568},
			{0.15637657, 0.15719041, 0.27031913, -0.1339862, 0.36339518, -0.062337223, 0.106766, 0.3063281, -0.2609518, 0.018529203, -0.06324305, 0.72844934, -0.20937206, 0.647653, 0.36670443, 0.4380465, 0.49475175, -0.09639859, -0.23028314, 0.07546832, 0.48886758, 0.08821031, 0.26325735, 0.028645275, 0.38702986, 0.51289046, -0.4341482, -0.29071188, 0.38603938, -0.85343635, 0.4211617, 0.25474092},
			{-0.18755798, 0.7536547, 0.31635663, 0.42473686, 0.05089048, -0.03334136, 0.27997562, 0.034637332, -0.17457412, 0.28251415, 0.1851624, 0.47330418, -0.21792981, 0.10512613, 0.119868875, 0.080683134, 0.5742689, -0.06541796, -0.23831363, -0.04692933, 0.5347894, 0.101350516, 0.18360516, 0.3286847, 0.040187832, 0.5630703, 0.25237367, 0.034561045, 0.16896534, 0.34041175, 0.011586384, 0.33117324},
			{0.05532542, 0.20166264, 0.593861, 0.27345592, 0.35407767, -0.19541001, 0.051918782, -0.08735012, -0.038437095, 0.20074697, -0.0555334, -0.33370304, -0.23644076, 0.112826206, -0.4250921, -0.049267992, -0.18856111, 0.0970268, -0.243214, -0.02550508, 0.7642844, 0.20669478, -0.117737435, 0.20170335, -0.07573389, 0.24530894, -0.46910048, 0.35028532, -0.0459007, 0.8073374, -0.25835586, 0.34599015},
			{0.14803486, -0.35047585, 0.6374959, 0.25885865, 0.24266222, -0.12885539, 0.5050739, -0.4024767, 0.04658012, -0.17806917, -0.8495279, -0.09909717, 0.36006212, 0.3692941, 0.02011806, -0.20395204, -0.030578848, 0.32524014, 0.57041836, 0.23237742, 0.5102389, 0.38786647, -0.061436694, 0.47773987, -0.14691564, 0.62561554, 0.19895287, 0.80092126, -0.33099255, -0.08766985, -0.5536729, 0.30637768},
			{-0.70793134, -1.6523156, 0.17238927, -0.4776467, -0.7636329, 1.1726948, -1.3834643, -1.8250754, 1.6641719, 0.5906441, -1.9476953, 0.45664293, 0.5169636, -0.27848306, -1.4210265, 1.49939, 0.6636274, 0.7303203, 0.09741408, 0.22001618, -0.3224146, 0.28543437, 0.79257625, -0.4281146, 1.0331358, -1.9173875, 1.7788525, -1.432469, -0.3338904, 0.56428134, -1.3837378, 0.24269506},
			{0.08243866, 0.94650596, -0.85605156, 0.8449816, -0.38654375, -0.024754072, 0.10578437, 0.8873921, 0.94273907, 1.5564009, 1.96129, 0.037856534, -0.5032359, -1.1782998, 0.033732608, -0.10834669, -0.893254, 0.13926731, -0.8400001, 0.41107708, -0.3092329, 0.021929242, 1.8167791, -1.3000695, -0.61064786, -0.3691409, -1.4830886, -0.38137692, -0.9014549, -0.58214897, 0.14333174, 0.119732834},
			{0.45391575, -0.6939783, -0.7506554, 0.7706649, -0.095713556, 0.4852269, 0.26169053, 0.12481361, 0.32853246, 0.84955114, -0.19675237, -1.1748892, -0.8753221, 0.030809263, 0.43790957, -0.27849334, -0.47610894, 0.8123204, -0.58321154, -0.28112406, -0.057606895, -0.60461456, 0.19108231, 0.47242123, 0.19685718, 0.07810874, -0.15063867, 0.66057414, -0.0056543713, -0.5408451, 0.7283324, 0.54294956},
			{-0.13925181, -0.26479343, -0.40323687, 0.2683627, -0.57587695, 0.05989426, 0.0385335, 0.29191336, 0.17115663, 0.41916537, -0.3794319, -0.48004135, 0.34342143, -0.8692889, 0.07671959, 0.50380355, -0.37988332, 0.3158886, -0.082697615, -0.7690046, -0.20284565, 0.27029285, 0.28838587, 0.21787049, -0.037664823, 0.44548592, 0.35787383, 0.20652045, 0.14205392, -0.33838147, -0.2684313, 0.20398167},
			{-0.2913486, 0.34981245, -0.43219054, 0.33253524, -0.47826594, -0.11367181, 0.095678605, 0.17846458, 0.10102188, 0.17058367, -0.33065593, 0.3092305, 0.02702398, -0.8867729, -0.5288439, 0.24449249, 0.15863852, 0.30975822, -0.3275585, -0.42729524, -0.04996064, -0.1770111, -0.10361204, 0.16296715, 0.35482007, 0.11136875, 0.33602378, -0.37024432, -0.011973737, -0.49032766, -0.3391918, 0.34188142},
			{-0.08136486, 0.11923428, -0.195728, 0.2510062, 0.10445631, 0.024875892, -0.25443384, 0.502094, 0.05871103, 0.36244088, -0.37285033, 0.21051468, -0.10971137, -0.29176685, -0.44177088, 0.3348583, 0.16372474, 0.5457918, -0.07469967, -0.4345754, -0.5695341, -0.074258074, -0.029757245, 0.065583475, 0.3303331, -0.53595227, 0.5529256, -0.13326266, 0.39186174, -0.5177322, -0.16547963, 0.06823105},
			{0.52341163, 0.38415873, -0.5262982, -0.373713, -0.24542204, 0.022719009, -0.07266706, 0.4765416, -0.112682566, 0.5097351, -0.115102425, -0.3903507, -0.009111017, -0.32635182, 0.015410041, 0.1053873, 0.14782235, 0.3016556, -0.1625603, -0.31610852, -0.67093235, 0.14151998, 0.055817977, 0.23664615, 0.9691022, -0.0066939625, 0.31545606, 0.23324804, -0.40000752, 0.4681481, 0.05680766, 0.040548876},
			{0.37671205, -0.07728119, -0.15340333, -0.134383, -0.75337577, -0.010899971, 0.28058586, -0.09108544, -0.29940316, 0.50053155, 0.29772428, -0.76374644, 0.06207571, 0.17157423, 0.39705995, 0.3697615, 0.09940815, -0.17737003, -0.4914328, -0.0051309727, -0.37532946, 0.1296475, -0.11745623, 0.020537311, 0.5513239, -0.1379423, 0.012032137, 0.4403219, -0.66981936, 0.58723396, -0.043792948, 0.42101213},
			{0.44310185, 0.13916923, -0.017250199, 0.31507945, 0.075552724, 0.39057127, 0.09693628, -0.20969278, -0.0819407, 0.7934095, 0.048866156, -0.18476577, 0.36000937, 0.4547027, 0.22504997, 0.037062995, -0.3421271, 0.2907195, -0.1450781, -0.15876405, -0.4470094, -0.33247712, -0.058970734, 0.18883057, 0.6391089, 0.021354232, -0.59189326, 0.889925, -0.6941233, 0.10114622, -0.30460432, 0.44000643},
			{0.49809575, 0.42074603, -0.30461645, -0.23653232, -0.61346567, -0.6986959, 0.16124758, -0.29772124, -0.06714117, 0.53615826, -0.07502698, -0.11483764, 0.21008469, 0.18578862, 0.2760195, -0.46017656, -0.3512351, -0.32596022, -0.7961218, -0.6417369, 0.027711667, -0.2675934, 0.41352674, -0.1524472, 0.8496956, -0.044775646, 0.11013594, 0.63997155, -0.4164426, 0.032923963, -0.39208725, -0.39163},
			{0.78879845, -0.8073117, -0.32770035, -0.13238151, -1.9655657, 1.0671402, -1.2183465, -0.2915896, -0.521415, 0.8032354, -2.1652777, 0.8660191, -0.015225981, -0.54650825, 0.06890706, 0.4167519, 0.18485457, 0.65912724, 1.4851656, -0.8716676, -0.7697654, 0.9496806, 1.2961925, 0.58339006, -0.18954137, -1.7149452, 0.82926524, 0.15262508, -0.3317202, -0.3565685, -1.7635062, 0.7777978},
			{0.96799594, 2.6620986, 0.3857436, 0.6713023, -1.991931, 0.6549357, -0.89368826, 2.4338045, 1.2773707, -0.18689784, 1.3986397, -0.8094744, 0.06526557, 0.7371602, 6.9099e-05, -1.3226398, -0.491441, -1.5105715, -0.9817417, -0.7633267, -0.5179066, 0.9872381, 1.5894822, -2.0550408, -1.0935168, 1.4150441, -2.6382186, 0.7073324, -0.85825324, 0.4936196, -0.39302522, 0.5173509},
			{0.37439865, -1.2003598, 1.1201811, -0.04445523, 0.116697825, -0.1369304, -0.16395605, 0.50000846, 1.2041545, 0.103856966, -0.2547893, -0.72591656, 0.28068703, -0.84100616, 0.096952915, 0.36172837, -0.8373574, 0.3319061, 0.29446557, -0.6269175, -0.13500676, -0.30290157, 0.6289601, -0.3447299, 0.03939795, 0.30710918, 0.212127, 0.37789997, -0.5498792, 0.2238549, -0.7761147, 0.5849139},
			{-0.20481648, -1.0845376, 0.5756193, -0.10308001, 0.006515825, -0.2636495, 0.41468158, 0.22156365, 0.3242925, -0.03303595, -0.06083996, -0.42383337, 0.3335822, 0.20968133, 0.041420776, -0.08617818, -0.24376015, 0.26653877, -0.11146273, 0.21664031, -0.21533965, 0.2937839, 0.98901266, 0.32270497, -0.07891288, -0.15909623, -0.1594687, 0.2861919, -0.30717224, 0.056730818, -0.16308157, 0.24745907},
			{-0.3253948, -0.13903992, -0.010362465, 0.10595968, -0.18928246, -0.3995776, 0.08129046, 0.16271773, 0.4109404, 0.37271667, -0.15461883, -0.9575176, 0.027560119, -0.17572603, 0.14328478, -0.17429866, -0.021146342, 0.5460293, -0.20755132, 0.084726505, 0.009208581, 0.012001662, 0.84820145, 0.27327034, -0.15761718, -0.014700967, 0.10901846, 0.17537431, 0.018190047, -0.36945707, -0.06404119, 0.43501425},
			{-0.036162563, 0.053424727, -0.06919702, -0.20586362, 0.1860099, -0.028913066, -0.030986542, 0.10353022, 0.071732946, -0.04736625, 0.24455887, -1.2384748, -0.0121341115, -0.27401206, 0.10778538, 0.401938, -0.3439091, 0.5397123, -0.20809767, 0.14731139, -0.05860046, 0.17116511, 0.3152232, 0.44208416, -0.037324622, -0.21392135, 0.2437684, 0.28669706, -0.04861277, 0.38496095, -0.03560992, 0.13268329},
			{0.45829597, 0.5233879, -0.037867684, 0.25481302, 0.5359401, -0.05386367, 0.16030774, 0.116071835, -0.017824408, 0.34181407, 0.34581962, -1.1898229, 0.14227419, -0.43007597, 0.18313812, 0.42241266, -0.18589826, 0.51093316, 0.33888423, 0.016646422, -0.5261629, -0.115707375, 0.044935677, 0.414133, 0.007791455, -0.16735345, 0.099306926, 0.49758905, -0.20857136, 0.654079, 0.15509401, 0.067441806},
			{0.124009445, 0.6841984, -0.44603097, 0.35714957, -0.27853674, -0.43712515, -0.12534241, -0.2866739, -0.3540971, 0.52328056, 0.15264519, -0.9047914, -0.062931366, -0.7026728, -0.33809114, 0.36751935, -0.44359183, 0.4819119, 0.7456815, -0.53399247, -0.48137644, 0.28459194, 0.3467484, 0.017200511, 0.39792064, -0.110449366, -0.10652842, 0.26583543, -0.08798024, 0.1387321, 0.15288572, -0.49969032},
			{0.0760425, 0.40556562, -0.7069639, -0.40160176, -0.08254598, -0.51131994, -0.32499462, -0.30580568, -0.03684511, 0.40458244, 0.33215848, -1.0968218, 0.082402974, -0.07736862, 0.26087844, 0.4348968, 0.09598033, -0.3971718, 0.69117016, -0.0681627, -0.27701303, 0.1947756, -0.19655114, 0.15278877, 1.0783352, -0.27985653, -0.026539734, 0.44091016, 0.15273558, -0.21245642, -0.10405337, -0.9183493},
			{-0.7264134, -0.7304818, -1.4077173, 0.13312554, -0.033999085, -0.14761569, -0.5629494, -2.122179, -0.19606179, 0.5666013, -0.0723358, -1.3697149, 0.059701394, -0.18956235, 0.20043659, 1.5225412, -0.5259426, -0.076140285, 1.0977442, -0.2996398, -1.5028192, -1.9495372, 0.43947855, -0.86229, 1.25281, -1.2549375, 0.1143122, -0.13952485, -0.5093078, 0.49014094, 0.8171444, -0.5281855},
			{0.58721447, -0.69812405, -2.3782184, 0.07593202, -1.6271226, 0.040180888, -1.7282197, -0.390743, -1.0849317, 0.42237625, -2.3431916, 0.61276853, -0.7354247, 1.2104213, -1.6778396, 0.6290261, -0.5891291, 0.024440398, 1.6627856, -0.2336292, -0.20790035, -1.3117862, 1.8891253, 0.03631095, 0.06964669, -1.0698304, -0.3783516, -1.1582884, -0.07555265, 1.656536, -0.50200504, 0.0024462158},
			{0.2590323, 1.0690256, 0.5802267, 0.8088031, -0.4100127, -0.081910364, -1.0033535, 1.733489, 1.6946493, -1.9094806, 0.87320125, -2.6965737, -0.65034425, 2.5394895, 1.3288928, -3.2804284, -0.4556479, -1.5702074, -0.65036976, 0.76842344, -0.2736073, 0.33412912, 0.85986346, -0.29033935, -1.0557282, 2.116717, -2.1626358, 1.4477729, -1.0391465, 1.0710118, 1.2708191, -1.3948888},
			{-1.4017862, 0.19524893, -0.7416433, -1.158193, -0.07841861, -0.58127743, 1.0136164, 0.13269004, 1.2486438, 1.0395117, 0.93505013, -2.5972016, -0.3549684, -0.43226686, 1.1447573, -1.8341528, -1.3463709, -1.4975083, -1.0244311, 0.49399683, -1.1867423, 0.7483726, -0.7960395, 0.5810694, 0.9580039, -0.9565052, -2.9379323, 0.5923465, 1.138183, 0.34125102, 2.4947422, -1.3367685},
			{0.32238877, 1.4048969, -0.2959493, -0.6052934, -0.298669, 0.6624273, 0.24125846, 0.24072182, 0.601394, -1.2712996, 0.7172135, -1.0415571, 0.33907, 0.39463982, -0.29448807, -0.43918473, -0.5625122, -0.42656747, -0.5642223, -0.11453184, -1.1825103, 1.4660348, 0.2783473, -0.22735898, 0.3747641, -0.16510761, -0.9267659, 1.1273237, -0.47635126, 0.011814142, 0.63927597, -0.66249293},
			{0.2689449, 1.0448537, 0.3518685, 0.061103307, 0.19288522, 0.5986196, 0.32787684, 0.4934073, -0.64984584, -0.8032365, -0.12200974, -1.1889781, -0.48319122, 0.6126397, 0.06864115, -0.9339683, -2.0135193, -0.9907038, -0.016837426, 0.24315748, -0.45830065, 0.40023804, 0.5053057, -0.614836, -0.32071593, 1.6466417, 0.7896458, 1.4927018, -0.8015388, 0.800911, 0.2015444, -0.01922589},
			{0.036541916, 0.91896284, 0.26058125, -0.410828, 0.015533784, 0.20699693, -0.29573622, 0.56445354, -0.33728272, -0.18136656, 0.19378984, -0.03955464, -0.70026666, 0.64313, -0.08265949, -0.8345572, -0.9419975, -0.5220455, 0.051810697, -0.29336324, -0.2789068, -0.9508807, -0.08270064, -0.7015004, 0.29329923, 0.5765949, 0.46269664, 0.8331504, -0.45341086, 0.1583398, -0.0047602374, -1.1092583},
			{0.28518352, 0.58107525, 0.09439233, 0.0400361, -0.14609902, 0.16083588, 0.7387715, -0.74560606, -0.2880163, -0.62407583, -0.7393667, 0.7541053, -0.0984023, 0.37541828, -0.079720974, -0.4784857, -0.9911094, 0.33600366, 0.32921782, 0.13774706, 0.020214638, -0.2152732, 1.3024895, -0.45117605, 0.13483058, 0.6389627, 0.062790096, 0.34207118, -0.80625707, 0.027770156, -0.33877605, -2.371133},
			{-0.19017252, 0.8383443, -0.36501703, 0.24582538, -0.49934694, -0.72922695, -0.3894047, -1.2940298, 0.20709798, -1.1399826, 0.15510696, -0.18297605, -0.30130866, -0.31020626, -0.064101495, -0.15866202, -0.07838012, -0.15155514, -0.8024645, -0.17431103, -0.7408745, -0.00979704, 1.3098727, -0.49416372, 0.6083109, 0.8693687, 0.037986252, -0.08438002, -0.3313763, 0.6195984, 0.0036346833, -1.7444088},
			{0.56707686, 0.48063585, -0.40698677, -0.6569385, 0.059528373, -2.6030397, 1.1697468, -0.57761294, -0.36813483, -1.1361698, -0.21828975, 0.7813382, -0.4365266, 0.70475835, -0.5058702, -0.32651624, -1.0698669, 0.42077073, 0.2279679, -0.7552458, -2.2082682, 1.3953965, 1.2536585, -0.5160439, 0.07165331, 0.95001817, 0.47993243, 0.4920387, -1.4943331, 1.1394128, -0.1393413, -1.946583},
			{1.4337279, 1.2082949, 0.6536927, -0.4969233, 0.52215946, -3.3577526, -1.7335632, -0.6464928, -1.0150158, -1.4641088, -0.82453525, -1.3512892, -1.0207825, 0.81808066, 0.022146663, -0.49841136, -0.5832352, 0.37078094, 1.368471, -0.7365929, -0.5448464, -0.6551292, 0.6543558, -1.3312976, -0.82653606, -0.9939812, -2.1895847, -0.49748343, 1.2850981, 0.20260075, 0.5019016, 0.96064955},
			{-1.4953715, -1.574119, -2.7897935, 1.2190609, -1.0852429, 0.061088454, 1.0610044, -1.2560703, 2.08066, 1.0604271, -0.5571669, -1.1115448, 0.008127315, 2.3069522, -0.98770964, -0.15098152, -1.517991, -0.79679906, 1.1960337, 1.4827076, 0.90633035, 0.12423545, 0.49832952, 0.273357, 1.8089172, -0.26394272, 0.0074658664, -2.0075395, 0.82058424, 2.453197, 1.9644964, 1.0237719}}
