{{0.45872945, -0.06417012, 0.47078797, 0.7563051, -0.23825622, -0.3558169, 0.4180218, -0.792365, -1.1427414, 0.6020921},
			{0.6932478, 0.5752383, 0.062490426, -0.5191971, -0.19412293, -0.68737453, 0.9482865, -0.21955511, 0.24451046, -0.5918287},
			{0.98965836, 0.067381375, -0.6471706, -0.6547882, 0.7671068, -0.52015275, -0.8841298, 1.0457468, -0.9066684, 0.1890517},
			{0.6555284, -1.2815247, -0.67696536, 0.9108796, -0.63030034, -0.020568125, -0.77296203, -0.2588897, 1.2273968, 0.8920793},
			{-0.97805405, -0.111724004, -1.0265312, -0.23343155, 1.405891, 0.0054258304, 0.73056436, -1.1400065, -0.20711881, -0.4397147},
			{-1.1850439, 0.87297237, 1.1659713, 0.7494537, -0.014141456, -0.1498361, -1.1065106, 0.48766342, 0.45083925, -0.84185773},
			{-0.6954095, 0.65063953, 0.2064932, -0.5586217, 1.0939507, -0.76007485, -0.48575643, 1.3103651, -1.9865755, 0.11930501},
			{-1.3429341, -0.36642024, -0.67967284, -2.3161798, 1.4053613, -0.74609846, -1.0584178, 1.2661278, 0.3326782, -1.0390604},
			{0.36072505, -0.371262, 1.0628973, 0.67575336, -1.637696, 0.9059695, -1.0103855, 0.6152277, -0.5071259, -0.6878584},
			{-0.5263334, -0.14862822, -1.380969, 0.5378903, -1.574227, 1.6306814, 0.15528244, -2.3666568, -0.2059088, 0.09925728},
			{-0.27386975, -1.4772198, 0.04517468, -0.6639391, -1.4999573, 1.0281236, 0.8335223, 0.4791596, -0.3205543, 0.45406678},
			{0.46344763, -0.9950657, 1.1829346, -0.21805802, 0.073328145, -0.9863112, -1.4565374, -0.6635417, 0.37054533, 1.136407},
			{0.76494575, -0.54819196, 0.3563028, -1.0499363, 0.6122466, 1.1208153, 0.907097, -0.6043882, 0.3645446, -1.2995843},
			{-0.19871263, 1.2324278, -1.0814896, -0.37174413, -0.15006812, 0.24864198, -0.20247687, 0.18270175, 0.45036384, 0.56557846},
			{-0.5250975, -1.5008419, -0.40130076, 1.1440129, -0.09746604, 0.46126235, 0.9064305, 0.80418223, 0.4845412, -0.0929994},
			{-0.91927284, -2.1074457, 1.3660992, -0.08884726, 0.17154053, 0.93824494, -0.78779495, -2.355023, -0.28726968, 1.2227373}}
