{{0.091221094, -0.11468492, -0.2289956, -0.44929525, -0.06413385, -0.9504239, -0.119234644, 0.14859827, -0.291827, -0.30707788}, 
{-0.40286136, -0.7858345, -0.15169801, 0.5163054, -0.6005222, -0.4078473, -0.07656192, -0.029231228, 0.27483225, 0.37666744}, 
{0.14006908, -0.38130108, 0.4329897, -0.25116852, -0.24360031, -0.29286233, 0.60235053, -0.5088041, -0.1295554, -0.29594344}, 
{0.5216619, -0.23545294, -0.4796179, -0.2016443, 0.3221882, 0.35368997, -0.06976304, -0.33342513, 0.030625764, 0.2848161}, 
{-0.81007874, 0.30448386, 0.21921277, -0.46780732, -0.32810217, 0.26556954, 0.33763683, 0.14443594, -0.027197534, 0.17213665}, 
{-0.2911531, -0.17572702, -0.19379947, 0.2538273, 0.26188633, -0.32789314, -0.40767428, 0.16454983, 0.18686739, -0.34775454}, 
{-0.58685577, 0.74934655, 0.20586129, -0.15415555, 0.5596732, 0.46218622, -0.35592252, 0.1419965, 0.57963955, -0.07124105}, 
{-0.5575988, 0.29231417, 0.16907328, -0.14465807, 0.0655912, -0.47631285, -0.16852829, -0.13154605, -0.31481585, 0.72619534}, 
{-0.40214038, 0.10650579, 0.72727346, -0.41455838, 0.08775152, -0.25591356, -0.056648113, 0.11889222, -0.67847383, -0.5564711}, 
{0.44566956, 0.45032123, -0.25286973, 0.19353698, -0.20082466, -0.43943697, -0.21991646, -0.17685063, -0.11990108, -0.16026926}, 
{-0.6654437, -0.22802915, 0.049496837, -0.14865644, 0.36573792, -0.16912077, -0.03116332, -0.20238842, -0.71230274, 0.56072944}, 
{-0.5012854, -0.022840032, 0.60134274, 0.661665, 0.006786516, 0.17440298, -0.6751324, 0.15990195, -0.6795203, 0.10387486}, 
{-0.24522524, -0.10682708, 0.17460118, -0.22395873, 0.17286634, -0.038611867, -0.6624137, 0.26021272, 0.25125775, -0.023426391}, 
{-0.029360346, -0.07006141, -0.53034395, -0.14599384, 0.50459856, -0.18319134, 0.31358173, -0.39274824, -0.4698535, -0.7820806}, 
{-0.14598177, -0.39804867, -0.011561414, 0.47901228, -0.70158964, 0.2864756, 0.05023659, -0.83482444, 0.44949844, -0.11254721}, 
{0.28175685, 0.34663692, 0.015747083, -0.06937549, -0.25482026, 0.6441598, 0.49137786, 0.6894733, -0.31263638, -0.014172405}}