{{-0.70629007, 0.63055414, 0.18996586, -1.454695, 0.0723359, -1.1701332, 1.1818835, 0.46785453, -0.034500703, 0.7970099, 0.0476385, -1.0070341, 0.4862866, 1.558394, -0.74771404, -0.08729802},
			{0.40732607, -0.648971, 0.5607246, 0.06515383, 0.9337253, -0.27992043, 1.45939, 0.77795273, 0.27192354, 0.5903726, 0.32594138, -0.93250346, 0.31174845, 0.3712104, 0.7122104, -0.5544829},
			{-0.4583882, 0.8546232, 0.58629966, 0.23345749, 0.26178518, 0.766189, 0.0874968, 0.08052834, -0.19302686, -0.26485863, 0.10070269, -0.4980613, 0.06637679, 0.38909855, 0.27678975, -0.10565284},
			{-0.54239124, -1.5735456, -1.1531044, 0.6479821, 0.38202357, 1.4134545, 0.28837812, 0.10687804, -0.010829531, 0.94710594, -0.81711936, 0.9916349, -0.5887325, 0.55752766, -0.33562148, 1.4499116},
			{-0.3385259, 0.53558207, 0.7062474, 0.671389, 0.44116402, -0.0031297435, 0.19526261, -0.2261089, 0.27240118, -0.8901745, 0.116692305, 0.4240407, 0.26388568, 0.37927186, 0.26075467, -0.957042},
			{-0.36969405, -0.4181836, 0.3497148, -1.1671231, -1.4773707, 2.499362, 0.82036954, -1.0142053, 1.3955234, 0.43421197, -0.2338612, -1.0684646, -0.840929, 0.4202721, -0.1353305, -1.2268126},
			{0.83070815, 0.2507099, 1.5059066, -0.15234223, -0.69079757, 0.07340259, 0.5416857, 0.31598148, -0.54557335, -1.5954702, -0.16597874, 0.8623972, -0.98240405, -0.72279626, -0.7115851, -0.32540852},
			{0.62545675, -0.18297587, 0.4978875, 0.2615159, -0.38600117, -0.05249171, 0.7071061, -0.40126935, 0.61687654, 0.921076, -0.3877825, -0.827115, -0.038574398, 0.81015176, 0.37013993, -0.2992525},
			{0.33323395, -2.5996015, 1.4497006, 0.5011924, 0.83958215, 0.86693686, 1.6602024, 0.03931164, 1.2230108, 1.7012292, -0.18395911, -0.915273, -1.741549, 0.7885288, 1.3722404, 1.7870305},
			{0.62153554, 0.047593236, 1.2726761, -0.8847409, 0.1581913, 0.047995556, 1.2237731, 0.6625225, -0.30432445, -0.6027011, -0.972648, 0.6703317, 0.24794683, -1.1783203, -0.07603257, 0.21368316},
			{-0.81123894, -1.971856, 0.009047639, 0.47748953, -2.8891072, 1.1596875, -0.5831182, -0.05644461, 0.6050384, 1.8308533, 1.6892658, -1.2986484, -0.13456415, 1.1435553, 0.3960594, 0.29141277},
			{1.515299, 0.4482386, -0.5137599, 1.3873496, -1.8833504, -0.28090492, -1.576746, 0.48736882, 1.0993581, 1.2597222, 1.2743237, 0.17962074, 0.21098037, -0.74031997, -0.52131754, -0.38748798},
			{-0.1504394, 1.1247437, 0.5630664, -0.8182911, -0.082114905, 0.98928297, 0.55121785, 0.36624062, -0.07436265, -0.97997504, -0.7047494, -0.36843008, -0.36671597, 0.24321038, 0.027489834, -0.7734955},
			{1.5830226, -1.6140438, 0.74655354, -0.77037686, 0.43291655, -0.11390588, 1.2374263, -0.02733916, 0.08843964, 0.4022925, 1.2307833, -0.024911953, -0.13096224, -0.23159547, 0.10654931, 1.6101975},
			{-0.23962897, 0.122033045, -0.24198082, 0.66608894, 0.95580745, 0.537257, -0.22406816, 0.27651724, -0.52848613, 0.6531085, -0.52525353, 0.16133434, 0.50184, 0.44590363, 0.26420465, 0.88621324},
			{-0.5739966, 0.13065054, -1.1129969, -0.7513058, -0.008558876, 2.3382564, 0.0720528, -0.6577037, 0.5183491, -0.13704553, -0.15909544, -0.0215384, 0.60427165, 0.10942469, 0.1557622, -0.9566589},
			{0.28286287, 0.3368753, -0.6117615, -1.0644295, 0.1048115, 0.37327754, -0.08125419, 0.3564021, -0.1931161, 0.026355585, 0.8146617, -1.1177726, 0.7259682, -1.4916874, 0.81324273, -1.2292842},
			{0.11263019, 0.50820285, -0.01178727, 0.003912294, -0.09238675, 0.34488672, -0.75053966, -0.4239701, 0.49528167, 0.27528426, 0.5537623, 0.3348655, 0.92200947, -0.46138832, 0.2660356, -0.47859752},
			{0.045166302, 0.5345244, 0.72693014, -1.3392056, 0.47056365, -1.0504924, 0.60454345, -0.2831648, -0.29881632, -0.89426845, 0.004913636, -0.7436748, -0.11607229, 1.3325729, -0.7939596, 0.67232794},
			{-0.22105367, 0.42976034, 0.8249606, 0.8832201, 0.07530315, 0.38621518, 0.46901017, 0.32285133, -0.35448027, -0.35452145, -0.051499065, 0.5798528, -0.30876088, 0.8841025, -0.35904798, 0.6764778},
			{0.79171556, 0.44810238, 0.6122726, -1.3562481, 0.11685261, 1.5683007, 0.68611324, -0.30113497, -0.19209637, -0.5278615, -1.125645, 0.19026305, 0.85741585, -1.1792425, -0.19142298, 0.032798246},
			{0.71161747, 0.7385534, 0.8924288, -0.10372224, -0.8738426, 1.2924187, 0.061238974, 0.6115536, -0.38322926, -1.1488721, -1.4888121, 0.1646344, -2.3851485, 0.2755522, -0.51745504, -0.43315482},
			{0.13284817, -0.1902316, 0.39878386, 0.022865264, -0.6363312, 0.59835297, 0.6460193, 0.3743116, 0.946983, 0.46043533, 0.5800023, 0.46105254, 0.10970825, 0.687981, 0.007908762, 0.47796947},
			{0.45530495, 0.65103287, -0.20413168, 0.6109105, -0.12852584, -0.5678451, -0.72437066, -0.06892747, -0.36802262, 0.6114561, 0.031585544, 0.58361816, 0.36069685, 0.41879043, -0.26397157, 0.33479604},
			{0.58210945, -0.018414326, -0.87576413, -0.15983029, 0.43503508, 0.46121374, -0.48329273, 0.33811018, -0.36110422, -0.41765845, 0.07822231, 0.50936246, -0.35669217, 0.21732904, -0.63075036, -0.15259002},
			{0.06457686, 0.1514838, -0.3882638, 0.7411039, -0.052272104, 0.7909161, 0.15292573, -0.5951962, 0.1341793, 0.062895685, 0.6446011, 0.05206548, -0.34012297, 0.47840503, 0.92256254, 0.037789233},
			{0.55177176, 0.4379778, -0.11263802, 0.0472579, -1.2045491, -0.10619679, -1.0370045, -0.9150185, 0.09562284, 0.053355783, 0.6623628, 0.1854561, -0.20002195, 0.55157316, 0.13090077, -0.3383002},
			{0.33495197, 0.41529867, -1.3187082, 0.67115855, -0.075069435, 0.50145346, -1.4227413, -0.8756555, 0.155761, 0.55525553, 0.032011777, -0.24638365, 0.5303046, -0.012346778, 0.5995662, -0.6296881},
			{-0.0342216, 0.6971898, 0.72306216, -0.05627624, 0.68504095, -0.8613562, 0.8322909, 0.51082444, -0.61004627, -0.034576904, 0.7791147, -0.0051286393, 0.89371556, 0.5126185, 0.80892897, 0.12364176},
			{0.88940626, 0.00077712873, 0.5133778, 0.37107742, 0.32598895, -0.7709021, 0.012328707, -0.010675615, 0.9072253, 0.33031416, 0.8937107, 0.0290737, -0.005518428, -0.43245587, 1.1019486, -0.03839564},
			{0.59650564, 0.00068251207, 0.8942638, 0.6917301, 0.7692545, 0.111155316, 0.7265232, -0.037538324, -0.32599145, -0.6720443, -0.44969317, 0.7303985, -0.11585352, -0.037545864, 0.4548647, 0.3346905},
			{0.15052007, 0.79507357, -0.09616721, -1.1819128, 1.4260734, -0.3039645, 0.23262143, -0.679709, 0.12652253, 0.22356394, -0.58647865, -0.8040373, 1.4784, 0.3605772, -0.7578801, 0.11624871}}
