{{-0.35328817, -0.39865205, 0.009517294, -0.14843139, -0.12392622, 0.90250736, 0.07333818, -0.79435146, -0.11683754, 0.55596423, 0.033503126, -0.021129599, 0.63233596, -0.2286636, -0.26088625, 0.43158692}, 
{0.49830297, -0.114334665, -0.41918442, -0.6453652, 0.20919548, -0.43660173, 0.46670207, 0.20036092, 0.11435564, 0.38625333, -0.02587311, -0.04205313, 0.3722705, 0.08519148, 0.052844495, 0.13975269}, 
{0.20365612, -0.19319586, -0.4810333, -0.1769025, 0.0494611, 0.45452318, 0.62331873, 0.25537875, 0.38177133, 0.28555006, 0.42612728, 0.0011840982, -0.16559915, -0.47237414, 0.36473295, -0.34795308}, 
{0.17981246, 0.35856017, -0.22502765, 0.012470169, -0.19360949, 0.33444583, -0.10052501, 0.27817988, 0.47881517, -0.41052046, 0.36951128, 0.49559662, -0.26671627, -0.13103926, -0.050876062, -0.054250102}, 
{0.34194744, 0.22299035, -0.118731566, -0.120831564, -0.11697685, -0.3921594, -0.08872033, 0.14138167, 0.3543701, 0.045819003, 0.3746091, 0.28007302, 0.2715198, -0.12529859, 0.318525, -0.14167541}, 
{-0.3946348, 0.45219237, 0.32495305, 0.13275981, -0.10768508, -0.28652513, 0.4409587, -0.1014358, 0.18812089, 0.26976904, -0.5655738, 0.47879994, 0.10509718, 0.35975778, 0.06805274, 0.5705337}, 
{-0.29939136, 0.36732838, 0.3757756, -0.3596325, -0.3671196, 0.38062993, 0.3664792, -0.2620441, 0.35630754, 0.15212326, 0.74642074, -0.41834554, -0.33256528, 0.057618007, 0.67012614, -0.13180019}, 
{-0.120082, -0.21588339, 0.47847238, 0.05710025, -0.374066, 0.090269946, -0.61325586, -0.13602759, 0.25291884, 0.26890394, -8.030991e-05, -0.0145632895, -0.15176511, -0.07983626, 0.48299712, -0.11066832}, 
{-0.37319735, -0.29111373, 0.088993125, 0.30837765, -0.19328704, 0.42376927, -0.18314925, 0.35370252, 0.5368849, -0.27466404, -0.40814307, 0.009333285, -0.0032486238, -0.1660861, -0.46638608, 0.077335104}, 
{0.30799365, 0.12281606, -0.040327378, 0.42660677, -0.050851207, 0.025763988, 0.085991345, 0.51796836, -0.40178168, 0.11890688, 0.47283813, 0.24920845, -0.32130522, 0.015061638, 0.39908507, -0.5784282}, 
{0.23860833, -0.4845952, -0.062410038, -0.2538937, -0.12230983, 0.6057927, 0.10992567, 0.04489608, -0.021302875, 0.51008636, -0.30169225, -0.14328605, -0.5363459, -0.081490375, 0.019179339, -0.24933006}, 
{0.09605178, -0.09454879, 0.4174469, 0.3415378, -0.3539328, 0.529158, -0.52666837, -0.14884567, -0.33114812, -0.17979375, 0.110322736, 0.7459584, 0.4691055, -0.10794981, 0.5111476, 0.27097866}, 
{0.025315437, 0.5086317, 0.32204828, -0.25918972, -0.3271706, -0.050485767, 0.2887096, -0.15844223, 0.41409558, 0.27974603, -0.08059281, -0.07404592, 0.1365227, -0.14886092, 0.20331435, 0.3482911}, 
{-0.21958579, -0.12761974, 0.5738394, 0.5118924, 0.33615676, 0.57128173, 0.19588487, -0.019412052, -0.4702803, 0.43227676, -0.5100108, 0.3487273, -0.53549075, -0.43607664, 0.39055023, -0.69043887}, 
{-0.0081780935, 0.060184117, 0.006748148, 0.5882844, -0.2779745, 0.3032007, -0.54161304, 0.1928711, 0.22416641, 0.121441446, 0.13723046, 0.102469616, -0.05318865, 0.2624586, 0.2446318, 0.14043152}, 
{0.49546206, 0.0807754, 0.17698538, 0.05770441, -0.28140265, -0.10002421, -0.14705998, 0.26821068, -0.43484747, 0.099015534, 0.34447646, -0.27359438, 0.5735778, -0.3131644, 0.4979505, 0.19199784}, 
{0.23331939, 0.0013153219, -0.4556347, 0.19065377, -0.38221264, -0.016922697, -0.20472461, 0.18506281, 0.3916415, 0.21207581, -0.3405588, -0.11943206, -0.11408682, -0.40334684, -0.5148073, 0.1713339}, 
{0.3689083, -0.43947235, 0.17591093, -0.12022545, 0.07275713, 0.5530555, -0.23183466, -0.47852778, -0.18177585, -0.57528913, 0.30249193, 0.42461985, 0.30836076, 0.6094752, 0.73329574, 0.502365}, 
{0.1470181, 0.56580496, 0.30146182, 0.17803264, 0.18059333, -0.46215656, -0.036281455, 0.49431768, -0.083232366, 0.7358245, -6.2971754e-05, -0.49334794, 0.4426003, 0.22797173, 0.119680665, -0.28813013}, 
{-0.12307351, -0.45148915, 0.53476644, -0.046976715, -0.17967848, -0.12764113, 0.22285965, 0.36117738, 0.66939056, 0.12599736, 0.14145705, -0.103236325, 0.40218687, 0.29749122, -0.026075162, -0.24297589}, 
{-0.32410076, 0.32087085, 0.039770417, -0.16570337, 0.37802103, -0.058488745, 0.1907479, -0.0060766316, 0.050441787, 0.3862809, -0.12130043, 0.5135773, -0.10463192, 0.5658789, -0.107794486, -0.6655261}, 
{0.3322099, 0.09717627, 0.3041043, 0.45617723, -0.37919006, 0.31113994, 0.24421097, 0.34425604, -0.43429083, 0.3871066, 0.30479515, 0.3145703, 0.18241507, 0.33493844, -0.3536898, -0.69606745}, 
{-0.28570077, 0.10718015, -0.14542364, -0.012733919, -0.23507942, 0.100755125, 0.38364044, -0.111941114, -0.038111083, -0.14157946, -0.19340488, -0.33227053, 0.34765115, 0.15681364, -0.11159097, -0.24679653}, 
{-0.3271577, -0.08959148, -0.25461268, -0.5161684, 0.183872, -0.26877996, 0.5127886, 0.06034143, 0.45997503, -0.52773696, 0.5725432, -0.24960126, 0.2749806, -0.2875559, 0.17588566, 0.1843889}}
