{{-0.086353034, -0.067106955, -0.008803935, -0.16413957, -0.31383875, 0.27444223, 0.07057609, -0.03802412, 0.111850485, 0.42020077, 0.05918244, -0.08085932, 0.02050476, -0.18652381, 0.31855005, 0.2676447, -0.110924646, 0.14446878, -0.3322693, 0.2319764, -0.28784305, -0.3340041, 0.29046428, 0.019963382, 0.034856796, 0.38740087, 0.005354787, -0.30221546, 0.05441075, 0.24761407, -0.26610443, 0.11628522, 0.16944107, 0.18322629, -0.14673063, -0.25528577, 0.28427625, -0.17391703, 0.015206548, -0.18510202, -0.16915312, 0.0913498, -0.09038148, -0.40289608, -0.18509844, -0.25318667, -0.02366298, -0.026993064, 0.23674919, -0.12516047, 0.016542312, 0.22120406, -0.2522146, 0.26768193, 0.027541963, 0.0028534199, 0.044921327, -0.3768169, 0.29381055, 0.116680354, -0.11534546, -0.1497233, -0.4034318, 0.11302188}, 
{0.33354408, -0.02776658, -0.11722437, -0.32886922, -0.27096295, 0.07509943, 0.015535266, -0.041631725, 0.13300224, 0.11113808, 0.29732174, -0.100988686, -0.16639674, 0.024048913, 0.11769131, 0.16887468, 0.35208273, 0.22904982, -0.1537578, 0.09896832, -0.29074508, -0.21633981, 0.2052786, -0.12055429, 0.13957943, 0.17230338, 0.21599977, -0.10970261, -0.044663142, 0.2205029, 0.104712576, 0.10082023, 0.10905327, 0.3756678, 0.0528815, -0.40134215, 0.24136256, -0.3522674, -0.36065903, -0.019302394, -0.2528986, 0.036116086, 0.2625599, -0.2649871, -0.32133803, -0.2131966, -0.1403558, 0.2968394, 0.10470944, -0.13073604, 0.09939269, -0.07346564, -0.33896345, 0.13043004, -0.12834826, -0.22240546, 0.27466014, -0.32826674, 0.08224789, -0.12516324, -0.2000557, -0.02230882, -0.22070727, 0.33191705}, 
{-0.077243924, 0.05396492, -0.18879263, -0.16143909, -0.12054215, 0.17183065, -0.08145995, 0.008440055, 0.32535347, 0.23341045, 0.033611048, 0.018600551, 0.03805966, -0.080956586, -0.025278462, -0.0629395, 0.3927387, -0.0700171, -0.24703027, 0.049759362, -0.18163511, -0.035817306, 0.07810136, 0.06674915, 0.16796249, 0.18435803, 0.15149574, -0.38564888, 0.17350361, 0.20733045, -0.18853219, -0.05301675, 0.028447885, -0.10883861, 0.007254067, -0.18189238, 0.09168622, -0.039172728, 0.042200554, -0.12090179, -0.35394076, 0.14069028, -0.019439483, -0.3120153, -0.009582478, -0.33068976, -0.3317734, 0.0008186803, 0.12188954, -0.1000615, -0.11744563, 0.38651335, -0.25478977, 0.30483633, 0.18958947, -0.27703762, 0.032886952, -0.11425328, -0.14761466, -0.21720202, -0.4303872, -0.068083376, -0.1639466, 0.22101521}, 
{-0.090101, 0.108862, -0.16912593, 0.1658359, -0.06598106, 0.06250371, 0.06220601, -0.14207524, 0.060271844, 0.07685216, 0.0889771, -0.019673739, 0.01859013, -0.17276631, 0.05672043, 0.014934031, 0.15660106, -0.042868428, -0.033678755, -0.005319531, -0.2266583, 0.102247864, 0.17201382, -0.010180259, -0.17579705, 0.09697346, -0.06229377, -0.20968015, 0.04565646, 0.17591141, 0.010788279, 0.11564622, 0.14700589, 0.111056045, 0.12499809, -0.22877975, -0.009765829, 0.049591467, -0.0748528, 0.027380893, -0.002451097, -0.053748854, 0.26914427, -0.18921523, 0.14539587, -0.27588594, -0.34600052, -0.11438529, 0.015667455, -0.049544245, -0.06085493, 0.19828966, -0.0059598554, 0.2117062, -0.12620775, 0.07985133, 0.06939699, -0.22264065, -0.17442517, -0.0004788865, -0.403378, 0.08306188, 0.029783549, 0.2518264}, 
{0.2777242, -0.028697863, 0.20932938, 0.0064677964, -0.11084905, 0.107737646, -0.24852797, 0.18048607, 0.15591575, -0.026403489, 0.117951855, 0.093232766, 0.17637497, -0.13360137, -0.09956959, 0.03811153, 0.12806493, -0.0070019155, 0.106156714, -0.0567937, 0.036231495, 0.21261723, 0.05007067, -0.11565048, 0.11972578, -0.108635336, 0.075912535, -0.08477585, 0.2417139, 0.14841841, 0.010431218, 0.11077472, 0.2829644, -0.0020325838, -0.13367829, -0.08370951, 0.23202431, 0.018937094, -0.24246502, 0.003182984, 0.27853763, -0.036755614, -0.0887488, 0.18250301, 0.16505325, -0.022632424, 0.12294175, 0.085024975, 0.052551523, 0.21168731, -0.055619594, 0.028062282, 0.0033693293, 0.34272242, 0.12499834, -0.028603556, 0.11838898, 0.17430837, 0.10361655, -0.010950462, -0.3683887, 0.09358156, -0.032001346, -0.031019894}, 
{0.16387583, 0.077610545, 0.2244707, 0.23777153, 0.03000644, -0.12238397, -0.18269397, -0.0005253621, 0.05707985, 0.04947139, -0.0073520644, -0.009088765, 0.19549298, -0.346887, -0.27008408, -0.23123781, 0.05799316, -0.07264797, 0.28711742, 0.09317429, 0.08396289, 0.57767767, 0.13983925, -0.08262779, 0.15164417, -0.09489185, -0.05826515, 0.04848189, 0.3536768, 0.000113212576, 0.143217, 0.16086137, 0.30085465, 0.1359729, 0.0051057925, 0.085524276, 0.09411378, 0.05365196, -0.044324163, -0.26159537, 0.38881207, -0.18046997, 0.07449724, 0.16570301, 0.17689408, -0.07200094, -0.033793543, 0.34444988, -0.2269673, 0.40193847, -0.07699527, -0.1579227, 0.1765613, 0.3454624, 0.020434732, 0.12668768, 0.118241504, 0.2729457, 0.091122665, 0.027921999, -0.44821057, 0.17043132, 0.14821129, 0.120683655}, 
{-0.055052146, 0.1853039, 0.055814706, 0.20544557, 0.062755905, -0.12966813, -0.008371572, 0.11089971, 0.31245655, -0.05130503, 0.16904691, -0.18793692, -0.31148818, 0.059651468, -0.09689679, -0.21104117, 0.0753915, -0.27728063, 0.32999203, -0.2107139, 0.1861744, 0.402813, 0.31769258, -0.015488781, 0.023650944, -0.23026879, 0.03957558, -0.1288361, 0.28667918, -0.023300406, 0.32522988, -0.03557124, 0.11779191, 0.11405985, 0.06749292, 0.37510797, -0.16599765, 0.11024775, 0.14074472, 0.121670544, 0.18891229, -0.45777, 0.18104848, 0.21535942, 0.30821162, -0.12940796, 0.27083737, 0.20730083, -0.46975687, 0.28378022, -0.08198, 0.20819888, 0.06894835, 0.39667144, 0.307945, 0.13030295, 0.28861824, 0.3934664, -0.13454898, -0.013513259, -0.54814816, 0.21953876, 0.2306443, 0.27029973}, 
{0.1400233, 0.20068009, 0.022927705, 0.110457905, 0.18138154, -0.27352586, -0.23162884, -0.02394339, -0.006089655, -0.10198115, 0.033920784, -0.3127001, -0.2059892, -0.14823323, -0.15155151, -0.2119084, -0.03620315, -0.39221194, 0.1970916, 0.0071294885, 0.18488058, 0.6177187, 0.051591862, -0.061853096, 0.21562824, -0.24005905, -0.17572506, 0.11845098, 0.4534587, 0.15815672, -0.028741594, 0.2896836, 0.0914446, 0.16283242, 0.13670029, 0.233578, 0.105878234, -0.008817387, -0.25513077, -0.20926003, 0.32689878, -0.54279065, 0.3856065, 0.18102106, 0.23893501, 0.001816907, 0.179579, 0.5008799, -0.49435484, 0.17700346, -0.2284574, 0.18445092, -0.10394956, 0.34637105, 0.088741, -0.008622109, 0.22799936, 0.11543349, 0.12838829, 0.0723164, -0.64721763, 0.12755953, 0.06828598, 0.14695203}, 
{-0.11683285, 0.19157378, -0.13666596, 0.30939025, 0.24639547, -0.13505152, 0.038270686, -0.032282893, 0.31193396, 0.19649348, 0.10876744, 0.17979181, 0.10206914, 0.24060082, 0.062462922, -0.08334487, 0.06783454, -0.3265296, 0.12144644, -0.15707868, -0.11547823, 0.12847558, 0.07941204, -0.018400205, 0.055843294, -0.016706802, 0.1723513, 0.05708017, 0.07000988, -0.013814881, -0.077621445, 0.13367584, 0.08746048, 0.01687623, 0.32660183, 0.30332106, 0.1902676, 0.0762674, 0.024901748, 0.08276167, -0.007662721, -0.2957672, 0.12843959, 0.25594416, 0.21974267, 0.17462611, 0.34638557, -0.02709, 0.05621558, 0.2564398, -0.06296747, 0.15770167, -0.046657145, 0.1421047, 0.1098811, 0.057760265, 0.22602716, 0.24208578, 0.024512447, 0.02258722, -0.42393935, -0.073113464, 0.00035243764, 0.035875358}, 
{0.116242856, -0.19719239, -0.0724156, 0.14119147, 0.075601704, -0.23928754, 0.16744559, -0.011578466, -0.07449755, -0.06848869, 0.41275454, -0.08808986, -0.12232534, 0.2563541, -0.11681244, 0.056594446, -0.021131238, -0.16869941, 0.06806098, -0.005854387, 0.13536836, 0.45019522, -0.2636711, 0.072305076, 0.07627095, -0.30481786, -0.18019307, -0.27823317, 0.2772376, -0.15143074, 0.15741768, 0.40486947, -0.08572719, 0.3020669, 0.23841533, 0.041715864, -0.04644525, -0.07959102, 0.17138396, 0.2581982, 0.30031714, -0.17754033, 0.3068394, 0.36011392, 0.20890807, 0.119034745, 0.02057658, 0.1072899, -0.007268434, 0.47878495, -0.34671977, 0.15784265, 0.17896986, -0.08549493, 0.19779187, 0.18536946, 0.1027406, 0.19835165, 0.008880023, 0.059989974, -0.20273533, 0.13316418, 0.059101146, 0.56132895}, 
{0.030698467, -0.06149062, 0.1449477, 0.39899504, 0.20325713, -0.05925949, 0.047963005, 0.15248153, -0.35242155, -0.14537103, 0.0027000485, 0.04633072, -0.1547799, 0.266705, 0.013868399, 0.008083959, -0.16341084, -0.11406905, 0.15168595, 0.122186124, 0.18912858, 0.22114334, -0.116598375, 0.07166772, -0.101250455, -0.091345154, -0.17258942, -0.17762664, 0.14116143, -0.24738847, 0.29127806, 0.15418981, -0.043871257, 0.17798096, 0.1553713, -0.14557672, -0.08512527, 0.049934037, 0.34984764, -0.057797357, 0.30004135, -0.19088182, 0.19132389, 0.29438, 0.057190653, 0.031543635, -0.042496834, 0.15693122, 0.12801363, 0.44566664, -0.08308045, -0.038783766, 0.15141976, 0.04096091, -0.08762397, 0.27775112, 0.100280546, 0.10573206, 0.13705769, 0.03876607, -0.29860836, 0.23675036, -0.1049154, 0.19563624}, 
{-0.0012677757, 0.055055343, 0.06674467, 0.42084658, 0.24716635, -0.15456665, 0.31785235, 0.113300994, -0.2712689, -0.051477876, 0.23893796, 0.15307122, 0.04746702, 0.32195315, -0.06903248, -0.104821965, -0.06618763, -0.18662512, 0.12779795, -0.16925679, 0.13756225, 0.45330125, -0.24250959, 0.011649007, 0.04983184, -0.25078875, -0.190335, -0.32006708, 0.2870438, -0.18112925, 0.33998486, 0.17992593, -0.098210566, 0.30749726, 0.13673688, -0.35238397, -0.16591471, 0.1807197, 0.19749236, 0.024904454, 0.34199113, -0.1594401, 0.348483, 0.23740129, 0.3336041, 0.18420106, -0.060404267, 0.17971638, 0.072916456, 0.30014542, -0.18021412, 0.0449422, 0.33828667, 0.060396973, 0.13835368, 0.16693176, 0.013460229, 0.24387822, 0.14817542, -0.06705613, -0.30367756, 0.38473463, 0.047418673, 0.23410322}, 
{0.008995071, 0.082528666, 0.03820035, 0.31820196, 0.12531869, 0.062306277, 0.13021433, 0.1914104, -0.04766573, -0.2094414, 0.241536, 0.13505758, 0.21912704, -0.06919814, 0.010458723, -0.30123553, -0.2993729, -0.15300445, 0.07397281, 0.12068977, -0.016902916, 0.4133751, -0.15076384, 0.06627758, 0.07733448, -0.18152158, -0.35561302, 0.08754932, 0.30592334, -0.111353524, 0.029821144, 0.24168263, 0.15358952, 0.17590173, 0.3104136, -0.41990733, 0.011324581, 0.032406896, 0.29273048, 0.19176123, 0.29172078, -0.031156834, 0.10834362, 0.11876417, 0.00033892365, 0.24821265, -0.204804, 0.20506573, 0.028577037, 0.2931829, -0.25352132, 0.013832753, 0.36094984, 0.049415395, 0.15159723, 0.18328376, 0.14946201, 0.13009116, 0.08665423, -0.13384071, -0.2179741, 0.3882034, -0.04981672, 0.26912028}, 
{-0.055315748, -0.11880929, -0.27479944, 0.19041927, -0.005719629, 0.3928513, -0.06557636, 0.41826725, -0.03988599, 0.18116984, 0.36594024, 0.38386464, 0.17890026, -0.4110192, 0.054284997, -0.28878784, -0.13538897, -0.21172829, -0.04017569, 0.221483, 0.13533561, 0.021549083, -0.3281696, 0.03335329, -0.103623606, 0.051651552, -0.2608784, -0.4595766, -0.019551346, -0.22017501, 0.14737396, 0.035397097, 0.027988054, 0.105066895, 0.4554448, -0.14408566, -0.17548533, 0.11202264, 0.60891616, 0.2020406, 0.19853203, 0.00045231442, -0.1728595, 0.19349718, -0.0017445075, 0.23773415, 0.31897905, -0.21442108, 0.23182072, 0.28247392, -0.47172478, 0.16347519, 0.3783889, -0.3895777, 0.033997193, 0.29459906, -0.0006758768, -0.03169637, -0.1640317, -0.017763155, -0.124336936, 0.049223695, 0.22113012, -0.22784105}, 
{-0.096679725, -0.15986902, -0.06393467, 0.22963314, -0.026455102, 0.33570287, 0.016106548, 0.31665915, -0.096810535, 0.115394756, 0.29395553, 0.08665221, 0.13757388, -0.25990817, -0.038659178, -0.3533106, -0.24560162, -0.13106853, -0.22027355, 0.11835299, 0.07909778, 0.0068090623, -0.32945502, -0.038510423, 0.0008661011, -0.068482116, -0.14641716, -0.46413928, -0.005433603, 0.1302457, 0.08897491, -0.012223835, -0.01752961, 0.31350014, 0.29034477, -0.101212986, -0.36808652, -0.027230706, 0.708755, 0.22966334, 0.41085503, 0.041197166, -0.010249151, 0.096238256, 0.31510717, 0.16488577, 0.2114409, -0.22245072, 0.14124605, 0.07694914, -0.22955325, 0.052599702, 0.27795705, -0.13854952, -0.22922932, 0.22885226, 0.29548505, 0.018753419, -0.13126436, -0.06496619, -0.39038873, 0.04440712, 0.36229977, -0.28662944}, 
{0.20317753, -0.022541473, 0.11253847, -0.071822464, -0.046041213, -0.012800683, -0.07097048, -0.0013697607, 0.21119034, 0.107343756, 0.00898152, 0.09479002, 0.06293048, 0.0974855, -0.03345499, 0.0077086543, 0.21279381, 0.25469297, -0.0954655, -0.064341374, -0.29802117, -0.2385592, 0.16667241, 0.11337586, -0.098613985, 0.21539599, 0.2087393, -0.390411, -0.038093504, 0.3374103, -0.058324482, -0.09735104, 0.14210437, 0.1712621, -0.020796973, -0.21230856, 0.024974046, -0.38918126, -0.23149656, -0.20565012, 0.01241848, 0.100817256, -0.11629475, -0.2831968, 0.10039155, -0.46357572, -0.018758923, -0.01233987, 0.044133868, -0.0973959, -0.20978726, -0.073625274, -0.23502506, 0.18159539, -0.005136045, -0.018584907, 0.29907915, -0.35697848, 0.093372196, -0.1311317, -0.024944233, -0.1504017, 0.06601666, 0.040037643}, 
{0.16571172, -0.1190075, 0.067127414, -0.12667313, -0.43098423, 0.10595926, 0.2786983, 0.05862362, -0.09352338, 0.22088106, 0.072356075, 0.06061372, 0.115680136, 0.11528025, 0.19450507, 0.14192922, 0.12358539, 0.25331506, 0.026238764, 0.1327303, -0.31239188, -0.005036941, 0.1721612, -0.02223816, 0.1565716, 0.110246874, 0.0072684768, -0.20499374, 0.049742043, 0.22110084, -0.0024481537, 0.25480244, 0.005179631, 0.124358386, -0.060797304, -0.16845979, 0.14773613, -0.1671214, -0.10995893, -0.22632815, -0.080074765, 0.025457302, -0.062358472, -0.38843906, -0.26381364, -0.2907732, -0.381568, -0.10284699, 0.0251412, -0.03413809, -0.15872033, 0.05700542, -0.1427208, 0.17095906, -0.04514745, -0.16759184, -0.06983713, -0.3383264, 0.2925889, 0.043491647, -0.29215536, -0.022347296, -0.07999679, 0.096630484}, 
{0.17447096, -0.00026574917, -0.0096546095, 0.033026665, -0.32144293, 0.14073312, -0.03349758, 0.09356457, 0.26691034, 0.24620895, -0.023169352, -0.032224257, 0.13252725, 0.19825485, 0.21936914, 0.17948753, 0.1613487, 0.17005166, -0.12016206, -0.040551703, -0.18946393, -0.25642553, 0.45785373, -0.16013575, -0.0017015407, 0.10746221, 0.23462702, -0.18120146, 0.04163545, 0.3478743, -0.20443147, -0.05197222, -0.10122323, 0.14974713, -0.15985942, 0.0163718, 0.015780635, -0.17586543, -0.038501546, -0.018379373, -0.3722467, 0.18102463, -0.17023632, -0.2519299, 0.031990536, -0.42150602, -0.12935749, 0.019455101, 0.10924206, -0.3918956, 0.017508822, 0.078853, -0.344819, 0.45544612, -0.21094361, -0.30784634, 0.10599953, -0.30356762, -0.04405871, -0.104516625, -0.10353777, -0.116623424, -0.00753939, 0.16283394}, 
{0.013977458, 0.16136919, 0.010000949, 0.2605326, -0.25382143, 0.104967766, -0.07909016, 0.22143422, 0.1891236, 0.2598015, -0.17635217, -0.07864435, 0.14252506, 0.07078949, 0.233802, -0.18070124, 0.34054923, -0.07521495, -0.08386259, -0.13044278, -0.09352761, -0.2504848, 0.43400282, 0.044167176, 0.12134223, 0.021057744, 0.0966337, -0.05314312, -0.11291187, 0.17329353, -0.02125743, -0.22356176, -0.02096335, -0.013206525, -0.10699651, -0.10558098, -0.056391336, -0.18894003, -0.05391572, -0.1244557, -0.16242038, 0.22373256, -0.11090626, -0.122195564, 0.15587531, -0.24324924, -0.066491656, -0.2978744, 0.16827501, -0.2214575, -0.12521423, 0.13105491, -0.1642378, 0.31897038, -0.14315736, -0.12223192, 0.21910346, 0.048008516, -0.05537197, -0.09787082, -0.29408053, -0.093628824, 0.10151184, -0.019262174}, 
{-0.19110794, 0.006196917, 0.048127424, 0.16808093, -0.15151149, 0.09020941, -0.13995034, 0.048215333, 0.18014139, 0.29288304, -0.12745523, -0.08539539, 0.24654135, -0.23048933, 0.26314852, -0.21334723, 0.28986934, -0.15535526, 0.045866366, 0.040610593, -0.22863802, 0.10860557, 0.18103138, -0.013062813, 0.10270511, 0.13460588, 0.16311969, 0.4622631, 0.100043766, 0.06237476, -0.12970921, 0.12266728, 0.17581154, -0.26921508, -0.23994303, -0.27423722, 0.29369545, -0.08262558, -0.38711667, -0.23860797, 0.014510468, 0.09263247, -0.06366658, 0.033773657, 0.15560886, -0.19891188, -0.13297503, -0.19428821, -0.1646343, -0.049267635, 0.063570365, -0.06350848, 0.056064203, 0.3774497, -0.21377137, -0.19256464, 0.06591853, 0.24858804, -0.15739201, 0.12406374, -0.1918241, -0.117388256, 0.17706144, -0.3777587}, 
{0.031884354, 0.23432028, -0.035095286, 0.16548273, 0.011196409, 0.13862114, -0.17730488, -0.13784301, 0.18251249, 0.24318883, -0.19901581, -0.16606747, 0.030711258, -0.19949003, 0.2176941, 0.08280558, 0.23065862, -0.06718746, -0.10201648, -0.084525235, 0.056598432, 0.17370142, 0.021093674, 0.026107166, 0.28964928, 0.1947842, 0.21381947, 0.3904169, 0.19043875, 0.16230421, -0.40566683, 0.04715925, 0.34297854, -0.20475416, -0.026041646, -0.18613039, 0.21167669, 0.08063428, -0.43463263, -0.1333773, -0.0119134225, -0.2631838, -0.27834967, 4.9371243e-05, 0.035205323, -0.20511529, -0.17351367, -0.30150503, -0.26091895, -0.18497239, 0.13361731, 0.15467559, 0.089070156, 0.2574224, -0.17482908, -0.19301249, 0.21308114, 0.110621415, -0.2478537, 0.18336283, -0.18175465, -0.14398548, 0.24864964, -0.14931378}, 
{-0.044557657, 0.08987202, -0.020087987, 0.13267784, -0.0709533, 0.12975298, -0.34749174, 0.026217187, 0.0211318, 0.27219665, -0.08828158, -0.14435972, 0.08966618, -0.29768807, 0.26266214, 0.14130941, 0.159282, -0.12778427, -0.0052871867, -0.051795248, 0.06295217, 0.11099098, 0.07145537, 0.024676662, 0.21430837, 0.08148389, 0.23848405, 0.28057292, 0.28529498, 0.004085185, -0.5492723, -0.056824632, 0.1374848, -0.20225178, -0.19434196, -0.22660457, 0.17732318, 0.11267725, -0.3686736, -0.13898386, -0.09870136, -0.19375752, -0.493266, -0.036613602, 0.18859714, -0.14603129, -0.15256035, -0.0016829857, 0.0511107, -0.13829504, 0.1249589, 0.19829111, 0.15359743, 0.3958818, -0.11386208, -0.0100135915, 0.13561341, 0.19293372, -0.04229927, 0.3862039, -0.17981958, -0.074356586, 0.15789558, -0.05684194}, 
{-0.3064518, 0.19010048, 0.040635865, 0.2013232, 0.121410266, 0.058494415, -0.6153569, -0.099946186, 0.14918494, 0.24519376, -0.19542868, -0.20230429, -0.06234334, -0.4008876, 0.19958043, 0.17290366, -0.16322295, -0.2448371, -0.038066354, -0.18499617, -0.034969542, -0.09563302, 0.24030448, -0.121916145, 0.033726793, 0.17154598, 0.00611935, 0.22544505, 0.3109524, 0.08253106, -0.32060477, -0.21220574, 0.066930026, -0.29332006, -0.43756914, 0.07459204, 0.13915439, 0.15190388, 0.008425022, 0.079975486, -0.1827297, -0.45384672, -0.38999122, -0.10880276, 0.20016332, -0.15943171, 0.1810916, -0.15173693, -0.13194592, -0.20599307, -0.023923103, 0.2927458, -0.037677385, 0.14600682, -0.0038562652, -0.3665704, 0.13348928, 0.06346038, 0.013190451, 0.33729407, -0.61600345, -0.13801888, 0.20002893, -0.17391652}, 
{-0.25540525, 0.30875438, 0.11068466, 0.107071765, -0.19450022, -0.08461905, -0.51453626, 0.15906346, 0.013880414, 0.069505475, 0.014935438, -0.18074521, -0.18933636, -0.2718777, 0.31840453, 0.06526632, 0.009524396, -0.31873786, 0.0393929, -0.03853687, 0.13229032, -0.06464071, 0.06315561, -0.18315807, 0.13670684, 0.24047586, -0.03979016, 0.19688009, 0.15155464, 0.0994763, -0.37786874, -0.002948409, 0.06126126, -0.047424957, -0.22149616, 0.032292917, 0.0068015093, 0.010527158, 0.3520284, -0.0026796346, -0.17116302, -0.10111891, -0.14039366, -0.2168864, 0.13710801, -0.034700625, 0.02049506, -0.19117631, 0.045719065, -0.14603436, -0.15473449, 0.1312825, 0.041142214, 0.09053615, 0.10222318, -0.112032175, 0.10847081, -0.07054338, 0.015275406, 0.023697542, -0.12096857, -0.1904703, 0.07575459, -0.0071162917}, 
{-0.012031438, 0.09726792, 0.105958566, 0.20690106, -0.094061226, -0.25112274, -0.19501825, 0.1325358, -0.08459389, 0.07660822, 0.06459866, -0.21785846, -0.008262363, -0.041833736, 0.15421936, 0.06445735, -0.20772053, -0.37044606, 0.03042916, -0.06688503, 0.007648954, 0.022906404, 0.09464479, -0.061969515, 0.19859585, 0.1047525, 0.06235393, 0.109210804, 0.1916291, -0.15075865, 0.018827844, -0.11375299, -0.015767151, -0.07858537, 0.058905095, -0.35287344, -0.21240006, -0.055699676, 0.42560393, 0.269336, 0.10161229, -0.21920007, -0.032212008, -0.11148144, 0.21657173, -0.19178858, 0.09816273, -0.2659791, 0.150051, -0.10466513, -0.13039963, 0.033320777, -0.022555407, -0.09958304, 0.060066897, 0.023449665, 0.029824438, 0.039875396, -0.06769326, -0.017361466, -0.004195894, 0.021924336, 0.07785527, -0.1229505}, 
{-0.1980252, 0.22076802, 0.12178572, 0.13357687, -0.14420529, -0.23329717, 0.3051067, 0.25314465, 0.07725119, 0.010011479, -0.07021609, -0.032829616, 0.032972645, 0.12380437, 0.121802464, -0.24435832, -0.2593517, -0.047558777, -0.19659275, -0.18629102, -0.029517695, 0.19245924, 0.07307891, -0.040603805, 0.04454214, -0.043106522, -0.03710089, -0.10684467, 0.07891872, 0.104113474, -0.1172608, -0.29433116, -0.13871396, 0.10990698, 0.023767766, -0.23079371, -0.26304978, 0.17872328, 0.34219724, 0.14794919, 0.12485324, -0.16753858, -0.10131574, 0.09176133, 0.30825585, -0.111997515, 0.20924811, -0.1635872, 0.04646836, 0.017621774, -0.07780758, -0.013700054, 0.24780963, -0.11508802, 0.034846015, 0.02932974, -0.10309863, 0.13243578, -0.12014957, 0.004055349, -0.3919993, 0.010769528, 0.01579594, -0.07576908}, 
{-0.08044387, 0.025594002, 0.028563872, 0.13474625, 0.33628163, -0.033237986, 0.28900042, 0.12441951, -0.020309059, 0.03662006, -0.070341066, -0.06592354, 0.020334098, 0.32862833, 0.20326436, -0.24311775, -0.29399714, -0.2805318, -0.020378511, -0.08380825, 0.2237888, 0.33067897, 0.049917705, 0.067005396, 0.14618349, -0.19929728, 0.028942322, 0.015618201, -0.069828674, -0.2102449, 0.006539464, -0.10247752, 0.042078804, 0.14576887, 0.027647147, -0.30857155, 0.047766063, -0.01267264, 0.27568284, 0.10119629, 0.3502383, -0.11727948, 0.28699243, -0.005168164, 0.060042996, 0.22905445, 0.14006339, 0.01358529, -0.038491342, 0.016196044, -0.029601155, 0.03727598, 0.34480527, -0.035339773, 0.113369346, 0.17565577, 0.21276276, 0.17835163, -0.31667626, -0.22606516, -0.22793719, 0.11216525, 0.024877377, 0.024450231}, 
{-0.03264885, 0.055186767, 0.23289588, 0.35025108, 0.1458034, 0.042606343, 0.2582225, -0.03755373, -0.12649465, -0.20247701, -0.03554253, 0.035288554, -0.1381715, 0.43320313, -0.013800318, -0.30420554, -0.04614865, -0.4478918, -0.04169986, -0.065313555, 0.36057904, 0.2339716, 0.010543844, -0.13381562, 0.08852829, -0.13880388, 0.007621261, -0.15127534, 0.102196954, -0.41285622, 0.03705685, 0.21090628, 0.07924049, -0.038443267, 0.08468642, -0.39703545, 0.08902639, 0.25363308, 0.08857828, -0.044728383, 0.43173885, -0.15525773, 0.13143136, 0.1865298, 0.07884565, 0.46721375, 0.082814075, 0.036205087, -0.15750688, 0.12748143, 0.33017108, 0.058670994, 0.27713582, 0.24534576, -0.06360524, 0.2454907, 0.07082773, 0.2744045, -0.16859792, -0.20085031, -0.33841023, -0.017441686, 0.2088093, 0.04300602}, 
{-0.0037107312, -0.01720439, -0.25012112, 0.05421956, 0.041735068, 0.10820153, -0.34285444, -0.046560947, 0.05423229, 0.07983543, 0.26828167, 0.19842121, 0.039809354, -0.031287532, -0.06356161, -0.10178478, -0.29838467, -0.3398394, -0.43019217, 0.36011413, -0.16244426, 0.002099087, -0.30220893, 0.010435476, 0.08756962, -0.010717538, 0.1880081, 0.04962474, -0.15281911, 0.22505325, -0.18818142, 0.085293695, 0.19546641, -0.006173809, 0.097750396, -0.31316686, 0.20863856, -0.15568754, 0.2596368, 0.001481143, -0.075148314, -0.121774025, -0.07012832, 0.11861703, -0.074389435, 0.20912756, 0.22697952, -0.12143348, 0.14978519, 0.054154564, -0.08561745, 0.12477365, 0.12629986, -0.08484513, -0.103436396, 0.015016229, 0.19167876, 0.13474521, -0.16218218, -0.07690457, 0.23755509, -0.1994138, -0.15962705, -0.20522955}, 
{-0.13969891, -0.17877755, -0.03841707, 0.1428684, -0.01965265, 0.52902263, -0.09079675, 0.17133507, -0.060315587, 0.06470674, 0.08712442, 0.39786407, 0.17661591, -0.18699397, 0.16927044, -0.2307328, -0.2675307, -0.21675858, 0.03096743, 0.11675263, -0.114668086, 0.034352474, -0.31645295, 0.021025887, 0.1450801, -0.064390525, -0.19807558, -0.2898144, 0.0033102576, 0.09812012, -0.03125253, 0.15761477, 0.07857594, 0.18573523, 0.12669335, -0.2793311, -0.20557058, -0.11591053, 0.5039587, -0.09516066, 0.3635517, -0.062031727, 0.0057183853, -0.028718013, 0.20440598, 0.08822836, 0.24828158, -0.22174945, 0.22332977, 0.035560414, 0.018512797, 0.13672666, 0.087959446, -0.03051424, -0.11959089, 0.19427398, 0.2668889, 0.21205485, 0.07428709, -0.07478242, -0.014927108, -0.0045523755, 0.09215062, -0.33760262}, 
{0.15126705, 0.13762915, 0.026558368, -0.121805295, -0.16041087, 0.16267446, 0.170091, 0.21424817, 0.109167196, 0.12419576, 0.14015648, -0.114516936, 0.023443494, -0.048399754, 0.07476169, 0.19836521, -0.0075024078, 0.007841841, -0.27002877, -0.07590633, -0.48189184, -0.1390244, 0.25667962, 0.036950465, -0.098195426, 0.071056984, 0.02139532, -0.2799526, 0.013655082, 0.18052918, 0.07621113, -0.15705766, 0.04204602, 0.25530878, 0.04997326, -0.39746687, -0.0133268405, -0.1603072, -0.057180263, -0.12287232, -0.111570284, 0.10725438, -0.03778559, -0.36214706, -0.0411927, -0.35235262, -0.19044861, 0.14760657, 0.36746126, 0.114094414, 0.013456897, 0.20665163, -0.27499068, 0.21230935, 0.030520307, -0.076004505, 0.046495356, -0.3853904, 0.0461379, 0.018075258, -0.23600774, 0.066328436, -0.03603479, 0.19273114}, 
{0.26830322, -0.043135207, 0.35903013, -0.19313224, -0.12477568, 0.23462991, 0.0034037526, -0.003720074, 0.04523196, 0.42836127, 0.09062008, -0.0033729235, 0.21004544, 0.122550055, 0.136829, 0.3821718, 0.10329225, 0.3843503, -0.20182835, -0.0058506043, -0.26598123, -0.3628911, 0.25138104, 0.03015984, -0.040218897, 0.26289487, 0.12086655, -0.37160045, 0.14397143, 0.18592508, -0.0548296, -0.03251745, -0.027057294, 0.13703384, -0.11631801, -0.029747557, 0.19146371, -0.19821572, 0.08294091, -0.34062186, -0.03312596, 0.33408746, -0.012998261, -0.30507097, -0.14129491, -0.6014286, -0.24336948, 0.12598164, 0.09803685, -0.4375769, -0.10767715, 0.106296435, -0.27721992, 0.29658347, -0.12998916, -0.046822093, 0.16636097, -0.42480263, 0.12524705, 0.007638938, -0.32794386, -0.034720886, -0.04685359, 0.10593878}, 
{0.21094893, 0.002205532, 0.18547791, -0.102153525, -0.093831375, 0.18925282, 0.27276412, 0.27206984, 0.06264209, 0.32892033, -0.13643536, -0.11209627, -0.09102454, -0.11085674, 0.33585605, -0.13205718, 0.12077057, -0.19465297, 0.011036489, -0.22017895, -0.12431783, -0.11212541, 0.20153306, 0.07705434, -0.04749557, 0.09100459, -0.04825189, -0.1043861, 0.082365885, 0.047732893, 0.114159286, -0.04331263, -0.23311982, 0.13834888, -0.26930958, -0.18017618, 0.11305653, -0.14497605, -0.24922079, -0.077666715, -0.101611555, 0.10784993, -0.24862741, -0.17222333, -0.04698769, -0.41303235, -0.43015, -0.018365577, 0.15130161, -0.2781198, 0.11443201, 0.1126538, -0.32539022, 0.41441482, -0.29787666, -0.5090738, 0.08247175, -0.08489919, 0.104285695, -0.19650483, -0.31342158, -0.16273822, -0.063139565, 0.3201503}, 
{-0.030971128, 0.035830174, 0.10111183, -0.10892623, -0.22591017, -0.052814253, 0.19953816, 0.26284903, 0.06242219, 0.07494089, 0.03418165, 0.10012703, -0.009430149, -0.043091472, 0.10696608, -0.2172748, 0.12878495, -0.08792316, 0.10511099, -0.16078474, -0.2887551, 0.029607274, 0.36682644, 0.07387591, 0.11953168, 0.23103027, -0.1100033, 0.0019259587, 0.014640703, -0.04947833, 0.03197341, 0.013448294, -0.10340818, 0.29104418, -0.14319627, -0.25872606, 0.06674441, -0.20251714, -0.39571336, -0.14440748, -0.17770386, 0.16502906, -0.0591548, -0.22659284, -0.015854387, -0.21446444, -0.52062166, -0.009912273, 0.028956981, -0.19761138, -0.08734969, 0.041097235, -0.21782756, 0.31689858, -0.29739568, -0.21189968, -0.03933031, -0.017644197, -0.19163343, -0.28707013, -0.2534406, -0.11763916, -0.103684075, 0.20496956}, 
{-0.10694398, -0.042469956, 0.19769356, -0.06842294, -0.0121410815, 0.23781085, 0.05118735, 0.039026007, 0.035508655, 0.19560833, 0.09404823, -0.09895914, -0.14513718, -0.20073473, -0.04829833, 0.038304057, 0.22698735, 0.03730206, 0.14772044, -0.08783751, -0.14891602, 0.094167136, 0.23021603, -0.12087511, 0.12867503, -0.027798716, -0.04125317, -0.20616008, 0.35768005, 0.20207034, -0.17083885, 0.028505519, 0.089487135, -0.09342473, -0.23866752, -0.27075005, 0.018648474, 0.017302843, -0.058498565, 0.061832182, -0.030282976, 0.03361867, 0.08263441, -0.15303445, -0.041720614, -0.2868505, -0.45477664, 0.041005895, -0.100565486, 0.09854464, 0.036762822, 0.17280705, -0.044640567, 0.12393034, -0.30010843, -0.15146141, 0.074758865, 0.019786997, -0.16855033, -0.24931538, -0.17879921, -0.09298727, 0.12569807, 0.21083848}, 
{-0.015488396, 0.17588148, 0.0900365, 0.061833777, -0.07378995, 0.13841519, 0.043443233, -0.028389303, 0.034339767, 0.22104809, -0.053212874, -0.22535592, 0.16104843, -0.26200843, 0.094333895, 0.07317403, 0.036156587, 0.11047265, 0.05930587, 0.06729235, -0.0556714, 0.056381218, -0.016363073, 0.0975414, 0.24392474, 0.12326937, 0.052758306, -0.13777688, 0.40262234, 0.1963651, -0.15507326, 0.30287802, 0.10465411, -0.09437366, -0.09915972, -0.2904585, 0.08287713, 0.072809786, -0.09194336, -0.016187314, -0.20334181, 0.06365007, -0.058082987, 0.13486835, 0.16336478, -0.1554148, -0.23751912, -0.19271012, 0.069831796, 0.10091831, 0.047514357, 0.13597363, 0.021704717, 0.1533274, -0.14256263, -0.03967846, 0.04633424, 0.016547866, -0.2743405, -0.07106426, -0.29718935, 0.04259342, 0.22579792, 0.17474021}, 
{-0.01299383, 0.19564766, 0.11755483, 0.1704457, 0.17555688, 0.17567694, -0.48489192, 0.04518827, -0.057861652, 0.18968514, -0.09597831, 0.02855155, 0.12208667, -0.42839476, -0.04027086, 0.13344468, 0.013582529, 0.18073249, 0.18265115, 0.194054, -0.12280278, 0.040792838, 0.01025945, -0.08075594, 0.1524849, 0.17361501, 0.14977656, -0.16359141, 0.22656286, 0.050141286, -0.1572146, 0.3377686, 0.19697994, -0.095358305, 0.046858728, -0.29512256, -0.104486756, -0.03541855, -0.027308485, -0.00843448, -0.008295241, -0.067748, -0.20705156, 0.12851201, 0.03870931, -0.07499343, 0.069568306, -0.029962385, 0.22405852, 0.15996584, 0.02035247, 0.057869878, 0.13922945, -0.11556345, -0.25447306, -0.23617671, -0.0480848, 0.013241504, -0.012085609, 0.08791448, -0.31387073, 0.0283123, -0.007605755, 0.20420198}, 
{0.11560307, 0.108661145, 0.08699987, -0.023547793, 0.00392707, 0.11480102, -0.4548765, 0.119314864, -0.20148982, 0.1160714, 0.024772545, -0.073964074, 0.12222462, -0.2099593, -0.07487972, 0.18369061, 0.07597846, 0.06295927, 0.22720324, 0.1907537, -0.02871636, 0.090961024, 0.068257205, 0.08724608, 0.143165, 0.055862628, 0.101247445, -0.31808668, 0.22878224, 0.03316258, -0.12001573, 0.25195324, 0.22511114, -0.26293507, -0.14586428, 0.19438037, -0.08828631, 0.09996319, 0.016504368, 0.07599229, -0.14971052, -0.03655468, -0.025436431, -0.015164454, 0.059407774, -0.004780059, 0.06957322, -0.19450705, 0.066959865, 0.05712684, 0.12402635, 0.06999217, -0.07020397, 0.0062842495, -0.07083371, -0.1433165, 0.019377485, 0.07527193, 0.025022026, 0.26299566, -0.2992418, -0.13428557, -0.0025037336, 0.109370895}, 
{-0.14880963, 0.10727608, 0.2301805, 0.018118192, 0.029790055, 0.033639245, 0.0028240578, 0.05777297, -0.12816615, 0.12372555, 0.03738839, -0.0707937, 0.11430468, -0.17175129, 0.13637684, 0.19153152, -0.17820062, -0.2244316, -0.053229727, 0.08933516, 0.020651931, 0.1502954, 0.13465254, -0.118842036, -0.005204417, 0.25004122, -0.06855466, 0.13421687, 0.2745488, -0.0421533, -0.13527949, 0.21163861, 0.07489854, -0.1326515, -0.010686115, -0.13752607, -0.048641626, 0.17234677, 0.0538061, 0.20179078, 0.023993412, -0.06528964, -0.15378554, -0.06661285, 0.033041324, -0.0058839866, 0.17353116, -0.17272466, 0.010111661, -0.078357436, 0.17827615, 0.08143227, -0.10754281, 0.05917823, 0.1500539, -0.07658134, -0.1384339, -0.049735982, 0.09321948, 0.26982942, -0.2601141, 0.10255299, 0.07932512, -0.12700279}, 
{-0.06194436, 0.18069357, -0.014003488, -0.047897935, -0.028216159, -0.0048473305, -0.03536659, 0.10896765, 0.0012981991, 0.083577864, -0.034877732, -0.026622603, 0.043688815, 0.0014650326, 0.12970576, 0.009101844, -0.23902373, -0.4139855, -0.05714792, -0.14105041, -0.05613281, 0.16690859, -0.10489881, -0.03280579, 0.04587901, 0.20822921, 0.042434495, 0.13861737, 0.29941642, -0.027054777, -0.10576555, 0.08630615, 0.15565597, -0.101194344, 0.077880606, -0.2874689, -0.08854816, 0.15731597, -0.04443887, 0.19450666, 0.028500507, -0.12077036, 0.07974026, 0.053912032, 0.070022665, -0.0731938, 0.100490935, -0.17221078, 0.09149121, -0.024232328, 0.0039856946, 0.31400257, 0.03992337, -0.012133606, 0.02249503, 0.102839716, 0.033441998, 0.13879892, -0.03012017, 0.20445709, -0.1848357, 0.16693245, 0.10744867, 0.07801278}, 
{-0.15152512, 0.11477795, 0.020154728, 0.05719819, -0.17121516, -0.061577562, 0.025456375, 0.15444186, -0.038171332, 0.14611347, 0.17346516, -0.15734859, 0.049418263, 0.17313491, 0.09595134, 0.04101912, -0.3080474, -0.5341144, -0.22867356, -0.030305818, -0.027649421, 0.09104349, -0.0369606, 0.050276365, 0.17466745, 0.20622331, -0.04107504, 0.002773438, 0.22322449, -0.088259846, -0.20895372, 0.07011159, -0.07293232, 0.116962045, -0.03428019, -0.3442956, -0.06697422, 0.09576585, 0.026188377, 0.07118676, 0.119723424, 0.08435483, -0.01522477, -0.011559299, 0.13827886, -0.06917279, -0.05849784, 0.039891843, 0.111779295, 0.04240407, -0.10690393, 0.1302129, -0.03228064, -0.04066563, 0.114104874, 0.10411564, -0.006739643, 0.10107958, -0.102866486, 0.10791592, -0.20253637, 0.14883247, -0.010183779, 0.028260056}, 
{-0.040640738, -0.020823823, 0.008575774, -0.020344978, 0.047976684, -0.097731866, -0.057108525, 0.22434464, -0.17371894, 0.08001746, -0.00039567944, -0.21224579, 0.016581913, -0.09280588, 0.09689526, -0.029718803, -0.56361526, -0.30065194, -0.342317, -0.095773585, 0.11426435, 0.22321282, -0.31772548, 0.1011285, -0.08926673, 0.23339821, -0.1432312, 0.08734219, 0.16707669, -0.24134056, -0.10696101, 0.11122578, -0.08005946, 0.16374782, 0.024882417, -0.10226854, -0.14508736, 0.10091043, 0.050711893, 0.0023593057, 0.06762481, -0.009424905, -0.14966755, 0.0151235, 0.103091225, 0.085634604, 0.074191436, -0.034606904, 0.037966575, 0.23034988, -0.007481898, 0.14968315, 0.04242465, 0.107410364, -0.13716055, 0.10008445, -0.055950344, 0.08500962, -0.15922432, -0.064044714, -0.36979026, 0.04509471, 0.07286862, 0.18053575}, 
{-0.08545773, -0.15265, 0.058829576, 0.10775291, 0.017123668, -0.15796624, 0.07487055, -0.0072998544, -0.01997277, 0.09779454, 0.11134073, -0.13219829, -0.025988223, 0.03198355, -0.01573638, -0.17908, -0.6689615, -0.34728923, -0.09213342, -0.19373637, 0.29528973, 0.1413156, -0.25799575, 0.030261433, -0.06734681, -0.012366893, -0.17806305, -0.06437699, -0.0258441, -0.07124457, 0.29653546, 0.10600474, -0.03867695, 0.24276313, 0.1232614, -0.24191046, -0.069967076, 0.19679417, 0.30128622, -0.0070102336, 0.36823, 0.13577548, 0.15467691, 0.27490717, 0.1696324, 0.095447905, 0.2539016, 0.009718472, -0.045828063, 0.26790223, 0.1550598, -0.026852556, 0.18268798, -0.0086108465, -0.13532619, 0.057011012, 0.03190236, 0.22668622, -0.12136599, -0.10320353, -0.28656948, 0.17702, -0.01298807, 0.05854993}, 
{0.028306464, -0.33378893, 0.035820365, -0.030764533, 0.12754527, 0.3260937, -0.20797929, 0.13307966, -0.108536616, -0.025196882, 0.37616614, 0.31477123, 0.1494381, -0.14739875, 0.016912086, -0.24739592, -0.41510952, -0.14329502, -0.14041114, 0.24337168, 0.04460938, 0.09092931, -0.3018414, 0.054113958, 0.16138104, -0.062214755, -0.18923786, -0.15022507, -0.13724312, -0.010880688, 0.1813603, 0.1843424, 0.31618223, -0.06468002, 0.04341783, -0.324937, 0.007027184, -0.06973133, 0.3270642, 0.13250884, 0.36778274, 0.07055332, 0.15709697, 0.097544506, -0.030393599, 0.33614257, 0.28834012, 0.038015023, -0.0380733, 0.1702003, -0.10284785, 0.14732477, 0.08565165, 0.11559705, -0.39634258, 0.021123381, -0.04332264, 0.27074862, -0.081183806, -0.4356735, -0.1612486, -0.030158227, -0.17308523, -0.14393395}, 
{0.12858488, -0.056326445, 0.06260817, 0.18278424, 0.046035938, 0.25555745, -0.24947931, 0.19928738, 0.10750134, 0.08849748, 0.1750795, 0.07627925, 0.08751033, 0.034448262, -0.027902205, -0.19047163, -0.123117514, -0.16195491, 0.107180975, -0.030043585, 0.09401776, 0.06065145, -0.40823388, 0.09966398, 0.22636913, -0.021454176, 0.052221045, -0.05890764, 0.177151, 0.11109563, -0.05566039, 0.14836381, 0.16035184, -0.12200145, 0.047698595, -0.3556039, -0.18905735, 0.106423885, 0.614027, -0.05551524, 0.06313577, 0.08188863, 0.106489785, 0.07993894, 0.13695826, 0.22940055, 0.049776006, -0.42177624, 0.12028363, -0.05946416, -0.19760178, 0.10719589, 0.18869059, 0.191263, -0.27359885, -0.009920008, 0.07070825, 0.27602378, 0.16249357, 0.023964178, -0.11410564, -0.10718927, 0.20720968, -0.39730677}, 
{0.29982018, 0.113835104, -0.10614861, -0.16500582, -0.24283557, 0.21830751, -0.029970676, 0.20548534, 0.04813436, 0.1289365, 0.04319323, 0.08082669, 0.050206162, -0.1419241, 0.22113076, 0.08768726, 0.08549532, -0.039941236, -0.09068611, 0.07817273, -0.24684468, -0.05243862, 0.19531961, -0.111621775, -0.12224228, 0.26898813, -0.034515813, -0.16386203, 0.19718963, 0.21992958, -0.07919148, -0.076504655, -0.1671123, 0.18871278, -0.103506364, -0.29022124, 0.28826836, -0.22855075, 0.0026847925, -0.061542258, -0.12781847, 0.108882494, 0.023762478, -0.17303503, 0.011777563, -0.40469083, -0.24211691, 0.34968123, 0.27786106, -0.002559755, -0.027239842, -0.0062810653, -0.29147768, 0.10459226, 0.11307405, -0.019856231, 0.06749215, -0.31891584, 0.26039472, -0.21244977, -0.34253177, 0.11671707, -0.21333241, 0.11462167}, 
{0.04562196, 0.050574187, 0.11235924, -0.17028607, -0.045830153, 0.39639074, 0.123850375, -0.19429201, 0.028584803, 0.24922357, 0.23923297, -0.073151775, 0.038274676, -0.17871314, 0.18797144, 0.30631393, 0.29037648, 0.29336783, -0.08777171, 0.076878384, -0.26594996, -0.49076584, 0.095515735, -0.16309643, -0.082258314, 0.15743917, 0.1648833, -0.15235482, -0.10444722, 0.32182896, -0.05636993, -0.06188279, 0.0742826, 0.18713205, 0.029328344, 0.0430126, 0.12888972, -0.08300594, 0.092812955, -0.28160092, -0.21889804, 0.21983099, 0.0013177871, -0.32795292, -0.30278474, -0.36435032, -0.0027625894, 0.008655766, 0.15045886, -0.17594329, -0.22003439, 0.111133985, -0.23744875, 0.17660953, -0.13323054, -0.20494702, 0.20838347, -0.37291497, 0.18955891, -0.008731541, -0.12609333, -0.14215031, -0.22090815, 0.034831084}, 
{0.105453014, 0.15419506, 0.07537449, -0.16680358, 0.016097289, 0.2940223, -0.08866592, 0.091341965, 0.2854209, 0.2721574, -0.090592705, 0.12053869, 0.28941178, 0.06999876, -0.062328015, -0.044549927, 0.23689617, 0.009607682, -0.13052447, -0.09101699, -0.28957796, -0.03922881, 0.072699845, -0.116938084, -0.123149775, 0.21858373, -0.07045176, -0.14349449, 0.15847556, 0.05294184, 0.114690684, 0.0741573, 0.0006558284, 0.13215952, -0.09151908, 0.13847618, 0.031308725, -0.38717085, -0.19623819, -0.21732773, 0.03278042, -0.021370325, 0.02287243, -0.2942156, 0.11381275, -0.2462958, -0.07455476, 0.15778767, -0.05409943, -0.16464634, 0.013219062, 0.11345248, -0.101320356, 0.33471066, -0.33871788, -0.17352079, 0.17047462, -0.39438146, 0.116779156, -0.11333572, -0.53440833, 0.07673436, 0.03470811, 0.21051419}, 
{0.16552667, 0.20338485, -0.070013255, -0.019122127, -0.04098565, 0.14501417, 0.058246803, 0.13851048, 0.08061163, -0.05669484, -0.06680936, 0.090777956, 0.18198891, 0.061478663, 0.11374106, -0.0007109062, 0.27776337, -0.12882045, 0.063289985, 0.028905464, -0.18285467, -0.10811554, 0.2028314, 0.035364766, -0.1022418, 0.17080015, 0.008564182, -0.37632105, 0.02112698, 0.18215355, 0.0066061537, -0.024309859, -0.14009371, 0.13492128, -0.10555563, -0.22950028, 0.11942274, -0.08673838, -0.21496521, -0.21793322, 0.012836385, 0.09693375, -0.08768737, -0.23353644, 0.04167593, -0.2383613, -0.4447403, 0.14905225, 0.08674091, 0.07498713, 0.040178366, 0.20774613, -0.20953418, 0.06090276, 0.097068675, 0.15961799, -0.084248856, -0.4628142, 0.13877745, -0.049180824, -0.49848428, 0.22498396, -0.0260251, 0.20708098}, 
{0.18090014, 0.008074193, 0.012291374, 0.15424654, -0.13893858, -0.05829996, 0.044926763, 0.119023785, -0.1881063, 0.19339411, 0.04934744, 0.03373018, -0.04056944, -0.10344251, 0.13334554, -0.03504575, 0.12542814, 0.028999556, 0.05397339, 0.18855792, 0.06161015, 0.17583938, 0.11424473, -0.056281544, 0.018382853, 0.1365308, 0.07565697, -0.36915773, 0.119983606, 0.06791549, -0.042328607, 0.019953372, 0.13380316, 0.20842853, -0.09690056, -0.36634982, 0.22561638, -0.23621684, 0.045537267, -0.070906095, 0.15930827, 0.1233255, 0.06696566, 0.13405174, 0.057467043, -0.1486832, -0.4933393, 0.12934987, -0.0016691864, 0.20706186, -0.1828144, 0.09094367, 0.08195312, 0.11588371, 0.08745344, 0.11456188, 0.093025565, -0.1500017, -0.08748451, 0.0029283632, -0.10683857, 0.019121509, 0.08757089, 0.045850545}, 
{0.12164186, 0.29357073, 0.09749223, 0.05236982, 0.082537726, 0.05632156, 0.024518723, -0.14429154, -0.011040492, -0.055513337, 0.16336861, 0.19634551, 0.027758293, -0.22064468, -0.020817379, 0.037722602, 0.07663695, 0.115124606, 0.015062847, 0.24487552, 0.026832951, -0.017157279, 0.022106465, -0.009686861, 0.20211399, -0.023609793, -0.01583696, -0.2898978, 0.039961334, 0.17023642, -0.13817398, -0.02333387, 0.03550321, 0.09570887, 0.042711973, -0.2495145, 0.10380801, -0.21418053, -0.01556984, 0.097999, 0.08814502, 0.12916371, 0.102809854, 0.018392466, 0.10796312, -0.02959432, -0.15083048, -0.12019604, 0.11487839, 0.07822855, -0.14670452, 0.108322084, 0.0681178, -0.0138104865, -0.010110197, -0.14494276, 0.14797185, -0.23878027, 0.14113884, -0.079415455, -0.16961223, 0.17392963, 0.11163268, 0.15522759}, 
{0.009311984, 0.146308, 0.2027169, 0.15036263, -0.04475419, 0.09216499, -0.1623219, 0.035928857, -0.2300533, -0.07971496, 0.07935625, 0.108861916, 0.014766622, -0.31734353, -0.010541398, 0.092354946, 0.15844604, 0.1150756, 0.101975255, 0.24818926, 0.12456381, 0.09793556, 0.15926552, -0.017145047, 0.05486265, 0.11154871, 0.021544876, -0.2566317, -0.033538625, 0.20749131, 0.0875903, 0.29210764, 0.11027719, 0.0027319405, -0.16606107, 0.26901197, 0.2929661, -0.20769337, -0.123914964, 0.11268651, 0.16396767, 0.22877157, -0.15950559, 0.09839221, 0.11168943, 0.035887536, 0.1728809, -0.063100025, 0.051199917, -0.062201057, 0.037729595, -0.016283749, 0.22379997, 0.018878583, 0.16436741, 0.068463944, 0.16606057, 0.00478506, 0.09403226, 0.111369185, -0.102724545, 0.20985189, 0.1337713, -0.0016388244}, 
{0.10935652, 0.2206655, 0.26232043, 0.024946699, 0.0410813, 0.17284021, -0.17941068, 0.004494521, -0.12495717, -0.24721679, -0.028174855, 0.15571156, 0.24679376, -0.027541064, 0.08363531, 0.06646039, -0.012243457, 0.09416831, 0.115909375, 0.06520232, 0.08385287, 0.03687032, 0.19163664, 0.11175061, 0.22082324, 0.10033091, 0.020406665, -0.11915597, 0.14669763, 0.17368881, 0.25655016, 0.09935517, 0.29991674, -0.24966045, -0.17849658, 0.23281875, 0.24319504, 0.102629945, 0.03808613, 0.13201265, 0.107065864, 0.23151834, -0.08019995, 0.09098002, 0.20625508, 0.11257986, 0.23712479, -0.09067795, 0.0074966396, -0.1037366, 0.11698549, -0.06942342, 0.19498976, -0.047218945, 0.095172286, -0.08291359, -0.038674682, -0.057386305, 0.072990045, 0.06036083, -0.039734647, 0.06073609, -0.009910398, -0.3538175}, 
{-0.11389225, 0.21940735, 0.0062254663, -0.021384807, -0.17705095, 0.10910889, 0.11933339, 0.28561023, -0.03316804, -0.050768234, 0.11198691, 0.14076804, 0.06514283, 0.12435957, 0.02281328, 0.08866074, -0.2159118, 0.19153878, 0.13543266, 0.19581214, -0.0035234538, 0.025583412, 0.16504216, -0.04544103, 0.24831493, 0.1339548, -0.060849555, 0.072272405, 0.19898076, 0.05295201, 0.19485149, 0.06538731, 0.10067247, -0.21062788, -0.21003479, -0.08730286, 0.24608345, 0.035590965, 0.055593986, 0.2710771, 0.29152924, 0.020356309, 0.08611192, -0.22202219, -0.037564576, 0.12007223, -0.025368141, 0.054602806, 0.073370196, -0.1934572, -0.010539012, 0.051585015, 0.031483006, 0.07510528, 0.23600449, 0.13240112, -0.1310379, 0.17019798, 0.05728096, 0.21382342, -0.053706326, 0.21481808, 0.07046243, -0.31773764}, 
{-0.045162674, 0.060274124, 0.06370805, 0.08860432, 0.06886558, 0.13565332, 0.08905008, 0.16575214, -0.037670776, -0.10410704, 0.07923366, 0.1557477, 0.17613578, 0.2820153, 0.16486482, 0.17076658, -0.07896533, 0.038496844, 0.11840489, 0.06460729, -0.011437917, -0.037003182, -0.17028315, -0.11666923, 0.066694, 0.122126475, 0.014254663, 0.006031108, 0.1766058, -0.06407844, 0.040635053, 0.08149608, 0.21246126, 0.056242883, -0.21516202, -0.33157203, 0.21374382, 0.09386964, 0.2579435, 0.14203049, -0.041939776, 0.081835434, -0.12019759, 0.023585329, -0.016206691, 0.018517274, -0.24347582, 0.14445177, 0.14370458, -0.08784907, 0.2770934, 0.06491867, 0.1355427, 0.029021474, 0.04294944, 0.13092789, -0.113759056, -0.04687302, 0.17165588, 0.20669705, 0.018919354, 0.16188687, -0.03863933, 0.2459471}, 
{0.022978567, 0.23679623, 0.13256846, -0.12040676, 0.058048986, -0.010208216, 0.05793989, 0.1977865, -0.033128683, -0.09353723, 0.24583893, 0.074534066, 0.06427089, 0.24080157, -0.014795256, 0.16624537, -0.2931307, -0.2634204, -0.16185287, 0.18216243, 0.08269545, 0.13155366, -0.1556908, 0.12115237, 0.015285182, 0.010455466, 0.039270096, 0.13848808, 0.034778845, 0.05281677, 0.12324405, 0.10607816, 0.023982119, 0.12120865, 0.15888603, -0.17301035, 0.00017602587, 0.07025218, 0.16848812, 0.14349572, -0.0012991186, -0.022546068, -0.06595395, 0.0796964, -0.10504653, 0.20939875, 0.0035002632, -0.16559143, 0.23356025, -0.12625259, 0.16811807, 0.11089635, 0.10668702, -0.08285013, 0.09819403, 0.25992003, -0.08127847, -0.008310791, -0.09856166, 0.16314484, 0.16388705, 0.15875289, -0.10795447, 0.21595098}, 
{0.008794588, -0.007064267, 0.0063440823, -0.10141846, 0.10672963, 0.084651046, 0.15285353, 0.07349789, 0.007370943, -0.068711415, 0.163534, 0.06136992, 0.083142936, 0.15931477, 0.10272223, 0.16345458, -0.27519852, -0.25555053, -0.14302213, 0.21228403, 0.1867639, -0.028313901, -0.13430612, -0.10029518, -0.1598302, 0.19571003, 0.025982423, 0.1640591, -0.11431817, -0.03274634, 0.1341483, 0.26246616, 0.03025446, 0.19595236, 0.083082676, 0.049498558, -0.030606348, -0.06172438, 0.30627757, -0.10968592, 0.1336962, -0.08608472, 0.04537956, -0.08005909, 0.082665436, 0.055356108, -0.08537432, -0.034675498, -0.0016565975, -0.002351407, 0.15258344, 0.06580565, 0.087540925, 0.051733673, 0.16284978, 0.1211741, 0.123754494, -0.22550082, -0.07165295, 0.15292162, 0.045759395, 0.05269579, -0.03891181, 0.18904327}, 
{-0.06788464, -0.060277514, -0.008308803, 0.11187492, -0.028729843, 0.010679764, -0.048699815, 0.06919029, -0.009480539, -0.1409456, 0.05211735, -0.010737035, -0.03955192, 0.051452093, -0.13532148, -0.09715605, -0.37826148, -0.36008954, -0.038612593, -0.053664822, -0.0044585923, 0.06092245, -0.37182042, -0.026949279, -0.21810882, 0.15161175, -0.12081486, 0.14655317, 0.066313386, 0.02285544, 0.02281636, -0.012583288, 0.11440483, 0.20699485, 0.1720344, 0.06762103, 0.0050670514, 0.014997484, 0.2890572, -0.11523524, 0.07728992, -0.14818726, -0.015184892, 0.102628835, -0.12725821, 0.18859628, -0.044443432, 0.044483673, 0.07554667, 0.027627308, 0.0985654, 0.17512167, -0.05457473, 0.06195861, -0.069990255, 0.10190755, 0.1460459, -0.053565446, -0.14266948, -0.04060001, -0.17470132, 0.171577, -0.103992335, -0.008881}, 
{0.09446815, -0.3070322, 0.12033806, 0.2577094, -0.180727, 0.14124933, -0.072981976, 0.27743453, 0.08722332, 0.14835198, 0.31695816, -0.012375724, -0.08511499, -0.13612683, -0.07990386, -0.25480834, -0.2159428, -0.14806673, -0.05662541, 0.032378353, 0.11788112, 0.016729843, -0.27434343, -0.021877492, 0.09033436, 0.020310612, -0.20852986, -0.13543117, 0.096642785, 0.31206048, 0.16150896, 0.25050688, 0.41070455, 0.111321606, 0.038546465, -0.42712244, -0.2062633, -0.113509744, 0.59204626, 0.05445668, 0.24009354, -0.06955644, 0.043907773, -0.049722467, 0.15170962, -0.016422179, 0.14904541, -0.14638768, -0.01782803, 0.13444273, -0.11582531, 0.013009055, 0.1684476, 0.17205086, -0.0718745, -0.040302277, 0.39524218, 0.24471165, 0.08730633, -0.123973906, -0.11512094, 0.009779221, -0.07602364, -0.24521437}, 
{0.11379546, 0.013149056, 0.15561564, 0.26550856, -0.0042294716, 0.09105571, -0.036852, 0.20109221, 0.08469369, 0.026005333, 0.18275747, 0.20413877, 0.05682436, -0.04480627, -0.21200992, -0.43281087, -0.19762439, -0.17664003, 0.17380281, -0.024568195, 0.12078458, 0.31159887, -0.03541974, 0.10606677, 0.28873834, -0.22137745, 0.07729653, -0.32574612, 0.1878491, 0.25318298, -0.0139378905, 0.017897354, 0.39655152, 0.095034145, 0.018376557, -0.23466222, -0.06817148, -0.10598872, 0.58635426, 0.13532457, 0.3536483, -0.055917513, 0.0868593, 0.12080006, 0.092021324, 0.2527429, 0.17965429, 0.09623648, -0.024263425, 0.15124576, -0.21807879, -0.096434064, 0.30362546, 0.18864603, -0.29073575, 0.03837683, 0.3130293, 0.27330726, -0.08795219, -0.23937082, 0.088974476, -0.1737966, 0.11784535, 0.0056863762}, 
{0.10040961, -0.26258835, 0.06359497, -0.37735742, -0.06894336, 0.20927787, 0.21436827, -0.21926525, 0.15718782, -0.21851882, 0.27207392, -0.53190863, -0.21087924, -0.2247351, 0.08131051, 0.35106856, 0.2504846, 0.27002078, -0.23429355, 0.30418098, -0.1299442, -0.27170706, -0.26333657, 0.054421894, 0.22854367, 0.24119152, 0.3039151, 0.14275356, 0.28432238, 0.40456307, -0.34919047, 0.40873808, 0.12797767, 0.18452244, -0.18216208, -0.06505455, 0.48815235, -0.34895727, -0.25276944, 0.096322745, -0.3737774, -0.04302942, 0.3000559, -0.17778552, -0.3877679, -0.28186256, 0.0060121007, 0.009332285, 0.15389721, 0.09709605, 0.042186536, 0.36008805, -0.42005762, 0.17925502, -0.07155057, -0.38856605, 0.25093234, -0.08830651, 0.18632883, -0.0037206074, 0.2860747, -0.28864792, -0.46010146, 0.2783774}, 
{0.1560419, -0.4597006, 0.16826122, -0.20624365, 0.16271278, 0.23532495, 0.06029288, -0.32859364, 0.008353714, -0.009806607, 0.2020883, -0.1319762, 0.08717319, -0.26233453, 0.37158594, 0.5313342, 0.30009747, 0.4350398, -0.022130726, 0.39058983, -0.23254164, -0.21867792, 0.025525127, 0.11002344, -0.16306451, 0.059680462, 0.21157381, -0.19166441, -0.104208104, 0.0038201953, -0.24847804, 0.05333778, 0.00065764616, 0.058292303, 0.053270735, 0.1224441, 0.04121272, -0.096420996, -0.24418004, -0.12162659, -0.057179525, 0.23962823, 0.16583852, -0.22278258, -0.40039232, -0.14469256, -0.021253712, 0.12522702, 0.22089994, -0.11389633, 0.051153746, 0.0002270722, -0.16262233, 0.03925592, -0.4999027, -0.10918717, 0.13244186, -0.13319346, 0.26797765, 0.35141635, 0.10510282, -0.2888677, -0.2579187, -0.05228077}, 
{0.21924196, -0.0869926, 0.045912124, -0.01236231, 0.060287755, 0.10617218, -0.18555342, -0.0971684, 0.062114693, 0.2468209, -0.052511945, -0.15075852, 0.1023753, -0.14244659, -0.0873981, 0.03751951, 0.33438522, 0.14838064, -0.12291943, -0.04311838, -0.07591955, 0.111167185, 0.1621649, -0.11208585, -0.028852794, 0.23656403, 0.008336129, -0.50230414, 0.054149058, 0.07790932, -0.099702, 0.054684468, -0.1502918, 0.13602309, -0.09042624, 0.033096455, 0.07607003, -0.34158945, -0.13546878, -0.41344646, 0.14727414, 0.12177809, 0.18285829, -0.30331957, -0.2374628, -0.27242216, 0.13390584, 0.089345574, -0.047711235, 0.057205625, -0.26285946, 0.180881, -0.20518495, 0.36400306, -0.1452842, 0.073490076, 0.17168301, -0.51876086, 0.05250473, 0.1236864, 0.006734693, 0.017005712, 0.028619274, 0.23693712}, 
{-0.059379306, 0.11332577, -0.14931686, -0.09783575, 0.071910135, 0.078495264, -0.03376308, -0.10457806, 0.10441271, 0.120106615, 0.079992115, -0.0059620854, 0.06883846, -0.06791255, -0.06869949, 0.08728419, 0.19904327, 0.1170048, -0.0022843548, 0.17541485, -0.043060005, 0.061556615, -0.18060228, 0.036772598, -0.033539683, -0.07270443, 0.046003446, -0.3557957, -0.019947652, 0.016997535, 0.008331444, 0.1904124, -0.10744334, 0.13115345, 0.08469699, -0.01900003, -0.16594943, -0.18073827, -0.27320716, 0.09861057, 0.0006723681, 0.19465123, 0.20630173, -0.17372333, 0.12097928, -0.11302739, -0.048451077, -0.056974996, 0.24148248, 0.1343201, -0.11507847, 0.13227344, 0.051827166, 0.047888275, 0.13139178, 0.017129395, 0.16900893, -0.30004787, 0.1548275, 0.049130715, 0.03582953, 0.05688503, 0.11799623, 0.08916677}, 
{0.020259451, 0.1530385, -0.0691976, 0.014560553, 0.034850404, 0.24571405, 0.041578818, 0.0802597, -0.15546866, -0.06484243, 0.032831337, 0.06780662, -0.061314106, -0.32209712, 0.071311265, 0.11714728, 0.38122362, 0.17147072, 0.006369983, 0.2702543, 0.006807501, 0.06850147, -0.03472965, 0.0837874, 0.014802726, 0.12657164, 0.07842012, -0.3442666, -0.105550416, -0.011582243, -0.1022538, 0.10095984, 0.16636093, 0.27169353, 0.14558911, -0.16893166, 0.15468463, 0.0119217485, -0.05607957, 0.11089923, 0.028084302, 0.0730479, 0.1272813, -0.04947476, 0.022565726, -0.067346506, -0.24850833, 0.0043843044, 0.14497027, 0.30044684, -0.2069114, 0.044744466, 0.031720433, -0.028697142, 0.03927955, 0.023654457, 0.23183995, -0.24875437, 0.04358145, 0.16717929, 0.18847331, -0.022313448, 0.2641797, 0.17974834}, 
{0.09709845, 0.0092598675, 0.054100934, 0.10335683, 0.16772503, 0.05746932, 0.07011875, -0.074173875, -0.13145845, -0.07558328, -0.030445378, 0.119566835, 0.0988216, -0.32678062, -0.038456257, 0.04729248, 0.31043872, 0.12561005, -0.047241915, -0.005959234, 0.07162331, 0.13558784, -0.06224971, -0.13638511, -0.014863449, -0.039890062, 0.016229084, 0.100381665, -0.06632093, -0.051646918, -0.107182026, 0.005991452, 0.15001522, 0.11192241, -0.052281428, -0.21168014, 0.23194818, 0.08985477, -0.07644497, 0.2353743, -0.012262091, 0.17623277, 0.072021455, 0.14658299, 0.10266052, 0.19136505, 0.056774702, -0.20694342, 0.101725966, 0.16244122, -0.008768973, 0.0076493397, -0.058497347, 0.009054647, 0.07728248, 0.1283211, 0.12235796, -0.15505104, -0.13188054, 0.09195955, 0.3061318, 0.18770036, 0.22272871, 0.076468006}, 
{0.089465976, 0.1315078, 0.23551725, 0.013643074, 0.108077265, 0.07893081, -0.16985564, -0.026497012, -0.12486399, -0.26570284, 0.11431115, 0.119199626, 0.23712572, -0.053685095, 0.16797204, -0.04626726, 0.090235576, 0.17523913, 0.0032552537, 0.23396309, 0.09207413, -0.010896722, 0.0154919885, 0.07642072, 0.13569956, 0.021697707, 0.10178472, -0.035588097, -0.12004345, -0.024981728, 0.17603566, 0.031716898, -0.025248554, 0.10678243, 0.056245644, 0.23907137, 0.23011792, 0.056642808, -0.06851623, -0.042130154, -0.054616682, 0.15822965, -0.04961, 0.21587595, 0.051406316, 0.19086659, 0.1592372, -0.11861683, 0.00036178945, -0.14232077, -0.12402231, 0.16470993, 0.10472239, 0.14484322, 0.12700893, -0.04192347, 0.20319295, 0.1569778, -0.030260574, -0.17070542, 0.27572528, 0.004597768, 0.13146318, 0.028423287}, 
{0.07279945, 0.14658973, 0.2055675, -0.051529214, -0.14353654, 0.20265679, -0.29971677, 0.22019735, 0.007667841, -0.17134474, 0.12388542, 0.1720691, 0.09553601, 0.12947132, 0.16495596, 0.11711027, -0.34301674, 0.23976506, 0.22165279, 0.1576464, 0.017222896, -0.09716469, 0.17251422, -0.06741547, 0.07268674, 0.18382001, 0.018603427, -0.05986346, -0.004361731, 0.14143084, 0.054874018, -0.15355982, 0.23701945, -0.06704877, -0.14535171, 0.3125726, 0.15481141, 0.20966995, 0.024282133, 0.0009816292, 0.051743623, 0.13291408, -0.10461762, -0.046626724, -0.011392171, 0.021303082, 0.15888076, 0.15956874, 0.16664085, -0.30828318, -0.2062447, 0.13944711, 0.15219854, -0.060751766, 0.34630775, 0.16865686, -0.012782359, 0.01809911, 0.08658148, -0.046097413, 0.116977766, -0.051125783, -0.114487395, -0.17592688}, 
{0.07857948, 0.018744744, -0.05758307, -0.1527763, 0.012642544, 0.31076962, 0.15023087, 0.19658393, -0.06835447, -0.22424036, 0.1936407, 0.16280134, 0.12308437, 0.18334945, 0.028012393, 0.19497624, -0.24272716, 0.13528594, 0.031057741, 0.098608695, -0.13575058, 0.013583847, 0.30055743, -0.078838475, -0.025022103, -0.05179247, 0.09931655, -0.085303225, 0.160617, 0.004275712, 0.046590023, -0.17135985, 0.32134682, -0.12225457, -0.05974681, -0.11636185, 0.28312537, 0.19786535, 0.15634784, 0.3553833, 0.031853344, 0.17573608, -0.12507151, -0.22894876, 0.22352321, 0.052995972, -0.03505935, 0.03210466, 2.4044384e-06, -0.10520961, 0.17649393, -0.030900108, 0.047454998, -0.24048296, 0.2763972, 0.25140533, -0.12167405, -0.06477671, 0.2597578, -0.054304156, 0.2135733, 0.06591082, -0.056601, -0.08849875}, 
{-0.10763071, -0.046984747, -0.035838667, -0.029560348, 0.1466176, 0.11876618, 0.0657964, 0.107566394, -0.043617412, -0.013695879, 0.17187895, 0.062378973, 0.1097469, 0.05321484, 0.105313, 0.25536638, 0.04599829, 0.13445069, 0.080964014, 0.1310228, -0.016258562, 0.1309851, -0.13075706, 0.095585234, -0.109182395, 0.089895844, 0.0031939826, -0.14439173, -0.003898278, -0.071459845, 0.0028994197, 0.013079995, 0.12160917, 0.024815446, 0.0066116503, -0.15059099, 0.05143646, -0.006793964, 0.29953402, 0.31359056, -0.09004515, 0.17541617, 0.0054280586, -0.010557271, 0.026987128, 0.06684633, -0.25596634, 0.18555345, 0.06940936, -0.18310732, 0.28241923, -0.03320862, -0.02909995, -0.046030555, 0.17518175, 0.2894232, 0.07657963, -0.19064543, 0.16582185, 0.21407299, 0.04980323, 0.29009518, -0.09861031, 0.33801422}, 
{-0.011272441, -0.12770557, 0.0675001, 0.044766482, 0.083170444, 0.062028494, 0.16915898, -0.1689666, -0.18632975, -0.09134611, -0.02950693, 0.1878246, 0.25494802, 0.024403345, 0.1712315, 0.09041046, 0.014510273, 0.029803095, 0.10911875, 0.20881554, -0.07717907, -0.120247304, -0.32065448, 0.090227745, -0.121263586, 0.0958004, -0.024144141, 0.056354187, -0.06409748, -0.07427877, -0.13004787, 0.14828297, 0.11683532, -0.003990715, 0.086816795, 0.072124116, 0.110372245, 0.063351646, 0.38478455, -0.06897656, 0.07805797, 0.10030237, -0.006231883, 0.22839966, -0.042959895, 0.25508502, -0.09481863, 0.11819817, 0.2289977, -0.056494176, 0.33319503, -0.02267483, -0.049292922, -0.080911, 0.20933591, 0.18435694, 0.14990252, -0.035912782, -0.12873977, 0.020723606, -0.12738861, 0.20595239, -0.08211762, 0.24470945}, 
{0.07458779, -0.20381407, 0.0058798967, 0.06507736, 0.046601806, 0.0116359815, 0.014711462, -0.029252147, -0.18466802, -0.08439959, 0.09800483, 0.107844695, 0.060273226, -0.007123608, 0.062029026, 0.08916052, 0.051714532, -0.295077, -0.19227968, 0.044744827, 0.14266361, 0.026816173, -0.09588674, -0.024055716, -0.13278642, -0.058375634, 0.13422985, 0.103413016, -0.089976735, -0.16741882, 0.016380193, 0.04451278, -0.022129465, 0.24383253, 0.13501638, 0.08076151, -0.09423472, -0.18055274, 0.29369065, 0.115055874, 0.22405887, 0.0006437275, 0.026753616, 0.06773316, -0.06207625, 0.004178348, 0.2070513, -0.095236346, -0.027907914, -0.0021659862, 0.25689524, -0.06342732, 0.213615, -0.15220365, 0.09848513, 0.14994422, 0.048691586, -0.116562895, -0.086946964, 0.24605247, 0.07900803, 0.097532034, -0.015837178, -0.099909745}, 
{-0.18950349, -0.27861986, -0.00839886, -0.06360398, -0.04796629, 0.110224545, 0.17099921, -0.12587723, -0.06313899, -0.010692747, 0.15598801, 0.07865634, 0.06610932, -0.06858895, -0.029921196, 0.054049965, 0.28625906, -0.4257859, -0.26639792, 0.065100215, 0.09402688, -0.028483788, -0.3022623, 0.10240523, -0.03740278, 0.027913846, 0.10780923, -0.073936835, -0.21577935, 0.03821411, -0.031626895, 0.10357216, 0.13639614, 0.16263625, 0.20804967, 0.041310824, 0.050724216, -0.075063385, 0.18014272, 0.10781381, 0.14101267, -0.14142098, 0.024738757, -0.0028783018, -0.18736075, 0.15215458, 0.24456936, -0.21328601, -0.015409939, 0.15995646, 0.19183415, 0.0064719976, 0.032211967, -0.31546417, 0.18138957, 0.03852324, 0.13512354, -0.24185924, -0.17686592, 0.064455666, 0.13384196, 0.22303915, -0.024850735, -0.28282148}, 
{-0.10354028, -0.22730476, -0.11975076, 0.31127152, 0.3338779, 0.059205394, -0.13565788, 0.25207326, 0.0070149116, -0.11209049, 0.3066108, 0.2128351, 0.28677982, -0.1252985, 0.070746794, -0.21802306, 0.16950014, -0.18801306, -0.054642886, -0.034964196, 0.0103669595, 0.124480546, -0.5821841, -0.053628553, -0.037970506, -0.15081249, -0.22028929, -0.4953588, -0.112153165, -0.15241987, 0.102062, -0.028899664, 0.29992154, 0.09522829, 0.30020759, -0.1728424, -0.23204902, -0.18584913, 0.3043169, 0.22273594, 0.3225187, -0.067237996, 0.24832585, 0.005709695, 0.035719823, 0.3011741, 0.39410236, -0.1476408, -0.034678604, 0.34454623, -0.22578028, -0.15885423, 0.26084414, -0.22407332, 0.06406743, 0.31945336, -0.1032575, 0.09304984, -0.12710786, -0.008234581, 0.08412485, 0.079673514, 0.4049399, -0.24707521}, 
{-0.030803982, -0.32233527, 0.013695554, -0.079963945, -0.014158389, 0.23657279, -0.32867026, -0.011815559, -0.2646285, -0.06300424, 0.3235943, 0.26892757, 0.40193957, -0.43515578, -0.14597161, -0.49674207, 0.12700629, -0.17688392, 0.13322699, 0.12954898, -0.112410046, 0.15627289, -0.44836247, -0.009230212, 0.15055673, -0.092531085, -0.06930432, -0.42387027, 0.18885122, 0.19022274, -0.1572709, 0.39309722, 0.4238586, -0.014292882, 0.08963369, -0.22590432, 0.3811781, -0.12959567, 0.37879205, -0.022821227, 0.34930924, -0.00018965673, 0.15523785, -0.008088529, -0.21500579, 0.24232349, 0.30558246, -0.15981394, 0.076152325, 0.33785877, -0.69016886, 0.12838428, 0.37714112, -0.16108863, -0.40149325, -0.058222212, 0.068867214, 0.10909874, -0.04431619, -0.064854085, 0.040707868, -0.013367072, 0.016544085, -0.2885321}, 
{0.01159902, -0.537138, -0.13908772, -0.4717204, -0.3889059, 0.52145165, 0.04261975, -0.047709346, 0.25765243, 0.26029167, 0.3139544, -0.60521346, -0.030478735, -0.41925952, 0.2615048, 0.16473013, 0.514252, 0.4011808, -0.6708159, 0.12646264, -0.42104957, -0.32180035, -0.2921083, -0.11009341, 0.48858935, 0.42092556, 0.40036854, 0.3995215, 0.31749573, 0.6652316, -0.54222023, 0.28543994, 0.33962852, 0.004666459, -0.19343986, -0.17578918, 0.66983986, -0.24633585, -0.063732065, 0.29941568, -0.5227228, 0.07983443, 0.26746175, -0.38452026, -0.4561172, -0.5476934, -0.011566195, -0.22905673, 0.27946168, -0.11983893, -0.27216122, 0.50466216, -0.513929, 0.13340928, -0.23241596, -0.5403207, 0.27694714, -0.20683053, -0.10232528, 0.36891356, 0.4549356, -0.53127855, -0.5335076, 0.022113292}, 
{-0.110617995, -0.30313605, 0.19308884, -0.2571498, -0.0129792355, 0.15244812, -0.21011508, -0.21160896, -0.00082435564, 0.14097738, 0.17960605, -0.16140689, 0.00017083547, -0.08039121, 0.37362382, 0.40993202, -0.033051774, 0.30307537, -0.047201198, 0.43786997, -0.39862233, -0.3265258, 0.08442587, 0.06809923, -0.018918494, 0.29960915, 0.05998527, -0.12688167, -0.022770962, -0.2918131, -0.4318028, 0.010595531, -0.07436613, 0.07765859, -0.062603384, -0.0811415, 0.16778417, 0.03349733, -0.60248715, -0.256026, -0.18022667, 0.2936042, 0.15707989, -0.30145597, -0.13329951, -0.3379483, -0.008787728, -0.08151763, 0.30531794, 0.055152312, -0.0105704665, -0.02492354, -0.1709652, 0.12918594, -0.46791208, 0.13674939, -0.034564063, -0.34209603, 0.30815056, 0.30910322, 0.2028311, -0.14750409, 0.028670918, 0.00969294}, 
{-0.124740824, 0.010030009, -0.09791822, -0.014082031, 0.25100213, 0.21637578, -0.10457898, -0.012960631, -0.006710714, 0.3296236, 0.19428743, -0.102536, -0.08250793, -0.10902757, 0.18289396, -0.057819255, 0.10156299, 0.068285726, -0.068206936, 0.18581258, -0.15990692, 0.022163754, -0.053492516, -0.055952493, -0.13419826, 0.10765622, 0.032136858, -0.039651975, -0.08777992, 0.007893433, -0.014613628, 0.28916997, -0.09329364, 0.20652236, -0.061231002, 0.0043597636, -0.029353669, -0.4032049, -0.22551532, -0.09223064, 0.08440344, -0.010601111, 0.1565727, 0.14486831, -0.23640776, -0.31215414, -0.3492366, 0.071442515, 0.19788748, 0.2987995, -0.24284361, -0.010912696, 0.1453772, 0.08167354, 0.072576575, -0.008429295, 0.098032646, -0.16227491, 0.08119072, 0.051620916, 0.079179354, -0.1571681, 0.05665662, -0.064321175}, 
{-0.20114818, -0.03582467, -0.08712561, -0.021724476, -0.108410716, -0.0033391027, 0.005623225, 0.02382803, -0.061448228, -0.29867905, 0.06915795, 0.05144826, 0.059403248, -0.27754897, -0.0037553979, -0.025759025, 0.29747507, 0.19465764, -0.00540013, 0.2760458, -0.28366628, 0.12249108, 0.047074128, 0.04160014, -0.040300306, 0.014306751, 0.028231984, -0.035197634, 0.03769754, -0.1753223, -0.22649238, 0.04555128, 0.23051205, -0.025288971, -0.037169002, 0.11654577, -0.20775035, -0.105199955, -0.26113364, 0.15731326, -0.058070056, 0.037952427, 0.21822318, -0.22783343, -0.1402917, 0.033761546, 0.027310746, 0.03042373, 0.055129714, 0.05842383, -0.03241803, 0.03774822, 0.21213715, -0.10597751, -0.10878322, -0.038926426, -0.016410481, 0.007139419, 0.01826527, 0.02999412, 0.30021104, 0.026792714, 0.13560767, 0.057337802}, 
{-0.20165627, -0.06192334, -0.095371135, 0.0580355, -0.065723196, 0.12509081, 0.035058957, 0.07848805, -0.085795045, -0.17311244, 0.045171484, 0.116993845, 0.06206568, -0.20086513, -0.014641285, 0.11330086, 0.20796075, 0.06009088, 0.033788905, 0.09478901, 0.1384986, 0.10330675, -0.22866, 0.01835778, -0.000706704, -0.073218055, 0.0144669805, 0.15380867, 0.1542916, -0.3134789, -0.27928093, 0.059756123, -0.15084942, 0.15803626, 0.092999846, -0.07615335, 0.12615092, 0.030271089, -0.058555964, 0.123940326, 0.15368003, 0.046060335, 0.010139489, -0.074423194, 0.17669998, 0.14501345, -0.21846342, 0.028907932, 0.18935432, 0.20530012, 0.081185415, 0.10692513, 0.1645166, -0.15119995, -0.06777015, -0.059714727, 0.022068374, -0.19055323, -0.107656084, -0.16227846, 0.19496055, -0.0036143647, 0.35099292, 0.19414838}, 
{-0.019575799, -0.021930527, -0.06762487, -0.027634095, 0.16648543, 0.1291681, 0.009671206, 0.006340366, -0.15117772, -0.27295408, 0.021286448, 0.09400002, -0.13259527, -0.0097545795, 0.062190663, 0.051387735, 0.20856376, 0.21773855, -0.0754184, 0.129022, 0.028247332, -0.0033016608, -0.20106162, 0.06801475, 0.029216101, -0.04304146, -0.0516621, 0.23612213, -0.046488434, -0.43233913, -0.09758832, 0.0068601975, 0.027366517, 0.12726356, 0.11956356, -0.27986434, -0.1293638, 0.035047844, 0.06814733, 0.030894466, -0.06694924, 0.047493022, 0.12528034, 0.08220985, -0.013027095, 0.19253194, 0.014985497, 0.048583195, 0.20246476, 0.31348625, -0.12094425, 0.1050424, 0.15204573, -0.11075523, 0.013517435, 0.1990613, 0.23896313, -0.021109361, -0.16704305, -0.18136258, 0.13250932, 0.106516786, 0.3275967, 0.101380065}, 
{0.20783976, 0.030406125, 0.11824693, 0.14260802, 0.12131155, 0.15825269, -0.19782586, -0.06569176, -0.09856218, -0.033959046, 0.20221466, 0.13979876, -0.0021963897, 0.12772664, 0.13965262, 0.05573803, 0.027316364, 0.019730896, -0.03113462, 0.231271, 0.21102376, 0.044807415, 0.043653227, 0.09204091, 0.095747456, 0.047034703, 0.016118806, 0.10864337, -0.21713941, -0.42115057, -0.06678485, 0.045096036, 0.12891543, 0.19752425, 0.25618428, 0.011088537, -0.35680637, 0.054283317, 0.037539523, -0.11058934, 0.16358215, 0.014166521, 0.026328217, 0.31486127, 0.13556044, 0.19304036, 0.16181763, 0.124595664, 0.22795996, -0.19577888, -0.1617495, -0.044725884, 0.17871636, -0.069474764, 0.11919449, 0.22548912, 0.122276634, 0.1679102, -0.15796015, -0.123751774, 0.30134428, -0.068840005, -0.17325933, -0.016297083}, 
{-0.13590302, -0.45080072, 0.01382293, -0.093256354, -0.35743812, -0.021786837, -0.16832075, -0.0122169545, 0.18763047, 0.22537105, 0.17905548, -0.2528345, -0.017721305, 0.18181008, 0.24366817, 0.11150556, 0.11032701, 0.27736306, 0.15356398, 0.08332007, 0.17348121, -0.086823754, 0.1949994, -0.037808258, -0.024974464, 0.2366314, 0.14727025, -0.0842184, -0.009666675, -0.286331, 0.21818121, -0.16990979, -0.15712129, -0.22124861, -0.04969283, 0.40428522, -0.5611352, 0.034361172, -0.22010988, 0.045324337, -0.2926624, 0.20349057, 0.23259096, 0.04657703, -0.03000223, 0.15061283, 0.24377517, 0.03867043, 0.30755875, -0.27968144, -0.20034817, -0.029030712, -0.05587645, -0.06836245, 0.028715905, 0.266383, 0.17319593, -0.008588682, 0.2837991, -0.23322663, 0.3281287, -0.1874179, -0.26585054, -0.34450132}, 
{0.004774784, -0.3517755, 0.01976576, -0.09652073, -0.20375493, -0.07313989, 0.21001649, 0.11369813, 0.017147487, 0.16785555, 0.15085478, -0.27893907, -0.0053377417, -0.06150444, -0.004345931, 0.18626507, 0.21067138, 0.2089464, -0.08304743, -0.18129088, 0.06347345, -0.26904434, 0.065426484, 0.066066794, -0.05781009, 0.19200258, 0.19410147, -0.17800774, 0.11975546, -0.02335267, 0.09461307, -0.24068809, 0.011206389, -0.13371764, 0.14501663, -0.042129025, -0.21171974, 0.13337368, -0.51276743, 0.22984907, -0.0852449, 0.16216002, 0.0738786, -0.31299695, -0.24992386, -0.16814442, -0.08402089, 0.18744454, 0.19237466, -0.056816656, 0.008624607, 0.19766937, 0.008183406, -0.15200196, -0.163974, 0.009291039, 0.14042422, -0.24993086, 0.20168227, -0.22257814, 0.08363905, 0.019157352, 0.013437331, 0.23359624}, 
{0.17223719, -0.22911733, 0.18290268, -0.07535694, 0.016047923, 0.19869596, 0.13150972, -0.26198584, -0.12664858, 0.09723416, 0.04292443, 0.010559968, 0.0884261, -0.1242542, -0.011311518, 0.089420184, 0.12656845, 0.2094236, -0.04181769, -0.0232833, -0.17138332, 0.092192344, -0.04463923, -0.15529709, -0.1772851, 0.21116929, 0.16111521, -0.043131366, -0.1188311, -0.11630984, -0.05408707, 0.10629601, -0.116888896, 0.08173949, 0.11657694, 0.23604937, 0.10803491, 0.09177606, -0.6437793, -0.0042825206, 0.08739086, 0.124357864, -0.079861574, 0.099269524, -0.020561637, -0.19965988, -0.14588337, 0.11906976, -0.050214645, 0.14189531, 0.20714992, -0.024647795, 0.064982414, 0.10577872, -0.007795178, 0.030550834, 0.19167204, -0.3131648, -0.016515141, 0.012396912, -0.18522933, 0.022451812, 0.055210393, 0.2073663}, 
{0.15982741, -0.13737081, 0.14833176, 0.06800648, 0.022927212, 0.025525933, 0.15855716, -0.17453304, -0.039065674, -0.017759593, 0.030732762, -0.014738831, 0.27659243, -0.08263566, -0.112101704, 0.21910855, 0.2467274, -0.052094195, 0.16854972, 0.2105559, -0.10464528, 0.019278266, -0.22191913, -0.07540801, 0.0052704853, 0.2167696, -0.013672225, 0.13896786, 0.0657819, -0.07573, 0.005836332, 0.24328871, 0.059037443, -0.023920331, 0.001073499, 0.2862615, -0.021545535, 0.009294857, -0.62128025, -0.29053193, -0.024597287, 0.1449555, 0.13364612, -0.018885985, -0.13515177, -0.07411969, -0.14349787, 0.13034235, 0.06691509, 0.107112646, 0.22732234, 0.048694704, 0.0498925, 0.08173175, 0.09951782, 0.18304496, 0.049015887, -0.21885985, 0.14704713, 0.068444505, -0.16921501, 0.10077958, -0.038143158, -0.13382804}, 
{-0.031682782, -0.06357635, 0.079315126, -0.15939671, 0.16616245, 0.012330439, 0.070746556, -0.2796746, -0.013040486, -0.0439002, 0.17735836, -0.040342733, 0.13120867, 0.043533187, 0.08006446, 0.14190485, 0.3639635, 0.024553146, -0.0072077136, -0.017892567, -0.06922221, -0.03671395, -0.17310028, -0.024918776, -0.15538819, -0.01808552, 0.2004752, 0.07538481, -0.1529817, -0.019713584, 0.072670154, 0.091617905, 0.044780515, 0.17966926, 0.14483032, 0.116403036, -0.15724675, -0.011438708, -0.36022297, -0.17763174, 0.11503448, 0.048310395, 0.23999923, 0.11699035, -0.1074414, 0.090585686, -0.027140673, -0.010581321, -0.11035143, 0.24615093, 0.2859899, 0.009870238, 0.11321593, 0.007679694, 0.11951824, 0.042962547, -0.011471796, -0.027865954, 0.09771545, 0.15261102, 0.013890029, 0.0013721401, 0.024794387, -0.17820781}, 
{-0.2629136, -0.06825615, 0.16755472, 0.006375027, 0.0516915, -0.06111009, -0.053831317, -0.14617695, -0.0444811, 0.12825258, -0.027902326, 0.15778159, 0.18216406, 0.2968867, -0.05529097, 0.0887959, 0.22152326, -0.35922503, -0.29369983, 0.13542123, 0.096878015, -0.043546103, -0.47108722, 0.024971958, -0.19915515, 0.072619654, 0.15210778, 0.09696528, -0.31977162, 0.2485199, 0.26850328, 0.083813295, -0.08126021, -0.18837309, 0.13752735, 0.20793222, 0.13666461, -0.05562922, -0.58603203, -0.22982658, 0.10660373, 0.07922013, -0.04186591, -0.09557659, -0.023784421, 0.13976142, 0.03285797, -0.27327862, 0.07548862, 0.29005393, 0.2540967, 0.048110947, 0.14465262, -0.20523655, -0.04814725, 0.22891533, -0.07903712, -0.16183876, -0.047130387, 0.2100143, 0.29978108, 0.09830276, -0.07038374, -0.13631661}, 
{-0.3021855, -0.1576517, -0.090782866, 0.0630264, 0.30346787, -0.10769183, 0.04295566, -0.19459817, -0.08337535, -0.012054813, 0.092296444, 0.33596063, 0.19916788, 0.25005814, 0.019392697, -0.25791502, 0.3881379, -0.32105997, -0.16700959, -0.03831617, 0.29561153, 0.15436, -0.5190873, -0.1132054, -0.2882497, -0.25734478, -0.28701216, -0.56994283, -0.1265509, 0.028255079, 0.33178753, -0.07136883, -0.093309656, -0.15582748, 0.2955202, 0.15529267, 0.0044346717, 0.27573434, -0.359648, 0.2258508, 0.21969698, 0.15698358, 0.07820582, 0.17765626, -0.048859347, 0.13188295, 0.24614751, -0.17122535, 0.1875698, 0.28318712, -0.097883984, 0.18097061, 0.42171785, -0.5409054, 0.14661627, 0.17399882, -0.31077346, -0.038296465, -0.20904121, -0.232824, 0.23939367, 0.22442938, 0.29507184, -0.17697997}, 
{-0.13903153, -0.34123906, -0.16955462, -0.22815067, -0.21579722, 0.29678404, -0.11366597, -0.130279, -0.21819726, -0.023137676, 0.46581292, 0.1058543, 0.3490697, -0.24000984, 0.06756578, -0.42403778, 0.24304593, -0.5263506, -0.28136957, 0.32948604, 0.3111751, 0.041249763, -0.61733997, -0.09834102, -0.18517475, 0.02620434, -0.12133422, -0.2716484, -0.039241873, 0.2923021, -0.07741617, 0.15828875, 0.1273881, -0.12932338, 0.49188867, 0.09776812, 0.5137205, 0.06496198, 0.23931316, 0.3334559, -0.019833477, 0.15325072, 0.002807614, 0.40274155, -0.13260715, 0.22347572, 0.5079134, -0.33694887, 0.47223854, 0.34901273, -0.9014329, 0.0881017, 0.38463342, -0.39106628, -0.10330332, 0.1686845, -0.09213191, -0.308126, 0.015726896, -0.24909237, 0.15406716, -0.3026371, -0.011000784, -0.09284252}, 
{-0.088332444, -0.26818562, -0.22746466, -0.5269321, -0.3021155, 0.19630954, 0.07170578, -0.18422887, 0.13843694, -0.06411382, 0.32035244, -0.49969286, 0.016690116, -0.2995553, -0.037939224, 0.03973603, 0.46800122, 0.2171146, -0.54797757, 0.2021193, -0.4102087, -0.25918067, -0.2828753, -0.060218967, 0.2479336, 0.18029127, 0.45103505, 0.30524322, 0.31495672, 0.23635617, -0.22839318, 0.23065074, 0.13135949, 0.26821798, -0.1970481, 0.21265505, 0.6012527, -0.17507043, -0.3767647, 0.48157677, -0.27462557, -0.14436066, 0.1573013, -0.23141748, -0.39232683, -0.36911795, 0.2237728, -0.04064842, 0.13243538, -0.08800842, -0.253739, 0.44119173, -0.30110735, 0.28597733, 0.03740125, -0.25277913, 0.2322484, -0.23968142, -0.031826988, 0.022571744, 0.11323917, -0.32278857, -0.44496757, 0.27788842}, 
{0.1319251, -0.28029856, -0.049111653, -0.2706008, 0.054114357, -0.032693766, -0.065439664, -0.22792506, -0.14555117, -0.024059383, 0.2572437, -0.35581845, -0.14211936, -0.22494254, 0.17364426, 0.45290855, 0.16955383, 0.26281303, -0.14848839, 0.14251284, -0.18914077, -0.2900051, -0.099253654, -0.115408845, -0.2716228, -0.028007623, 0.21760824, -0.059876587, -0.19534808, -0.25502467, -0.19604072, 0.16560167, -0.12918395, -0.018024813, 0.19260456, -0.2332966, -0.24093962, 0.057427652, -0.55715656, 0.091696076, -0.060010057, 0.24745448, 0.3154003, -0.19567093, -0.060226977, 0.111690536, -0.23819314, -0.10350084, 0.2677717, 0.3567277, -0.23285669, 0.097254656, -0.07579018, -0.09243114, -0.41223595, 0.13939357, 0.20425156, -0.33553487, 0.2665546, 0.06631745, 0.3979729, 0.03229025, -0.24766801, 0.25811446}, 
{-0.30530414, 0.13782181, 0.16106504, -0.23177868, -0.023043463, -0.19374561, -0.26349068, 0.023675583, -0.22245796, -0.06630033, 0.17697607, 0.13159008, -0.029745346, -0.2515387, 0.033219624, 0.11052982, 0.15385348, 0.29119152, -0.119075246, 0.2856765, -0.24265745, 0.006686587, -0.23924454, 0.022973167, 0.10927028, 0.043728333, 0.028409507, 0.08320987, -0.3648979, -0.46145487, -0.37769383, 0.17184702, 0.29814023, 0.06345968, 0.03720866, -0.12660612, -0.40262336, -0.26329988, -0.13703659, 0.15045692, 0.13090593, -0.044973634, 0.29854023, 0.09944658, -0.032137815, 0.042077024, -0.27047622, -0.14628305, 0.21552795, 0.065141365, -0.25729042, -0.08761995, 0.35987875, 0.038321637, -0.05583452, 0.11586425, 0.18138637, 0.079454154, 0.043116838, -0.16359743, 0.29457474, -0.21322598, 0.16040893, -0.015438375}, 
{-0.25025496, 0.17180409, 0.18458919, 0.14655194, 0.10384878, -0.26813525, 0.056538343, -0.013694624, -0.08827742, -0.25101754, 0.1976449, 0.0333664, -0.061582062, 0.07270032, 0.15050036, 0.023203483, 0.014170113, 0.08153064, -0.07041831, 0.111274935, -0.23756827, 0.023394488, -0.16761568, 0.040281896, 0.080692306, 0.007824678, -0.19830664, 0.22715181, 0.008325006, -0.27089822, -0.23216903, 0.057666074, 0.064787015, 0.026516665, -0.29641166, -0.015941946, -0.21573031, 0.09746295, -0.077927195, 0.067772165, 0.02567073, 0.06488705, 0.09146312, 0.054753896, 0.11515818, 0.08171726, 0.041418552, -0.12160684, -0.027359068, 0.20545655, -0.05526722, -0.06144883, 0.2399105, -0.14219436, 0.09610071, 0.1302263, 0.1328305, 0.06540081, 0.0913267, -0.10411735, 0.22832362, 0.054311205, 0.28408703, 0.05973487}, 
{0.08791113, -0.07947787, 0.18092248, 0.09864801, 0.06436049, -0.1287151, -0.0045347787, 0.022363715, -0.21893644, -0.18424888, 0.22364096, 0.049619317, -0.028049389, -0.1456326, 0.06566663, 0.031326897, 0.18844554, 0.01226671, 0.031671327, -0.00834317, 0.12647447, 0.13736303, 0.00096453197, -0.041277267, 0.10178321, -0.24276675, 0.009220164, 0.008175324, 0.040421467, -0.48987335, 0.034528412, -0.11824936, 0.012684971, -0.018896341, -0.17484213, -0.1913337, -0.40233254, 0.082284026, -0.10009624, 0.15881826, 0.08112119, 0.049654305, 0.31501535, 0.024156975, -0.1179532, -0.02726304, -0.22887887, 0.012646107, -0.017497621, 0.26762077, 0.061322767, -0.036976635, 0.1304718, -0.24864402, 0.04142805, 0.0888046, 0.05154706, -0.0087582925, -0.053805698, -0.19643393, -0.01240061, 0.12673551, 0.40060303, -0.034037888}, 
{0.14717914, -0.06809614, 0.11500873, 0.12538905, 0.15403463, -0.21738166, -0.12319081, 0.018644556, -0.05231047, -0.035897564, -0.030777434, 0.20509167, 0.0070404974, 0.104029655, 0.016771417, 0.0937525, 0.29686627, -0.035454694, 0.017050434, -0.11199173, -0.079779126, 0.15470563, 0.119923964, -0.13835746, 0.033078417, 0.0306528, 0.12673801, -0.1722506, -0.10176297, -0.3639349, 0.10121423, -0.10718176, -0.1032743, 0.016741673, 0.064909115, -0.13527337, -0.7354266, -0.012848194, -0.066087976, -0.1638991, 0.018243082, 0.043714244, 0.051544335, 0.2877113, -0.027988017, -0.041670978, 0.0064782994, 0.06076606, 0.11408887, 0.4013758, 0.07020701, -0.14968535, 0.15827014, -0.21370223, -0.03221364, 0.1036449, 0.33294448, 0.020913547, 0.0124482, 0.0037348396, 0.045329753, -0.0045685326, -0.009174443, 0.018238591}, 
{-0.049196992, -0.25277346, 0.032396045, 0.16481826, 0.07677207, -0.11816752, -0.2681357, 0.1739386, 0.15672189, 0.15596762, -0.021864446, -0.05192737, 0.11333972, 0.08151235, 0.14568323, -0.09374301, 0.04311184, 0.04045939, -0.10005698, 0.011978077, 0.06891752, 0.16947708, 0.06398964, 0.017440721, -0.013099512, 0.03241474, 0.14513145, -0.12711698, 0.0045697577, -0.045066755, 0.15572536, -0.062410083, 0.04935132, 0.18339355, 0.2194381, 0.014835049, -0.62031734, -0.08042613, -0.12575845, -0.13489485, 0.11582034, 0.08259129, 0.0569899, 0.34437612, -0.05699913, -0.095096365, 0.24068622, 0.26009825, -0.037537258, 0.37505516, -0.079044744, -0.08804894, 0.24494277, 0.07782136, 0.057473484, -0.005184182, 0.22176324, 0.034534633, 0.1639813, -9.393855e-05, -0.050967444, -0.025908882, -0.39297634, -0.14715494}, 
{-0.17239584, -0.35166013, 0.16203731, -0.13299786, -0.2898678, -0.032876235, 0.10827747, 0.24864814, 0.17185974, 0.118621714, 0.16924097, 0.20293191, -0.0720049, 0.20121574, 0.36270833, -0.112892345, 0.1570141, -0.13504049, 0.17069562, -0.10907073, 0.33348256, -0.15357569, 0.27044252, -0.09265841, 0.038230874, 0.052128382, -0.073443554, -0.14614157, 0.19483756, 0.011796046, 0.1647507, -0.16915505, -0.26436177, -0.21694534, 0.33942273, 0.20254909, -0.5450435, 0.096168295, -0.007859993, 0.12397288, -0.05720859, -0.041735094, -0.113264985, -0.03279949, -0.35286814, 0.038502757, 0.0671339, -0.0026368888, 0.20781639, -0.24404272, -0.24006574, -0.08463461, 0.16715617, 0.0014368994, -0.387512, -0.08258281, 0.01789794, 0.033161875, 0.2371134, 0.12666789, -0.21048433, -0.3029253, -0.31356862, -0.22671635}, 
{0.15512997, -0.046841808, 0.16639963, 0.079959296, -0.1762125, -0.072928876, 0.19928128, 0.15446994, -0.10247395, 0.2639053, 0.09790458, -0.08226199, -0.09519156, -0.13449933, 0.27470145, -0.055685457, 0.18143728, 0.08941589, -0.016975006, -0.024075625, 0.1620731, -0.024979591, 0.06775028, -0.06383959, 0.10222557, 0.14627294, 0.0288819, -0.17155845, -0.030462705, -0.003882567, 0.23941414, -0.021641877, -0.19082503, 0.002838132, 0.23532662, -0.254106, -0.08105493, 0.08215112, -0.1237052, 0.2080626, 0.15547377, -0.16447604, -0.036271326, -0.24125636, -0.050682425, 0.014157371, 0.00817748, 0.0940374, 0.2982864, -0.13273315, -0.16516267, 0.067656465, -0.034974214, -0.026120683, -0.46998605, -0.21058944, -0.014064078, -0.25364748, -0.002422475, -0.20639658, -0.0038133957, 0.085232556, 0.04931939, 0.22149758}, 
{0.39374852, -0.00034805574, 0.13060656, 0.27212036, -0.11674553, 0.1262254, 0.12850383, 0.15774773, 0.08340072, 0.07574823, -0.0473188, -0.019917099, 0.1674329, -0.090716556, 0.07860074, 0.12108982, 0.2059697, 0.04802049, 0.037778992, 0.054367248, -0.11010393, 0.0025725516, 0.01978102, -0.14686878, -0.0040641758, 0.14870925, -0.026905065, -0.16562068, 0.008756506, -0.12119324, -0.065679885, 0.06687103, 0.0183441, 0.1278851, 0.23741576, 0.099563554, -0.002405311, 0.0947439, -0.38414118, 0.028927265, 0.03622675, -0.048513394, -0.025088178, 0.05104838, 0.16411158, -0.1547935, -0.33436716, 0.05939302, 0.03127417, -0.1217684, -0.064149216, -0.24854963, 0.08390582, 0.11854723, -0.0005714621, 0.03703589, 0.24353582, -0.03737941, -0.10251616, -0.102200255, 0.044791445, 0.057540424, 0.007675345, 0.14518543}, 
{0.04952755, 0.07443308, 0.14040157, 0.21707295, 0.19004701, 0.09800993, 0.0012325752, -0.12459766, 0.018995848, -0.13156676, 0.017235877, -0.1221136, 0.22456837, -0.1756333, 0.118804716, 0.1968118, 0.11366887, 0.10869122, 0.2460046, 0.17777482, -0.098883316, -0.00066040474, -0.01800941, -0.026279923, 0.23216686, 0.06657703, 0.017695995, 0.23847948, 0.08756136, 0.10361507, 0.040323734, 0.04937606, 0.1087976, -0.0993967, 0.0484147, 0.20818228, 0.020828476, -0.14046486, -0.7023244, -0.19868885, 0.055882704, 0.040814318, -0.00096487766, 0.2228826, 0.23507461, -0.1154712, -0.17421424, 0.051208243, 0.12261793, 0.048563555, -0.13048597, -0.09304618, 0.2718389, 0.060279015, -0.2545367, 0.07435993, 0.13361166, 0.10698014, -0.044160955, -0.057262164, 0.15440889, 0.16167589, 0.0095695425, -0.22249587}, 
{-0.0040793307, 0.07963798, 0.04298196, 0.090503335, 0.0748492, -0.21329227, 0.005258186, -0.13337582, -0.1468763, -0.042494718, 0.13440754, -0.020633526, -0.10170341, 0.14961337, -0.054149594, -0.0057485355, -0.010809627, 0.04578107, 0.25727206, 0.042251695, 0.010314596, 0.013112631, 0.13719642, 0.09541339, 0.0035427578, 0.041920014, 0.028908137, 0.26305994, 0.014141086, -0.016769309, 0.21859118, 0.20175505, -0.09222697, -0.039027873, -0.1229473, 0.02130969, 0.08500229, -0.06511137, -0.57436687, -0.09892634, -0.12505402, -0.16119, 0.2940641, -0.22810495, 0.2432516, 0.2243478, -0.2501325, 0.1258819, -0.09930028, 0.083814226, 0.0604845, 0.057328586, 0.109048866, 0.13143386, -0.23299731, 0.1850705, 0.13934544, 0.053253826, 0.19477275, 0.21624191, 0.13914013, 0.017577026, 0.078457646, -0.0889891}, 
{-0.27601358, -0.006518906, 0.101970635, 0.2236119, 0.06693671, -0.38118687, -0.23017594, -0.17071551, -0.06664992, -0.26056185, -0.016696122, -0.015560226, -0.16327558, 0.26059058, 0.12096515, 0.18993226, 0.21659197, -0.23562935, 0.07427614, -0.06704034, 0.19127409, -0.0675139, 0.10844167, 0.030236123, -0.2522323, -0.14410788, 0.05034387, 0.06972175, -0.19928403, -0.12643515, 0.43317163, 0.14042996, 0.0430501, -0.26460776, -0.10773409, 0.2256307, -0.16941455, 0.041136384, -0.6191471, -0.20852526, 0.020241963, -0.033688873, 0.20988098, -0.2192774, -0.025648858, 0.08218405, -0.51340765, -0.24253035, -0.1063231, 0.18967262, 0.28824356, 0.014856645, 0.10738902, 0.021463828, -0.10916844, 0.2292329, -0.08147782, 0.14548017, 0.1239663, -0.11714332, 0.34160522, 0.0047907736, 0.2165548, -0.005116276}, 
{-0.28724277, -0.21663724, -0.24935089, 0.05591825, -0.1626875, -0.25980902, 0.09731607, -0.50535643, -0.027002916, -0.38554054, 0.03816227, 0.2430728, 0.089826554, 0.023927897, -0.19793159, 0.015598438, 0.3724775, -0.44202107, -0.56855965, 0.12712087, 0.04839894, 0.30174887, -0.41557476, -0.027095368, 0.11079273, -0.12404001, 0.043584358, 0.09732317, 0.25081915, 0.2817534, 0.2770689, 0.070148, 0.16628107, -0.26455677, 0.40465924, 0.15281694, -0.074836746, 0.100051835, -0.6609368, 0.067909345, -0.1407027, 0.18321098, 0.10262513, 0.031974364, -0.34307617, 0.38121992, -0.32254413, -0.3518183, 0.015200545, 0.3739383, 0.17435133, 0.16313227, 0.21630716, -0.056395236, -0.12467374, 0.19768734, -0.40540802, 0.15807289, -0.21795708, -0.046309378, 0.023306716, -0.17139193, 0.13677634, 0.1011554}, 
{-0.29828173, -0.42348313, -0.5092303, -0.32469147, -0.059092715, 0.19272412, 0.29913428, 0.015719973, -0.2428974, -0.1917172, 0.6230318, 0.2859076, 0.24425253, -0.16693735, 0.07845327, -0.45366836, 0.4536553, -0.4670335, -0.33144304, 0.31101078, 0.05786805, 0.11651887, -0.524821, -0.14139178, -0.017502459, 0.04660575, 0.013384223, -0.23472439, -0.02437218, -0.0040728785, -0.098930225, 0.1380536, -0.17197499, 0.25059462, 0.46398032, 0.3460858, 0.19549604, -0.23079342, 0.2169862, 0.7612731, -0.11436096, 0.10688211, 0.4662897, 0.4370056, -0.18978615, 0.32525212, 0.52452326, -0.18535651, 0.47507137, 0.61404663, -0.7973825, 0.38607427, 0.41368237, -0.49062252, 0.04523641, 0.40198618, -0.3321191, -0.21258831, -0.08651285, -0.28733355, -0.0060296664, -0.116185024, 0.04210994, 0.114762925}, 
{-0.07998203, -0.21089932, 0.13039276, -0.22545253, -0.26419252, 0.2829695, 0.004773307, -0.06347499, 0.11593818, 0.1339064, 0.27910805, -0.4843438, 0.104776435, -0.29042864, -0.06190423, 0.16448486, 0.32430714, 0.20229709, -0.3608169, 0.1655494, -0.3062639, -0.0062390426, -0.4004388, -0.14184012, 0.3545625, 0.3748527, 0.39607581, 0.31369993, 0.46260202, 0.43773627, -0.3342311, 0.24647559, 0.3311823, -0.06870507, -0.28245738, -0.09858205, 0.68039465, -0.21910517, -0.18746921, 0.15019543, -0.28986278, -0.18363526, 0.13757421, -0.18815008, -0.4135766, -0.30785346, -0.12681188, -0.19574511, 0.11927749, 0.074448116, -0.0004390054, 0.3728411, -0.2813411, 0.23531595, -0.26791674, -0.39965963, 0.23775859, -0.016029583, 0.012918338, 0.16923729, 0.09968395, -0.18907125, -0.6363107, 0.27782613}, 
{0.03723746, -0.14031456, 0.21646307, -0.3825799, -0.23322624, 0.017768044, 0.013084128, 0.048671138, 0.046146464, -0.19796768, -0.0029649087, -0.37213525, 0.061157584, -0.15880056, 0.32424614, 0.16933058, 0.17659883, 0.2081751, -0.25324866, 0.027516093, -0.46763936, -0.12548977, -0.11558751, -0.13126493, -0.009474397, 0.11463912, 0.24007374, 0.06521813, -0.3701534, -0.021884393, -0.27360323, 0.3022552, 0.05916615, 0.05145859, 0.18513228, -0.037532642, -0.176027, -0.03132656, -0.1596939, 0.32530758, -0.056856014, 0.018000215, 0.25250635, -0.23917188, -0.171064, -0.045514204, -0.18000558, -0.038577117, 0.12604442, 0.05274691, -0.13629545, -0.031749178, 0.07669319, -0.13124138, -0.136874, -0.1847623, 0.25506538, -0.26360357, 0.06837312, -0.10409263, 0.24600059, -0.19298679, -0.10840152, 0.17299338}, 
{-0.14096074, 0.10775392, 0.2021992, -0.009994508, 0.16559608, -0.44408017, -0.31104103, 0.13593088, -0.094005734, -0.20611714, 0.08998627, 0.0041042957, -0.042152483, -0.1175543, -0.03022264, 0.11535261, 0.012225724, -0.021915162, -0.09942638, 0.06680151, -0.42477378, 0.17252982, -0.0027142833, -0.044567097, 0.0648484, -0.19694519, -0.29791805, 0.10863236, -0.2133645, -0.0017212105, -0.20898359, 0.027046742, 0.010685395, -0.22213545, -0.18403876, 0.030184632, -0.40938216, -0.19666205, 0.0016703504, 0.12485515, 0.250244, -0.10556147, 0.26518846, 0.074858926, 0.118536144, 0.029463673, -0.28505474, -0.10582171, -0.0028283326, -0.013680179, 0.24316868, -0.15134834, 0.11017356, 0.021551052, -0.11034122, 0.09297404, -0.004267321, 0.07502611, 0.25631928, -0.09412215, 0.12296959, 0.14712812, 0.36240134, 0.112626}, 
{-0.081481926, -0.0676607, -0.019397343, -0.0052622403, 0.085693546, -0.4646637, 0.1384747, -0.030603439, 0.12321036, 0.05502133, 0.085458644, -0.015715133, -0.020922534, 0.089261964, 0.09896361, -0.026445838, -0.071289726, -0.20515315, 0.034506068, 0.09005185, -0.071940325, 0.06746862, -0.22933207, -0.08322129, -0.11896152, -0.18081255, -0.016466511, 0.05157072, -0.12773024, 0.021474019, -0.096338905, 0.06667066, 0.10187331, -0.08622389, -0.17891252, 0.02134075, -0.36633867, 0.03428053, 0.3075276, 0.11048643, 0.19349782, 0.09811344, 0.17167681, 0.11961898, 0.24090417, -0.0043811765, 0.15481554, 0.003610182, -0.19166628, -0.027363507, 0.2524488, -0.04536, -0.055816326, 0.052931026, -0.019639714, -0.033314012, 0.00057980756, 0.15615961, 0.11439243, -0.073506035, -0.051517878, 0.21035457, 0.28917634, -0.028514303}, 
{0.1261702, -0.08471749, 0.046645787, 0.21069585, 0.07433968, -0.21217759, 0.09156763, 0.12605599, -0.0060486533, 0.015779, 0.0138062695, 0.13206658, -0.11966781, -0.030126404, -0.055448376, -0.087267414, -0.058712617, -0.14252158, -0.026049253, 0.14757909, -0.04672669, 0.06528591, -0.11815017, -0.16103473, 0.075448774, -0.063613944, 0.07619571, -0.014223691, -0.042369977, 0.121132344, 0.10611627, -0.04683917, 0.11672306, 0.03898449, -0.1389022, -0.014222185, -0.4341212, 0.056978825, 0.075672254, -0.14870593, -0.0031248995, 0.00040650944, -0.02626968, -0.09380612, 0.20804967, 0.094538175, -0.11022266, 0.20394772, -0.09213079, 0.11705785, 0.16851325, 0.018138614, 0.13376279, -0.11598898, 0.048904426, 0.06318079, 0.03885752, 0.024077222, 0.043136783, 0.20567986, -0.27350965, -0.022539867, 0.2522734, -0.023071038}, 
{-0.054263778, -0.10838694, 0.109259866, 0.05617875, 0.0041040643, -0.25541857, -0.19660923, -0.015067632, 0.14407508, 0.025488757, -0.03504405, 0.07583184, 0.17284901, 0.15302871, 0.14248265, -0.08445632, 0.12744527, -0.053501226, -0.07862627, -0.12759559, -0.19432569, 0.21901895, 0.0031517202, -0.09945026, -0.0202726, -0.06849807, -0.055133916, 0.09141187, -0.18923698, 0.30957595, 0.16352224, -0.1702405, -0.02343422, -0.07674527, -0.03267676, -0.030289706, -0.3047074, -0.026646119, 0.12838268, -0.07540394, 0.08276254, 0.1290414, 0.17335775, 0.06900859, 0.09617439, 0.13311417, -0.070965715, 0.31758875, -0.123505116, 0.25543797, 0.086905226, 0.05523842, 0.062534414, 0.13275684, 0.09279947, 0.14200489, 0.14498793, 0.12232067, 0.0076168627, 0.09920522, -0.12152445, 0.20057085, -0.02186338, -0.058764234}, 
{0.061628338, -0.14789778, 0.09591483, 0.046489295, 0.0562583, -0.28860706, 0.060533702, 0.11791391, 0.2094446, 0.11781964, 0.080340445, 0.19752645, 0.16807319, 0.3225428, -0.10982734, -0.22848636, -0.2571068, -0.13585626, -0.0123093715, 0.06305444, 0.061426934, 0.1616558, -0.070417084, -0.10028853, 0.03751233, -0.035492882, -0.055193566, 0.006830734, 0.24794194, 0.3932229, 0.046283297, 0.046701927, 0.06867288, -0.17322086, -0.050107334, 0.14786927, 0.053742938, -0.08537412, 0.20579684, 0.08824592, 0.25339028, -0.09793787, 0.14851868, 0.04697426, -0.061094753, 0.08594896, -0.039022982, 0.097646676, -0.09461029, 0.33217332, 0.025923742, 0.055241887, 0.21226484, 0.2945369, -0.18089421, 0.09429578, 0.20384412, 0.11511932, -0.04294218, 0.06545131, -0.35549092, 0.18698385, -0.3606875, -0.19931279}, 
{0.0856448, -0.035476528, 0.25882822, 0.015678506, -0.13434045, -0.08574422, 0.13332315, 0.058979586, -0.0912426, 0.0754487, 0.09002913, 0.22607262, -0.014690504, 0.11190069, 0.15016088, -0.29055497, -0.15371385, -0.12466439, -0.021567337, 0.062245194, 0.19075663, 0.0012607913, 0.11212169, -0.03363512, 0.27978447, 0.32430974, -0.11762947, 0.10933945, 0.16211033, 0.17320348, 0.19647627, 0.1837756, -0.020944588, 0.016159613, 0.04844855, 0.045657024, 0.14621434, 0.13259804, 0.32049638, 0.2721106, 0.09885106, 0.005406427, -0.2575505, -0.108851455, -0.34861195, 0.030214816, 0.09981106, -0.107515365, 0.05038643, -0.009177342, 0.022462683, 0.27093202, 0.1312157, 0.038897127, -0.39737168, -0.15207806, -0.12314137, 0.047097035, 0.13891177, 0.21629962, -0.23598558, -0.10291594, -0.20637114, -0.044425}, 
{0.15868355, -0.100796886, 0.23266517, 0.16259249, -0.36081257, 0.04275631, 0.19151366, 0.23718357, -0.04541324, 0.19423908, 0.15092202, 0.2146117, 0.053900752, -0.2044491, 0.32279912, -0.2276143, 0.14572066, 0.04937129, 0.23571438, 0.14625682, 0.29191306, -0.012800135, 0.2356371, -0.09513432, 0.018504512, 0.100008905, -0.21810333, -0.006908198, -0.008033255, 0.058640733, 0.08551687, 0.1932325, -0.031140378, 0.22592911, 0.020186242, -0.35910502, 0.061651092, 0.16550598, 0.20857832, -0.030558463, 0.30692062, -0.12696451, 0.021117961, -0.2918251, 0.004452045, 0.056082454, 0.20776744, 0.073736936, 0.13966121, -0.038467735, -0.19898738, -0.14526339, 0.0850357, 0.08497107, -0.14016107, -0.086084254, 0.12909022, 0.13511048, 0.22106342, -0.10785746, 0.053620875, 0.022640433, -0.07806847, 0.1218935}, 
{0.15469144, -0.13982086, -0.021021634, 2.5733505e-05, -0.11048756, 0.09220802, 0.0071258554, 0.1271527, -0.035553787, 0.01468712, -0.045487255, -0.04476455, 0.053929973, -0.15862651, 0.072275594, 0.11728353, 0.07854998, 0.24831045, 0.23238824, 0.051546436, -0.116800606, 0.2086943, 0.04548605, -0.07738064, 0.020021453, 0.058269516, -0.054607, 0.10198823, 0.12054141, -0.079022564, 0.035716172, 0.070475705, -0.008630772, 0.057778064, 0.042368513, -0.09379527, -0.005428705, -0.0029729055, 0.15515633, -0.0058835126, 0.25016373, -0.016709553, 0.12669022, -0.13368443, -0.02207523, -0.22456671, 0.045220893, 0.17091444, -0.07140865, 0.07829572, -0.15279213, -0.13594915, 0.20182078, 0.20534319, -0.15561555, -0.087117925, 0.071058765, -0.034459077, 0.123645075, -0.20791227, 0.2249576, 0.07615696, 0.121952094, 0.06861707}, 
{0.045832854, 0.17268878, 0.09540226, 0.10461729, 0.028669912, -0.025839996, 0.07595257, -0.05473309, 0.08142023, 0.053045064, 0.13870308, -0.09953218, 0.08500609, -0.06343625, 0.06652373, -0.02839132, -0.04086775, -0.052913524, -0.004893876, 0.13317943, -0.1409525, 0.09401832, 0.18746567, -0.018233964, 0.017193668, 0.13286722, 0.011911115, 0.08835262, 0.004715652, 0.044001658, -0.006372315, -0.03339177, 0.20107673, 0.026313143, -0.024103597, -0.067596115, -0.06814921, -0.063026935, 0.09964024, -0.04001173, -0.08911647, -0.27312016, 0.30204716, -0.049973983, 0.2627969, 0.14832787, -0.022330597, 0.23777318, 0.065197214, 0.057217073, 0.07730297, -0.048117276, 0.24775943, 0.19134785, -0.32717678, -0.014638896, 0.30101395, 0.005918375, 0.051756687, -0.13651219, 0.25374708, 0.07994191, -0.12370863, -0.09429573}, 
{-0.30087122, 0.33169764, 0.068067506, 0.11146823, 0.06531079, -0.12586786, 0.057968277, -0.10776079, 0.10464391, 0.18619713, -0.0048503075, 0.11516429, 0.016913084, -0.11234173, 0.039139535, 0.062154606, 0.04057886, -0.26114228, 0.11199973, -0.09707586, 0.011781268, -0.07255315, 0.105735876, 0.04027666, -0.09225115, -0.009101762, 0.17134522, 0.11597099, 0.09498755, 0.1027708, 0.1540389, -0.10242057, 0.028067844, 0.08686143, -0.120346166, -0.10533999, 0.10140729, -0.013753732, -0.2516532, -0.098490745, -0.0649224, -0.22283486, 0.23711184, -0.10942558, 0.07406062, 0.032353863, 0.18582496, 0.11652961, 0.009519329, 0.24330488, 0.13442345, -0.04879207, 0.116081856, 0.020604637, -0.24994463, -0.07618191, 0.122862, 0.11034327, 0.10514116, -0.13961811, 0.08303502, 0.012245395, 0.111060835, 0.0072271056}, 
{-0.2651122, 0.19362684, -0.09891449, 0.28998315, 0.0013088642, -0.29030797, -0.15789066, -0.2307959, 0.06956905, 0.14476511, -0.0129026035, -0.059176788, -0.16214855, 0.04290049, -0.00096271094, 0.12921076, 0.11839382, -0.039034747, 0.042924054, -0.13382982, 0.1313428, -0.17613514, 0.26365387, 0.086222045, 0.09013865, -0.2194175, 0.15799242, 0.09482211, 0.06539086, 0.28044632, 0.089551434, -0.017046463, 0.027391016, -0.08723299, -0.118516736, 0.12025804, -0.039096296, -0.03275847, -0.2845119, 0.18271342, -0.044855308, -0.10343371, 0.34713128, -0.21938105, 0.15698262, -0.010560817, -0.2320414, -0.15601613, -0.011528649, -0.0661601, 0.11122211, 0.21453358, -0.002091086, 0.21309696, -0.19636834, 0.19094439, 0.3311793, 0.23183957, -0.047792986, -0.12507756, 0.041478027, 0.1563967, 0.37348998, -0.03615981}, 
{-0.1198856, 0.08384213, -0.027920932, -0.012570669, -0.043305255, -0.033290125, 0.09171968, -0.39124793, 0.30844176, -0.25742033, 0.08836797, -0.18633388, -0.2522013, -0.054636937, -0.06980072, 0.18858665, 0.2748511, -0.25457442, -0.31026626, -0.008444581, 0.0016849528, -0.00015684104, -0.18139435, -0.032591373, 0.024707405, -0.28812626, 0.3227355, 0.10094387, 0.2773782, 0.20058693, -0.24468397, 0.26646823, 0.20441121, 0.102415115, -0.19000587, 0.19186841, -0.17294571, -0.1367143, 0.19966651, 0.23076853, -0.26514143, 0.20417659, 0.54587775, -0.07004975, -0.107554875, -0.090472326, 0.13871247, 0.014773399, -0.08683746, -0.021154512, -0.020105211, 0.3290855, -0.41935462, -0.036259905, -0.03725003, -0.067599736, 0.21185045, -0.018023726, -0.12202413, -0.041304357, -0.072114006, -0.065159805, 0.31876624, 0.19679677}, 
{-0.04814334, -0.39876768, -0.10565346, -0.34848797, -0.2908146, 0.14407721, 0.052295618, -0.21996741, -0.18562339, -0.47527114, 0.37455544, -0.087892786, 0.1705624, -0.30692452, 0.020991754, -0.3412306, 0.5715547, -0.2363621, -0.5393511, 0.4207418, -0.18741491, 0.1428012, -0.6257768, -0.11881547, 0.40971258, -0.042069007, 0.25261283, 0.23494896, 0.35504842, 0.024187922, -0.3478102, 0.36513257, 0.25201046, 0.11646369, 0.065763675, -0.35462466, 0.18975857, -0.28053197, 0.25458327, 0.654216, -0.15088536, -0.13526885, 0.12509105, 0.31349853, -0.45119077, 0.002163533, 0.15225135, 0.03483603, 0.40956995, 0.08975918, -0.5687661, 0.23927163, 0.14350064, -0.44719407, -0.22448477, -0.26583648, 0.073993154, 0.014303317, -0.25460893, -0.19747661, 0.48152843, -0.17773247, -0.22944474, 0.18502538}, 
{0.0037560253, -0.17972492, 0.15266137, -0.36068264, -0.2780963, 0.3591434, 0.3245964, 0.3867953, -0.046255723, 0.20143665, -0.06311469, 0.23730265, 0.3081999, -0.34986365, 0.35144657, 0.1355968, 0.27867785, 0.1548023, -0.30672118, 0.119672045, -0.57761294, -0.024257889, -0.49524593, 0.05520264, 0.2973097, 0.2589991, 0.038037058, 0.33056328, -0.026450371, 0.4053771, -0.088691674, 0.042204887, 0.14300859, 0.14223398, -0.03804495, -0.21070863, 0.071100034, -0.23647927, 0.011802145, 0.25426, 0.12633632, -0.11974632, 0.0090108, -0.08308243, -0.3060265, -0.5457587, 0.30695802, 0.0012645476, 0.3707204, -0.06964268, -0.17501536, 0.04627094, -0.092893384, -0.22693294, -0.23224881, -0.35821584, 0.20305103, -0.15976544, -0.09966541, 0.1426173, 0.13365416, -0.24436659, -0.15008627, -0.008829268}, 
{-0.05911041, -0.069597475, 0.19370922, -0.17915104, 0.074836776, 0.19153252, 0.089832895, 0.33148363, 0.10013948, 0.20464958, 0.1838684, -0.1647982, 0.2428503, -0.34077543, 0.10597985, -0.014707186, -0.091053896, -0.20286618, -0.44312304, -0.038537797, -0.47992498, 0.03649617, -0.24669307, 0.056878574, 0.05204686, 0.060205385, -0.031818733, -0.13314244, 0.15200287, 0.1542641, -0.22002868, 0.10786575, 0.16604893, 0.15430275, 0.039359257, 0.15291256, -0.06656452, -0.16145942, -0.1065675, 0.15117797, 0.12401881, -0.40514192, 0.08983925, -0.10209406, -0.04127614, -0.18889782, 0.08075536, 0.20598711, 0.09907934, 0.04999998, -0.30077845, 0.008142285, -0.08606309, 0.22122619, -0.065284185, -0.11140344, 0.07418495, 0.084368534, -0.06941347, 0.046538126, -0.11855513, -0.047018297, -0.0089054955, -0.040262427}, 
{-0.04422788, 0.1274949, 0.11365127, -0.10218304, 0.19981295, -0.25259545, -0.34553275, 0.15787056, 0.18960129, -0.038217522, 0.068925634, -0.4284601, 0.05052121, 0.04207788, 0.1268454, 0.116407484, -0.23752487, -0.10626988, -0.30707195, -0.2681387, -0.24014872, -0.02977117, -0.19904779, -0.038685653, 0.16831177, 0.11339877, 0.050369464, 0.15723784, 0.04149195, 0.22478059, -0.100125544, -0.09907454, 0.16401686, -0.16038066, 0.013672901, 0.015581551, -0.13602833, 0.06304843, -0.009583856, 0.29889402, 0.05372188, -0.44023094, -0.0325993, 0.044303678, 0.29828292, 0.1139647, -0.09643669, 0.06432678, -0.113781944, -0.13452533, 0.20515695, 0.01298248, 0.07316744, 0.010470942, 0.16567339, -0.012082971, -0.07322429, -0.026505623, -0.15437075, 0.2965468, -0.17664438, 0.14232166, 0.13207363, -0.023792174}, 
