{{-0.14749156, 0.20211871, -0.19866204, -0.31279096, -0.07172612, -0.1570173, 0.013855868, -0.19961664, 0.3299254, 0.3617821, 0.099121, -0.16201231, 0.16268712, 0.19093686, -0.39990488, -0.16551271, -0.43229294, 0.0707683, 0.3020783, 0.44713417, 0.262863, -0.24182777, 0.35291684, 0.15083657, 0.043470018, -0.19905306, -0.024955252, -0.35816476, -0.050418243, -0.0015136269, 0.13758595, 0.05841032}, 
{-0.07717278, 0.08572363, -0.07379481, 0.23372617, -0.010188664, 0.12885965, 0.37452656, -0.2682566, -0.007164434, -0.16311957, 0.174125, -0.009358029, 0.36815035, 0.1549546, 0.18445231, -0.12659194, 0.23308317, -0.1612644, 0.3271843, -0.006179238, -0.35862535, 0.072604865, -0.51287866, -0.2778458, 0.12212457, 0.121100746, 0.39071646, -0.038298674, -0.009047435, -0.1211738, -0.50210035, 0.39138836}, 
{-0.082438, -0.100651816, 0.07640562, -0.14712851, 0.33877945, -0.03958932, 0.09073819, -0.13868429, 0.2913659, 0.20665768, -0.110511586, -0.18602288, -0.088659324, -0.15881555, -0.1800848, -0.0777733, 0.037594374, 0.33430415, 0.23712657, 0.34392285, 0.31125525, 0.20983374, 0.2314998, -0.19486812, -0.28718406, 0.053606026, 0.34547803, 0.023636447, -0.10555802, 0.19111276, 0.2967629, -0.17391038}, 
{0.018322349, 0.20552105, -0.18448779, 0.1554697, -0.017869854, 0.3143784, 0.20610832, -0.045915917, 0.3137488, -0.22601232, 0.21983884, -0.10781312, -0.11436593, 0.02454406, -0.15908673, -0.05404833, 0.19862764, 0.028153384, 0.19494401, 0.054799117, 0.27591377, -0.14256506, -0.011807733, -0.06784815, -0.06068719, 0.27866334, 0.1609149, 0.32411376, 0.35368901, 0.23005188, -0.17098166, -0.1949418}, 
{0.39289886, 0.5329301, -0.32097906, 0.5030964, -0.5075376, 0.052529406, 0.069311336, -0.3558057, 0.51326495, -0.058947623, 0.006585407, 0.021122541, 0.25079292, 0.22256145, -0.05430708, -0.4281108, -0.45849875, -0.36268717, 0.16308257, 0.17290889, 0.18793909, 0.2528524, -0.10093506, 0.3871194, 0.36778006, -0.2295743, -0.18407257, -0.29117638, 0.20359935, -0.2911202, 0.15088598, -0.116926245}, 
{0.25685498, -0.07534482, 0.08634314, 0.14323978, 0.076623455, -0.066944905, 0.21681209, -0.09112425, -0.34256414, -0.07380598, -0.27458936, 0.26478165, 0.37066975, -0.030520141, -0.046738323, 0.21268651, 0.29111657, -0.016044846, -0.38657084, 0.35834882, 0.25753638, 0.035526827, 0.16686708, 0.11061607, 0.23451577, -0.17660111, 0.3159701, -0.01585168, -0.31685784, 0.08673149, 0.0129033085, 0.4566343}, 
{0.5753821, -0.45321983, 0.39854068, 0.48915946, -0.28259057, -0.5221305, -0.09422929, -0.57950056, 0.34020644, 0.14599784, -0.040312838, -0.5179854, 0.50238866, -0.046129346, -0.033246398, 0.034755487, 0.1635859, 0.5065916, -0.12796743, 0.024638176, -0.15256935, 0.20293552, 0.37521422, 0.069384016, -0.46777856, 0.23220229, -0.08385277, -0.46181983, 0.24094063, -0.31616634, 0.11200336, 0.1334097}, 
{-0.06528564, 0.10712046, 0.043151643, 0.17853728, 0.15183581, 0.17187935, -0.29571348, -0.2759201, 0.13272451, 0.28643265, 0.0973302, -0.100482054, 0.118662454, 0.23937611, 0.3256361, 0.36432886, 0.27940303, 0.123013146, -0.053761408, -0.038767178, 0.16748339, -0.16347952, 0.42704475, -0.19243808, -0.21200672, 0.29044065, 0.1875982, -0.13716027, -0.0965826, -0.11873971, 0.0708757, 0.03489821}, 
{-0.22040255, 0.021591205, 0.23447886, -0.080181, -0.10424416, 0.22503372, 0.29752317, 0.12999566, 0.13449694, 0.0416059, 0.38886577, -0.035730656, 0.009126262, -0.09444832, 0.3141865, -0.020026764, -0.05554039, -0.14206493, -0.24704117, 0.28680548, -0.27012873, 0.31820118, 0.065337814, 0.14127037, -0.010296089, -0.14086093, 0.21764305, -0.14879076, -0.12522954, 0.028099332, -0.18660575, -0.12568924}, 
{-0.43560228, 0.033047996, 0.4201906, -0.28936735, -0.07644461, 0.03575307, 0.032441176, 0.3739558, -0.0033583017, 0.0061600646, 0.08141042, -0.038250156, 0.15090038, -0.08128661, -0.03683554, 0.5369916, 0.32297584, 0.30641237, -0.012029729, 0.16710992, -0.43475035, 0.052903842, -0.07332541, -0.0944445, -0.42272478, 0.34955302, 0.18040684, 0.16453741, -0.025495606, 0.22273634, -0.44980043, 0.1272039}, 
{0.078916565, 0.16077505, 0.3517739, -0.05092175, -0.08825041, 0.18700589, 0.10373654, 0.03865174, 0.33417982, 0.17979074, 0.04073799, 0.28087243, 0.21776448, -0.021393359, 0.34769368, -0.06951491, -0.091871396, -0.020046307, -0.09493401, 0.010305492, 0.23427178, 0.31125963, -0.054990284, 0.08559571, 0.23017429, -0.020291565, 0.18799087, 0.034924403, 0.036625903, 0.27638954, 0.2884651, 0.25008345}, 
{-0.16337612, 0.11402487, -0.36667615, -0.012879705, 0.2644744, 0.05974919, 0.059123136, -0.3461656, -0.3415861, 0.19922562, -0.19675168, 0.07512446, 0.24454117, -0.17895307, -0.024747845, 0.20273156, 0.18073544, 0.37626484, 0.34716654, -0.027522415, 0.04152973, 0.1769195, -0.12892607, 0.06429505, -0.26138523, 0.39678216, 0.108830705, 0.35282204, 0.050438132, 0.013274742, -0.010454465, 0.3877497}, 
{0.33019537, 0.22538728, -0.15331146, -0.08047968, 0.18123284, -0.19374931, 0.11503458, 0.15029293, -0.25505581, 0.38329467, 0.029869767, 0.1567362, -0.045201093, 0.07768234, -0.2796318, 0.11786965, 0.3507692, -0.0849566, 0.28940526, -0.05862197, -0.008692136, 0.10356647, -0.14651655, 0.072814904, -0.11970803, 0.13644725, 0.17725927, 0.11808424, 0.14599057, 0.14570917, -0.1695558, 0.2198581}, 
{0.48032856, -0.53390247, 0.034426637, -0.31903744, -0.3273883, 0.23301452, 0.074716724, 0.049530156, 0.005095198, -0.59194076, -0.05052883, -0.19814853, -0.17141858, -0.0306499, 0.38253275, -0.35640943, -0.13613531, 0.18475614, -0.002550353, -0.25074065, -0.06707399, 0.20256442, -0.5056594, -0.23381805, 0.40872025, -0.044620294, 0.2089069, 0.40569574, 0.47817552, -0.34463048, -0.084039286, -0.23181753}, 
{0.15978165, -0.35491177, 0.19205023, 0.04310027, -0.07091554, 0.14925931, -0.1301335, 0.2250043, -0.13056144, 0.085680984, 0.17540734, -0.0144948345, 0.2403983, -0.21652237, 0.24302357, 0.22086066, -0.07927908, 0.38883758, 0.104421645, 0.3341545, 0.2763964, 0.12119469, 0.2511257, 0.118931584, -0.18051593, 0.36005363, 0.29851463, -0.020456813, 0.07060448, 0.23757553, 0.26659238, 0.12501238}, 
{0.4337748, -0.16921808, -0.06733507, -0.063497625, -0.12545602, -0.35320133, 0.3970696, 0.044344664, 0.06086296, -0.034072768, 0.18914191, -0.0009968498, 0.1762103, 0.21033663, -0.040743176, -0.09407469, -0.1167836, -0.36503646, 0.17369927, 0.25276947, 0.3408858, 0.1704104, 0.24942686, 0.27500188, 0.22860569, 0.06871781, -0.11495753, -0.011815582, 0.15332094, 0.17004639, -0.0018162727, 0.27089098}, 
{-0.096753106, -0.19653992, 0.034798592, 0.3256811, -0.47415093, 0.53799516, -0.08488243, 0.12171879, 0.18362018, -0.44784388, 0.31835532, -0.35320267, -0.09255714, -0.053106725, -0.33017915, -0.023252035, 0.30757728, -0.023689358, -0.39582896, -0.10443892, 0.25316757, -0.3619614, -0.228361, 0.3197465, 0.42523873, -0.23882145, -0.083841085, 0.094380304, -0.094734125, 0.20777696, 0.24122453, -0.35094333}, 
{-0.094791465, -0.24222349, -0.16963388, 0.048551396, 0.1456412, -0.26091143, 0.36487663, -0.05164403, 0.1316376, -0.07032619, -0.06529962, -0.31985787, -0.16903664, -0.00027977023, -0.10393306, -0.22525911, -0.29104033, -0.16362776, 0.11817877, 0.38441482, 0.3685478, -0.2671566, -0.08756163, 0.10064505, 0.36232358, -0.17317417, -0.043605424, -0.12107937, -0.3134631, -0.022863517, 0.19959004, 0.35435316}, 
{0.30272502, -0.13731514, 0.029479977, -0.23302703, -0.09606612, 0.047662303, 0.21391638, -0.11735965, 0.06606345, 0.042027123, 0.11898864, -0.24032779, -0.11076134, 0.037742674, 0.107117064, -0.12679395, -0.48312327, -0.09349418, 0.3427493, -0.043835975, 0.31754926, -0.21410377, 0.0016583372, -0.08182835, 0.013490059, -0.21528049, -0.107435495, 0.26829708, 0.29825515, -0.04033868, 0.2869085, -0.11685301}, 
{0.020530775, -0.16734383, -0.26941198, 0.17965835, 0.31706864, -0.08186462, -0.21264704, 0.19810468, -0.239457, 0.13479723, -0.13881178, 0.31715545, 0.2620152, -0.11450975, -0.17880127, 0.29893765, -0.29881656, -0.041854892, 0.21544796, 0.3204077, 0.21845585, -0.053727463, -0.029895598, 0.27937683, 0.18058637, -0.030010091, 0.23889913, 0.08905261, 0.2040175, -0.03610323, 0.27242464, 0.18955429}, 
{0.20172529, -0.019188536, 0.25301662, 0.06474722, -0.18625264, 0.39554626, -0.06296278, -0.08118518, 0.21955258, -0.364139, -0.15445349, -0.025719155, 0.08827112, -0.23601548, -0.25065783, -0.233981, -0.13579616, 0.31467676, -0.030203726, -0.29900038, 0.46748435, -0.20655848, 0.15076599, 0.15706818, 0.5380507, -0.41011852, -0.038483992, -0.17696054, 0.20315704, -0.060894817, 0.1020045, -0.17746113}, 
{-0.01090329, 0.28505984, -0.026512088, -0.1353191, -0.06928025, 0.22837159, -0.31294724, -0.24134251, 0.18954101, 0.039755516, 0.094786845, 0.23971184, -0.35920563, -0.24247181, -0.16824262, 0.17774966, -0.04358884, -0.13510953, 0.05214276, -0.15204684, 0.16120163, 0.16950831, 0.035628617, -0.1448307, -0.00031044564, 0.06730801, 0.3378914, 0.13831986, 0.19563238, 0.19276363, -0.1141284, -0.15722127}, 
{0.0352184, -0.31936115, 0.15926616, -0.40199733, -0.024612367, 0.2234356, 0.030386815, 0.3171909, 0.020965496, -0.03526612, 0.37735388, -0.17511673, 0.0929039, -0.15598172, 0.3758734, -0.1749168, -0.38019532, 0.07906918, 0.2945049, 0.14443913, 0.25784588, 0.18158488, 0.2619357, 0.0014846844, -0.079946764, 0.20772481, 0.04364692, -0.1326423, 0.22427438, 0.20632657, -0.14461613, -0.11378654}, 
{-0.17888795, 0.19529688, -0.18266085, 0.19067468, 0.1790306, -0.09794633, -0.21926893, -0.1775738, -0.2226289, -0.01663472, 0.23664668, -0.13187121, 0.21913493, 0.060546875, 0.21884406, -0.09583783, 0.1702216, 0.11414968, 0.20129868, -0.23783393, -0.18622743, -0.0402574, 0.11005625, -0.08161935, -0.14975657, 0.05437258, 0.22982687, 0.16292109, 0.058332056, 0.11785737, -0.15078846, -0.22142783}, 
{-0.19422951, -0.15801269, 0.13238883, 0.24611863, 0.21569505, 0.22802241, -0.05673012, -0.039545722, -0.24566591, 0.27142292, 0.21999305, 0.06618993, -0.06698322, -0.20347065, 0.116973735, 0.09902181, -0.11898484, 0.31077492, 0.11426624, 0.106532715, 0.098153405, -0.025368309, 0.08933569, -0.18497771, 0.346022, -0.19572951, 0.23693314, -0.07169185, -0.057287145, 0.34612444, 0.16567981, -0.067935504}, 
{-0.12222544, -0.117916964, 0.38898906, -0.17581129, 0.17626932, -0.11128527, 0.12986779, 0.13083135, -0.020285534, 0.16883619, -0.039679945, 0.26820523, 0.10363853, 0.05650046, 0.019435937, 0.06791655, 0.10773239, 0.27134225, -0.17263584, 0.34518784, 0.14429262, -0.029052623, -0.008663644, 0.010244287, 0.08535426, 0.29982096, 0.29779166, -0.18961105, 0.07992402, -0.06768228, -0.18689524, 0.23961939}, 
{0.084129654, -0.0123466775, -0.14748555, -0.09078667, -0.22935759, 0.031170597, 0.28345838, 0.19025697, 0.25390068, 0.22813947, -0.04868702, -0.08681034, 0.2446698, -0.08861583, 0.094422504, -0.12323064, 0.3133439, -0.25801873, -0.11810697, 0.37085927, -0.14861487, 0.17172208, -0.23082665, 0.22726835, 0.3531222, -0.11696068, 0.3258457, -0.25437367, -0.016935509, 0.2805769, -0.14264622, 0.01431014}, 
{-0.25881886, -0.18266052, 0.28530386, -0.21672907, -0.19534965, -0.2913644, 0.11572745, 0.11744766, -0.39835924, 0.33687425, 0.23503563, 0.12168893, -0.2316049, -0.1775986, -0.30625147, -0.14590578, -0.32376242, -0.13853163, 0.116863176, -0.06738765, 0.23485246, -0.19255391, -0.04869745, -0.3808211, -0.28673226, -0.3544371, 0.4634238, -0.4883564, -0.2431926, 0.46276823, -0.4495299, 0.029616285}, 
{0.081605956, 0.22110318, 0.25980893, 0.07040674, 0.1566352, 0.13560683, 0.079638764, 0.25551584, -0.0035023987, 0.14627816, -0.049078304, 0.21132445, -0.2879844, -0.10806576, 0.20579244, 0.11980079, 0.12521161, 0.2967276, 0.06485673, -0.019015435, 0.31471837, -0.012230737, 0.24042207, -0.3198012, 0.21234122, -0.23136424, 0.010721252, -0.044130582, 0.0043840525, 0.21208422, -0.2602302, 0.01940481}, 
{-0.84467083, 0.056806263, 0.6974157, 0.32847401, -0.18284951, -0.058173623, 0.018439278, 0.3325022, -0.32987463, 0.44978073, 0.33260658, 0.16456446, 0.20521042, -0.18365921, -0.28534037, -0.5516021, 0.20741203, -0.63553494, -0.5668452, 0.523904, -0.001015685, -0.08161022, -0.17439668, 0.5187846, 0.097178586, -0.25012472, 0.14123692, -0.66428125, -1.0377365, 0.71036536, 0.31360695, 0.5645095}, 
{0.3536411, 0.035312526, -0.10357579, -0.1952863, -0.21905702, 0.31479865, -0.20054951, -0.18056388, 0.20133692, -0.019454803, -0.22976688, -0.25752437, 0.20586827, 0.20814252, 0.096757345, -0.20813306, 0.24770142, 0.22308196, 0.45356888, -0.3806924, 0.13755478, 0.026475336, 0.30920583, -0.2891909, 0.17119679, 0.49440095, -0.14413181, 0.026437195, 0.3089231, -0.06816608, 0.18868549, 0.006419094}, 
{-0.14439318, 0.2908074, 0.4118835, -0.069542736, 0.30450603, -0.025513882, -0.13928425, 0.062461354, -0.15417114, 0.19412026, -0.2127571, 0.13631731, -0.1513882, -0.03838984, -0.46608445, -0.00667366, -0.13219868, -0.09391885, 0.16509736, 0.15136796, 0.21784492, -0.17846406, 0.12976064, 0.11287432, 0.20293163, -0.2299982, -0.062497232, 0.13933748, 0.38055855, 0.097132206, 0.22226144, -0.119648896}, 
{-0.07761883, 0.39571986, -0.038435478, 0.021536041, 0.15858667, 0.2487769, 0.1929208, -0.04260714, -0.0056178025, 0.2529449, 0.07365496, -0.09419515, 0.124594525, 0.10191947, 0.12063965, -0.0043805186, -0.060968895, -0.31790116, 0.19726847, -0.1411124, 0.33228678, -0.19364245, -0.09024766, -0.19288686, 0.30428907, 0.03180582, 0.28666902, 0.14738971, 0.028807217, 0.29325974, 0.0082563115, 0.23653324}, 
{-0.20450124, 0.17847128, 0.30003783, 0.323141, -0.06570853, -0.26916924, 0.023167692, 0.091529705, 0.31255406, 0.37683457, -0.15649883, 0.21949767, 0.26325703, -0.16967335, -0.02524461, -0.11925055, -0.16523919, 0.06669231, 0.10566957, 0.09581785, 0.06508577, 0.06895484, 0.2348346, 0.39777204, -0.12469655, 0.2986884, -0.15374182, -0.3374005, 0.1853318, -0.12325516, 0.060263526, 0.2131336}, 
{0.04900767, 0.16458403, -0.17199528, 0.14255151, -0.07701901, 0.21968968, 0.0937842, 0.27321488, 0.047805928, -0.3394456, -0.08883558, 0.13741177, 0.042732976, -0.007769048, -0.3897825, 0.11991168, 0.49094737, 0.28650907, -0.30600172, 0.24315976, -0.052872367, 0.33212912, -0.16443495, 0.21034987, -0.3548289, 0.47875655, -0.25229982, 0.25667688, 0.19819029, 0.043622658, 0.13404368, -0.11426564}, 
{0.17124969, 0.44352314, 0.287488, -0.086100325, -0.27699968, 0.23307964, 0.092706084, -0.3860743, -0.053249564, -0.3357128, 0.11957964, 0.7500322, -0.3012946, 0.17132783, 0.38451487, -0.10069176, 0.22011812, 0.084177524, -0.5719438, -0.07510635, -0.5451588, 0.5690071, -0.057703897, 0.42637885, 0.062812135, 0.4881632, -0.3418613, -0.027855119, 0.054505885, -0.3927301, -0.37296313, -0.11280795}, 
{0.102484666, -0.3931882, 0.49259874, 0.21551771, -0.25729755, -0.2839402, 0.36697108, 0.49138168, -0.2638094, -0.16803183, -0.2823603, -0.39385596, 0.59289056, 0.21267802, -0.038469926, -0.0335045, -0.3606215, -0.76225495, -0.8206904, 0.5853458, 0.2088133, -0.15653934, -0.19767861, 0.932098, 0.4169063, 0.13112639, -0.0074727414, -0.15174635, -0.73616797, 0.41979375, 0.13353494, 0.70713043}, 
{-0.12244053, -0.18797952, 0.3578505, -0.14958797, 0.13898495, 0.12502714, 0.2732603, -0.13174058, 0.06496048, -0.23466502, 0.13345064, 0.15232897, -0.15087152, 0.07879933, 0.19236621, 0.082627624, 0.18751185, 0.33796233, -0.083538994, 0.17361616, 0.19593634, 0.014949683, 0.04039136, -0.017538218, 0.21537744, -0.07208643, 0.21826315, 0.28809762, 0.2276626, -0.23592879, 0.027645893, 0.19935231}, 
{-0.630127, -0.6127338, 0.11309809, 0.30652544, -0.39826566, 0.4772248, -0.21017224, 0.08705338, -0.35955545, -0.335186, 0.33715916, 0.0063888794, 0.28608447, 0.22943695, 0.016779123, 0.10007113, 0.87031204, -0.15334103, -0.28481966, -0.48464766, -0.19832106, -0.4518384, -0.59149724, -0.08863257, -0.2487617, 0.2231851, 0.617863, 0.5854509, -0.14720052, 0.26380947, -0.48369792, -0.10323178}, 
{0.15228714, 0.10298245, 0.28628826, 0.25688484, -0.20917474, 0.041562535, 0.16044441, -0.09000329, -0.1520205, -0.070731394, -0.24747224, 0.0052672313, 0.053392246, -0.023945158, 0.29994348, 0.0060636797, 0.26239932, -0.023115188, -0.09210832, 0.0145529285, -0.007083677, -0.048510347, 0.2771179, -0.24777551, 0.10705039, 0.18881169, 0.33506796, 0.0736819, 0.24808967, 0.2809328, 0.031870484, -0.11826001}, 
{-0.13427128, 0.20181245, -0.24134871, 0.16387959, 0.23179853, 0.17320095, -0.29365608, 0.1354936, 0.101718254, 0.28560635, 0.053586505, -0.07846029, -0.12624125, 0.094203584, -0.20110114, 0.012527771, -0.07909341, 0.13223466, 0.2331477, -0.13627556, 0.11744549, 0.02422187, 0.31874922, 0.006982202, -0.41969988, 0.07036834, 0.27115318, 0.37382564, 0.031437337, -0.14121623, 0.34245226, -0.18739614}, 
{0.11771292, -0.57251215, -0.33926573, -0.31602037, 0.24794398, -0.08278059, 0.35074654, 0.23307003, -0.48595744, -0.39651763, 0.113777705, -0.03247505, 0.26113635, 0.047258753, 0.022809459, 0.40023875, 0.2819146, -0.08574989, -0.06615273, 0.33048853, -0.14494908, -0.04714627, -0.5402082, 0.31287616, 0.036948703, 0.6179562, 0.5909796, 0.38829166, -0.32371864, -0.13428198, -0.13288431, 0.17769408}, 
{0.0885161, 0.28527045, -0.06253011, -0.0008539275, -0.23520266, 0.01714263, 0.12840237, 0.20696388, 0.36461288, -0.104447596, -0.03828837, 0.082172126, 0.06527252, -0.13501984, 0.1318478, -0.33005112, -0.17386813, -0.3606491, -0.19335355, -0.11490395, 0.20456909, 0.018659845, -0.2852813, 0.2133804, -0.031963963, -0.0028932248, -0.26327956, 0.26757342, -0.114549085, 0.360244, 0.060000718, -0.36625427}, 
{-0.37099135, 0.014434567, 0.16776574, 0.47048023, -0.38654736, 0.38769698, 0.13429819, -0.4620794, 0.068534315, 0.18369116, 0.22133245, 0.21448587, -0.20084853, -0.18753266, 0.29999012, 0.28995582, 0.34001723, -0.32771492, -0.60678446, -0.17476834, -0.40525284, 0.34122273, 0.03869327, 0.46213943, -0.02672359, 0.19542591, -0.13301976, -0.021876208, 0.04642109, -0.3023681, -0.02650358, 0.44120553}, 
{0.16678885, 0.15108761, -0.21320796, 0.31695586, -0.106552854, 0.17380552, -0.04251026, 0.051381018, 0.24408066, -0.045374554, 0.16151841, -0.28011277, -0.06477628, -0.17878117, 0.22768731, 0.11753072, -0.10868642, -0.11113999, 0.33364165, -0.021615, -0.39533186, 0.3006464, -0.40530092, -0.26476517, -0.20238513, 0.19938456, 0.070473224, 0.22488695, 0.015302296, -0.30064142, -0.070671864, 0.22176047}, 
{0.24053009, -0.09597317, 0.13232553, 0.0872802, 0.1981827, 0.3748495, 0.17820248, -0.14612594, -0.102070056, -0.1940167, -0.10043979, 0.32772565, 0.111175045, 0.13702314, -0.003955715, -0.3004572, -0.30635875, -0.043970857, 0.009668674, -0.26399603, 0.2583607, 0.077455685, -0.35233074, 0.07426626, 0.07597136, -0.22549747, -0.029461876, 0.26203692, 0.014761226, -0.06724017, 0.23595113, 0.02447556}, 
{0.226521, -0.07116011, 0.1969599, 0.41340515, -0.45765394, 0.2724667, -0.23616976, -0.33251086, 0.16033064, -0.00080971216, 0.31765908, 0.21888283, 0.022273827, -0.08573023, 0.12400363, 0.19831532, 0.08878935, 0.21561886, -0.3644776, -0.4912526, -0.35050926, 0.0073068906, 0.46433288, 0.15791228, 0.025356822, 0.35061628, -0.45308605, -0.10530445, 0.29462653, -0.42844576, 0.33674958, -0.22657806}, 
{0.16642764, 0.4023274, -0.21659565, 0.28033188, -0.37857947, -0.21783179, -0.1358408, -0.46364057, 0.36015105, 0.27998623, 0.44802132, -0.044039614, 0.17593989, 0.14130634, 0.17158093, -0.45854524, -0.2570906, -0.37288502, 0.11824145, 0.25688478, -0.17523229, 0.2662835, 0.38581532, 0.08159126, 0.16387273, 0.27814957, 0.2722069, -0.18908405, -0.36830115, 0.004656227, 0.19736879, -0.154476}, 
{0.1744704, -0.12847407, -0.025146324, 0.18301494, 0.16567375, -0.26030105, 0.31021225, 0.1413644, 0.25371096, 0.21489146, -0.2707006, -0.0315194, 0.33046892, 0.11207718, 0.24808712, 0.39795125, 0.31772992, 0.24815539, -0.29630145, 0.08790207, 0.029119506, -0.1455503, 0.16394316, 0.17862877, 0.06948351, 0.28043818, 0.31509066, 0.21275258, 0.117338836, 0.08681873, 0.1398372, 0.35398477}, 
{9.1395275e-05, 0.4749795, -0.11269805, 0.031690244, -0.15436162, 0.49020687, -0.21870703, 0.11059161, 0.31535423, 0.016453808, -0.15123938, 0.56029147, 0.13139282, -0.023405373, -0.338126, 0.3584976, -0.020467665, -0.058566954, 0.22207378, -0.4345954, 0.16076331, -0.10588551, -0.06692207, 0.21039431, -0.29814819, -0.030834677, -0.32853946, 0.35804462, 0.049916744, -0.08553094, 0.33937553, -0.3373068}, 
{0.26545176, -0.44160026, -0.13669342, -0.026273232, 0.3096532, -0.17153093, 0.39473403, -0.10733857, -0.1108197, -0.019440997, 0.13577561, -0.6427061, -0.10533769, -0.10350392, -0.12732215, -0.36563247, -0.21762517, -0.3080724, 0.03866435, 0.50681394, -0.07813205, 0.17149803, -0.21704082, -0.35040605, 0.2739979, -0.21641801, 0.21105872, -0.38129267, 0.15678337, 0.0006985684, -0.03457558, 0.08188631}, 
{0.22529879, 0.021895517, 0.43983918, -0.09289637, 0.1589662, 0.22551969, 0.19418891, 0.019606378, 0.030785266, -0.030416358, -0.23077565, 0.26083604, -0.22844993, 0.056973398, 0.2685339, 0.21330924, -0.084943205, -0.0636023, -0.22300641, 0.033737138, -0.15595195, 0.21845421, -0.090269156, 0.1064788, 0.2367074, -0.20877813, 0.25335866, -0.087421924, 0.26011297, 0.36053562, -0.19752136, 0.18775614}, 
{-0.11562056, 0.15975267, -0.19308208, 0.11387436, -0.1205322, 0.30698022, 0.038696513, -0.16415541, 0.0034663435, 0.08589274, -0.14186081, 0.0031178384, -0.14172432, -0.18779448, -0.24467538, 0.09551541, 0.09088897, 0.29641625, 0.1520224, 0.1945858, 0.34202826, 0.046983734, -0.26624095, -0.17714705, -0.19880906, 0.2530521, 0.13247384, 0.34174255, 0.041501325, 0.29419747, 0.25478852, -0.12759823}, 
{0.04620339, 0.34951958, 0.4578297, -0.18484655, 0.16702308, 0.07574423, -0.19478948, 0.10835474, -0.15995921, 0.18484537, 0.20692791, -0.06466066, -0.17701119, -0.011452496, -0.17477459, -0.24876276, -0.09964265, 0.025491076, 0.18785447, 0.16727018, -0.206542, -0.0036388356, -0.15922369, 0.15060584, -0.04378044, 0.08425709, -0.086405, 0.042576943, 0.23812014, 0.2939667, -0.22705162, -0.100982234}, 
{-0.1634592, 0.16124065, 0.30398932, 0.0459042, -0.17836635, 0.3858625, 0.31484038, -0.29867798, 0.14120747, -0.172219, 0.33161736, -0.20015277, 0.05801965, -0.2220667, 0.45888114, -0.3593696, -0.1723236, -0.43495938, -0.7409758, 0.31123123, -0.26948148, 0.06294155, 0.14821297, 0.70703655, 0.4077793, -0.30510864, 0.0812881, -0.13994221, 0.21540095, -0.22101627, -0.23630603, 0.16163355}, 
{0.09939852, -0.011967549, -0.34227094, -0.15507472, 0.03675538, 0.07476322, 0.32413417, 0.21836872, -0.0056507187, -0.11716207, 0.1313911, 0.38362736, 0.027286861, -0.031602047, 0.037934814, -0.12145159, -0.13548344, -0.11251499, 0.089723095, -0.2130215, -0.041524272, 0.12668435, -0.06406704, 0.09086822, 0.03705986, 0.22987768, 0.18076214, 0.2602018, 0.055072624, -0.10198724, 0.19565172, 0.15913942}, 
{-0.08157664, 0.15089048, 0.11403306, 0.19257054, -0.029213302, 0.07188652, 0.2848888, 0.23325323, 0.30875686, 0.10006307, 0.36135584, -0.027954087, 0.18277016, 0.17973822, -0.2935042, -0.16599837, 0.051720325, -0.23502962, 0.105033435, 0.35779053, 0.058794938, -0.097740166, 0.0828973, 0.18153146, -0.17016648, 0.015780432, 0.16244368, 0.19777958, -0.014147836, 0.20812787, 0.20169611, 0.08159414}, 
{-0.29765442, 0.110830635, 0.22169395, 0.08217444, -0.21893384, 0.326218, 0.086222604, 0.07063263, 0.015544231, -0.24259464, 0.26004413, 0.21834971, -0.017800905, 0.028745353, -0.031066358, -0.041337535, -0.22709866, 0.30713192, 0.37989166, -0.056890447, 0.115003325, -0.26284248, -0.2485827, -0.17973931, 0.21021986, -0.25986966, 0.23326051, -0.14316085, 0.18878981, 0.23918109, 0.15413883, -0.13695474}, 
{0.17406413, 0.29477036, 0.0068314034, -0.3639557, 0.25261065, -0.27255177, 0.045504328, 0.14250542, 0.06804154, 0.27768347, 0.010379647, -0.014880915, 0.10965231, -0.08154633, 0.23254791, 0.04644439, -0.16081236, 0.14596966, 0.050535508, 0.09770184, 0.24085684, 0.25830203, 0.28902644, -0.06457487, -0.1106614, -0.11480296, -0.016563836, 0.14019303, -0.16646042, -0.13489065, 0.24833873, -0.048455555}, 
{-0.05106317, -0.17051932, -0.14732273, -0.06484619, 0.4807923, -0.33902985, 0.21715248, 0.16455404, -0.28688607, -0.14005621, -0.1289031, -0.19291249, -0.10577879, -0.17399937, 0.07645424, 0.2615342, 0.03220119, -0.3357472, -0.33083037, 0.31830552, -0.035496686, 0.07124329, -0.4230681, -0.24606621, 0.39359948, -0.19412209, 0.019799002, 0.07294675, -0.003963818, 0.30975145, -0.28949508, 0.029633304}, 
{-0.262791, -0.43184903, -0.2011819, 0.040104557, 0.23450784, -0.27842456, 0.24807231, 0.2656678, -0.32341263, 0.33424437, -0.1253944, -0.14743336, 0.47272444, -0.23300654, -0.20467284, -0.090058416, -0.14434363, -0.6861585, -0.041595638, 0.13107264, 0.44726008, -0.3047046, -0.23055454, 0.28907645, -0.118874274, -0.009292211, 0.10851085, -0.06737657, -0.15318464, 0.34167945, 0.4431903, 0.3593975}, 
{0.41393903, 0.083141096, -0.22105259, 0.2172869, -0.22209282, -0.2846492, 0.2536369, 0.048141517, 0.3653774, 0.28412965, -0.09502801, 0.22769788, -0.016383983, -0.12156421, 0.09481453, 0.06748048, 0.047339637, -0.008134436, 0.37587953, -0.16695368, 0.043423742, 0.36311552, 0.32627097, -0.29115587, 0.15781406, 0.00023548747, 0.140098, 0.26751485, 0.22839467, -0.11454106, -0.0438902, -0.01257265}, 
{0.2979515, -0.47976542, -0.7233827, 0.014355612, 0.085663, 0.3421155, 0.28755474, -0.47953543, 0.210703, -0.11386167, 0.4440111, -0.20080186, 0.2184677, -0.08423895, 0.07410157, -0.33823898, 0.23249921, -0.1647909, 0.5060159, -0.049935054, -0.2101887, 0.21972942, -0.34296766, 0.1901752, -0.48468733, 0.6375903, 0.025661202, 0.48924348, 0.3085892, -0.29028985, 0.05022126, 0.010457302}, 
{-0.20497698, 0.34914026, 0.26845923, 0.2739496, -0.27201295, 0.20532183, -0.014168158, -0.2242412, 0.39885452, 0.16488867, -0.14866789, -0.12752736, -0.23631735, -0.0838477, 0.002261773, -0.009435505, -0.5203594, -0.0661261, -0.025137775, -0.007221679, -0.32460153, 0.059475515, 0.62708044, 0.3406019, 0.05650316, -0.092426024, -0.46206427, -0.42896825, 0.28486958, 0.010307223, -0.2288158, -0.3826893}}
