#include "ap_int.h"

#define n_inputs 225
#define n_layer1 32
#define n_layer2 24
#define n_layer3 16
#define n_layer4 10


void hwmm_layer1(float input[n_inputs], const float weights[n_inputs][n_layer1], float output[1][n_layer1]);
void hw_act_layer1(float input[1][n_layer1], float output[1][n_layer1]);
void hwmm_layer2(float input[1][n_layer1], const float weights[n_layer1][n_layer2], float output[1][n_layer2]);
void hw_act_layer2(float input[1][n_layer2], float output[1][n_layer2]);
void hwmm_layer3(float input[1][n_layer2], const float weights[n_layer2][n_layer3], float output[1][n_layer3]);
void hw_act_layer3(float input[1][n_layer3], int &pred);
void hwmm_layer4(float input[1][n_layer3], const float weights[n_layer3][n_layer4], float output[1][n_layer4]);
void hw_act_layer4(float input[1][n_layer4], int &pred);
int nn_inference(float input_img[100]);


namespace weights{

	const float layer4_weights[n_layer3][n_layer4] = {{0.19469306, 0.26739928, -0.18181507, 0.10075569, -0.14963615, -0.34207353, 0.08406608, -0.66251343, -0.7211739, 0.07379339},
			{-0.2576801, -0.19815186, 0.2538626, 0.65825164, -0.018022366, -0.8383718, -0.28166443, -0.16563606, 0.5931023, -0.17822774},
			{-0.5620097, 0.30604818, 0.41265804, -0.38461527, 0.040628538, 0.45147464, -0.4455756, -0.4278476, 0.4802602, 0.39802283},
			{0.38993543, -0.13473795, 0.45100558, 0.11750581, -0.56322676, -0.11076568, 0.16398636, 0.38682252, 0.09139967, 0.06692969},
			{-0.45393515, 0.3470739, -0.07512377, -0.4092176, -0.090516515, -0.35962167, -0.18919392, -0.097091086, -0.15215528, -0.09991557},
			{-0.2044752, 0.23566726, -0.5444927, 0.075195715, -0.67139983, 0.57037294, -0.21599025, 0.5355692, -0.30100778, -0.2208454},
			{-0.05441613, 0.17890027, 0.5324409, 0.05413624, 0.6966476, 0.4278636, 0.6975822, 0.032297738, -0.31320873, -0.48393252},
			{0.50846946, -0.6767865, 0.047177844, -0.15967599, 0.23306948, -0.2190153, -0.39268875, -0.104426324, -0.24770412, 0.07900495},
			{0.009080902, -0.46467322, -0.6363325, -0.15985979, 0.5091737, 0.11858348, -0.041098796, 0.23706776, 0.061454143, 0.47492248},
			{0.12527597, -0.34491393, 0.54316175, -0.7111118, -0.59567666, -0.39991498, 0.42653003, -0.067547336, -0.11150463, -0.7846703},
			{0.1018575, -0.1983253, -0.40512002, 0.46013924, -0.58444166, 0.19329219, 0.001839566, -0.5800755, -0.14523071, -0.020389555},
			{-0.4779001, 0.33003095, 0.5996694, 0.47646725, 0.06932798, -0.22376424, -0.52742165, 0.47477397, -0.14795727, -0.080623694},
			{-0.26355234, 0.48942363, -0.51387584, 0.20680259, -0.04573346, -0.5521355, 0.43503475, -0.42938262, 0.12748916, 0.45113036},
			{-0.3297206, 0.7245669, -0.049602773, 0.21932387, -0.2942766, 0.38326508, -1.1056771, 0.40676814, -1.0015893, -0.29306233},
			{-0.29908767, 0.26237118, 0.006288373, 0.299758, -0.27127084, 0.36408818, -0.30935407, -0.7178583, 0.52840984, -0.6454245},
			{0.20986481, 0.8128128, -0.27161303, -0.536064, 0.4566286, -0.85185075, 0.35735643, -0.12726685, -0.119264215, 0.37531054}};

	const float layer3_weights[n_layer2][n_layer3] = {{-0.35328817, -0.39865205, 0.009517294, -0.14843139, -0.12392622, 0.90250736, 0.07333818, -0.79435146, -0.11683754, 0.55596423, 0.033503126, -0.021129599, 0.63233596, -0.2286636, -0.26088625, 0.43158692},
			{0.49830297, -0.114334665, -0.41918442, -0.6453652, 0.20919548, -0.43660173, 0.46670207, 0.20036092, 0.11435564, 0.38625333, -0.02587311, -0.04205313, 0.3722705, 0.08519148, 0.052844495, 0.13975269},
			{0.20365612, -0.19319586, -0.4810333, -0.1769025, 0.0494611, 0.45452318, 0.62331873, 0.25537875, 0.38177133, 0.28555006, 0.42612728, 0.0011840982, -0.16559915, -0.47237414, 0.36473295, -0.34795308},
			{0.17981246, 0.35856017, -0.22502765, 0.012470169, -0.19360949, 0.33444583, -0.10052501, 0.27817988, 0.47881517, -0.41052046, 0.36951128, 0.49559662, -0.26671627, -0.13103926, -0.050876062, -0.054250102},
			{0.34194744, 0.22299035, -0.118731566, -0.120831564, -0.11697685, -0.3921594, -0.08872033, 0.14138167, 0.3543701, 0.045819003, 0.3746091, 0.28007302, 0.2715198, -0.12529859, 0.318525, -0.14167541},
			{-0.3946348, 0.45219237, 0.32495305, 0.13275981, -0.10768508, -0.28652513, 0.4409587, -0.1014358, 0.18812089, 0.26976904, -0.5655738, 0.47879994, 0.10509718, 0.35975778, 0.06805274, 0.5705337},
			{-0.29939136, 0.36732838, 0.3757756, -0.3596325, -0.3671196, 0.38062993, 0.3664792, -0.2620441, 0.35630754, 0.15212326, 0.74642074, -0.41834554, -0.33256528, 0.057618007, 0.67012614, -0.13180019},
			{-0.120082, -0.21588339, 0.47847238, 0.05710025, -0.374066, 0.090269946, -0.61325586, -0.13602759, 0.25291884, 0.26890394, -8.030991e-05, -0.0145632895, -0.15176511, -0.07983626, 0.48299712, -0.11066832},
			{-0.37319735, -0.29111373, 0.088993125, 0.30837765, -0.19328704, 0.42376927, -0.18314925, 0.35370252, 0.5368849, -0.27466404, -0.40814307, 0.009333285, -0.0032486238, -0.1660861, -0.46638608, 0.077335104},
			{0.30799365, 0.12281606, -0.040327378, 0.42660677, -0.050851207, 0.025763988, 0.085991345, 0.51796836, -0.40178168, 0.11890688, 0.47283813, 0.24920845, -0.32130522, 0.015061638, 0.39908507, -0.5784282},
			{0.23860833, -0.4845952, -0.062410038, -0.2538937, -0.12230983, 0.6057927, 0.10992567, 0.04489608, -0.021302875, 0.51008636, -0.30169225, -0.14328605, -0.5363459, -0.081490375, 0.019179339, -0.24933006},
			{0.09605178, -0.09454879, 0.4174469, 0.3415378, -0.3539328, 0.529158, -0.52666837, -0.14884567, -0.33114812, -0.17979375, 0.110322736, 0.7459584, 0.4691055, -0.10794981, 0.5111476, 0.27097866},
			{0.025315437, 0.5086317, 0.32204828, -0.25918972, -0.3271706, -0.050485767, 0.2887096, -0.15844223, 0.41409558, 0.27974603, -0.08059281, -0.07404592, 0.1365227, -0.14886092, 0.20331435, 0.3482911},
			{-0.21958579, -0.12761974, 0.5738394, 0.5118924, 0.33615676, 0.57128173, 0.19588487, -0.019412052, -0.4702803, 0.43227676, -0.5100108, 0.3487273, -0.53549075, -0.43607664, 0.39055023, -0.69043887},
			{-0.0081780935, 0.060184117, 0.006748148, 0.5882844, -0.2779745, 0.3032007, -0.54161304, 0.1928711, 0.22416641, 0.121441446, 0.13723046, 0.102469616, -0.05318865, 0.2624586, 0.2446318, 0.14043152},
			{0.49546206, 0.0807754, 0.17698538, 0.05770441, -0.28140265, -0.10002421, -0.14705998, 0.26821068, -0.43484747, 0.099015534, 0.34447646, -0.27359438, 0.5735778, -0.3131644, 0.4979505, 0.19199784},
			{0.23331939, 0.0013153219, -0.4556347, 0.19065377, -0.38221264, -0.016922697, -0.20472461, 0.18506281, 0.3916415, 0.21207581, -0.3405588, -0.11943206, -0.11408682, -0.40334684, -0.5148073, 0.1713339},
			{0.3689083, -0.43947235, 0.17591093, -0.12022545, 0.07275713, 0.5530555, -0.23183466, -0.47852778, -0.18177585, -0.57528913, 0.30249193, 0.42461985, 0.30836076, 0.6094752, 0.73329574, 0.502365},
			{0.1470181, 0.56580496, 0.30146182, 0.17803264, 0.18059333, -0.46215656, -0.036281455, 0.49431768, -0.083232366, 0.7358245, -6.2971754e-05, -0.49334794, 0.4426003, 0.22797173, 0.119680665, -0.28813013},
			{-0.12307351, -0.45148915, 0.53476644, -0.046976715, -0.17967848, -0.12764113, 0.22285965, 0.36117738, 0.66939056, 0.12599736, 0.14145705, -0.103236325, 0.40218687, 0.29749122, -0.026075162, -0.24297589},
			{-0.32410076, 0.32087085, 0.039770417, -0.16570337, 0.37802103, -0.058488745, 0.1907479, -0.0060766316, 0.050441787, 0.3862809, -0.12130043, 0.5135773, -0.10463192, 0.5658789, -0.107794486, -0.6655261},
			{0.3322099, 0.09717627, 0.3041043, 0.45617723, -0.37919006, 0.31113994, 0.24421097, 0.34425604, -0.43429083, 0.3871066, 0.30479515, 0.3145703, 0.18241507, 0.33493844, -0.3536898, -0.69606745},
			{-0.28570077, 0.10718015, -0.14542364, -0.012733919, -0.23507942, 0.100755125, 0.38364044, -0.111941114, -0.038111083, -0.14157946, -0.19340488, -0.33227053, 0.34765115, 0.15681364, -0.11159097, -0.24679653},
			{-0.3271577, -0.08959148, -0.25461268, -0.5161684, 0.183872, -0.26877996, 0.5127886, 0.06034143, 0.45997503, -0.52773696, 0.5725432, -0.24960126, 0.2749806, -0.2875559, 0.17588566, 0.1843889}};

	const float layer2_weights[n_layer1][n_layer2] = {{0.098028466, -0.3037676, -0.2865227, -0.08180975, -0.18622611, 0.18415412, -0.02380768, 0.50465876, -0.0057417974, -0.047243122, 0.43359482, 0.4667216, -0.32463217, 0.47114658, 0.112542175, -0.18557002, -0.122365244, 0.4018796, -0.13789475, -0.116429254, -0.06761807, 0.3816764, 0.23796354, -0.45508963},
			{-0.42343932, 0.17317295, 0.28041098, 0.26722488, 0.01119937, -0.39096713, 0.2290078, 0.14792417, -0.17066409, 0.29702818, 0.10040754, -0.15596855, 0.028397713, 0.29073194, -0.18380247, 0.425426, 0.012387015, 0.12414979, 0.19065277, 0.25047797, -0.26842672, 0.27204332, -0.17084765, 0.33541757},
			{-0.35350347, -0.09895935, 0.45666355, 0.4960441, -0.25817963, -0.030890707, 0.20443535, -0.22743215, 0.007884864, 0.5320389, 0.37879777, 0.11462583, -0.39595753, 0.26625067, 0.20987535, 0.24299702, 0.124272294, 0.5888448, -0.4430288, -0.08114935, 0.04500181, 0.3821371, -0.19650511, 0.14050439},
			{0.40317246, 0.43321323, -0.005162825, 0.14368008, -0.27587688, 0.43369633, -0.116173424, 0.30935812, -0.040242616, 0.29305604, -0.33267352, -0.070299335, 0.3549207, -0.28297317, 0.11449869, 0.2580893, 0.34272775, 0.37818146, 0.23630723, -0.112751834, 0.27980766, -0.08869454, -0.16585813, 0.1243344},
			{-0.15458706, -0.11123622, 0.19649912, 0.24372937, 0.25215468, 0.3075991, 0.14912121, 0.17275275, 0.17481636, 0.025288112, 0.327494, 0.41337338, 0.43816355, 0.09704336, -0.1872019, 0.59494627, -0.17617808, -0.11928181, -0.10826603, 0.33642823, -0.307189, -0.2023551, -0.08402402, 0.34142873},
			{0.2432763, 0.42154598, 0.13677883, 0.16222523, 0.17234324, 0.17059152, 0.32987046, -0.24455687, -0.34722027, 0.3721395, 0.021932459, 0.40601188, 0.31883624, -0.106805705, -0.027333263, 0.12534527, 0.1496651, 0.18301146, -0.43162242, 0.020827442, 0.43440095, 0.45361945, 0.24358638, -0.013372195},
			{0.09554966, 0.09259583, 0.14098622, 0.006384574, 0.2471074, 0.46314728, 0.4329026, -0.08129226, 0.2102917, -0.3906438, 0.25370273, -0.020671792, 0.34362572, 0.49277994, 0.23120646, 0.46167356, -0.3151214, 0.41560856, 0.2941423, -0.11634499, -0.106277086, -0.31730667, 0.20082323, -0.020675523},
			{0.12483037, 0.1766696, 0.082177795, 0.27557874, 0.17865373, -0.26384103, 0.13011003, 0.18972613, 0.29682302, -0.004955457, 0.46053958, 0.13290757, 0.027379703, 0.00043535986, 0.17721996, 0.19686694, 0.22901031, -0.037095934, -0.22841944, -0.11994847, -0.26859128, -0.24389735, -0.14892974, 0.124460176},
			{-0.16535272, 0.15428725, 0.03417992, -0.1493407, 0.10268698, -0.019271618, -0.67702967, -0.095659584, -0.20661134, 0.33633792, 0.5023368, -0.63770676, -0.38826653, -0.20790331, 0.04547814, 0.05883997, 0.49680474, 0.18387073, 0.35083562, 0.044746038, -0.0679152, 0.43875396, 0.09591785, -0.43479532},
			{0.07922339, 0.12563752, 0.29252097, -0.12758014, -0.13916522, -0.7505547, -0.112490065, 0.19895561, 0.4088149, -0.34844738, 0.18141831, 0.1475021, -0.4209691, 0.0060340073, 0.06994024, -0.24052052, 0.3846256, 0.33203328, -0.63654906, 0.46484438, -0.75242025, -0.1357822, -0.31121704, 0.24324527},
			{-0.063761644, 0.43301618, -0.24680012, -0.36492896, -0.006062347, 0.23061132, -0.33642238, 0.029571299, -0.27514103, 0.15582424, -0.19269347, -0.08371087, 0.33662024, 0.052067947, -0.4354029, -0.054440346, 0.04661534, 0.32082143, -0.05744324, 0.11313836, 0.31192523, 0.45713016, -0.37229142, -0.30954528},
			{0.19747855, -0.286872, 0.31675366, 0.46176514, -0.3059065, -0.023568144, 0.32764536, 0.42419142, 0.33650774, 0.38436532, -0.32132265, 0.4712999, -0.01584372, 0.07321892, 0.35854602, 0.24203151, -0.26516107, 0.07490714, -0.062085744, -0.023377055, -0.17914099, -0.08775418, -0.24381949, 0.2729793},
			{-0.44774398, -0.16684352, -0.49593934, 0.16016175, -0.19826843, -0.22090541, -0.36150768, -0.2949572, -0.008547233, 0.22015773, -0.053648185, 0.57172227, -0.23315623, 0.51369184, 0.59964305, -0.07190444, 0.45178738, -0.44830444, 0.01827157, -0.6570471, 0.14714985, 0.26421297, 0.2531859, -0.3229746},
			{0.3772881, 0.6706029, 0.19285493, 0.23573777, 0.19396663, 0.39181986, -0.34795517, -1.0967402, -0.42227903, -0.21126786, -0.44675708, 0.5166458, -0.547221, -0.6573854, 0.35877362, -0.69432, -0.369285, 0.6537648, -0.828141, -0.89840204, 0.60320455, 0.114045665, 0.036639564, 0.29200545},
			{-0.82197154, -0.8099833, 0.23865859, -0.24694797, 0.24852537, -0.07136049, -0.15827495, 0.36412352, 0.5978201, 0.21884313, 0.6623632, 0.481884, -0.5288658, 0.62282056, 0.38922128, -0.84321177, 0.0609862, 0.38820937, -0.10490199, -0.15359944, 0.48284027, 0.43100885, 0.013093431, -0.8248225},
			{-0.25907254, -0.07008994, 0.15666002, -0.20015733, -0.11153003, 0.39233518, 0.3030604, 0.24291152, 0.21322218, -0.31880718, 0.07417425, -0.33362755, 0.34097153, -0.08086148, 0.22281353, -0.16293225, -0.009881101, -0.5775478, 0.3648539, 0.19445062, 0.0194704, -0.21673988, -0.22185312, 0.3900076},
			{0.11876599, -0.13992572, -0.16894779, -0.206862, 0.0891095, 0.1500736, 0.25213286, 0.30165145, 0.15327312, 0.09123243, 0.097385466, 0.105292544, 0.031661, -0.17905492, 0.19483592, 0.07606281, -0.21323419, -0.32779413, -0.22133136, 0.07580874, 0.34897232, 0.47387522, 0.14788762, -0.25498497},
			{-0.11729472, -0.11687144, -0.41390887, 0.4548047, 0.12971857, 0.02495281, -0.088451765, 0.014007068, 0.40462103, -0.32408053, -0.17312932, -0.06061044, -0.35193673, 0.049420606, 0.44091365, -0.26681533, 0.4251558, 0.19589107, 0.23358192, 0.3432356, -0.38308787, 0.3695806, 0.12266595, -0.29175925},
			{0.28258136, 0.31992373, 0.30763754, 0.09677526, -0.1743638, 0.3831164, 0.18340965, -0.06878579, 0.261468, 0.27428946, 0.16130088, -0.19358179, 0.35600847, 0.3199171, 0.12396304, -0.10720578, -0.17563161, 0.007365598, 0.28326514, 0.42002538, 0.13197345, 0.30117702, -0.2895558, 0.2837413},
			{-0.16001916, 0.24327262, 0.7364192, -0.009816509, -0.058684003, -0.5318676, 0.64630866, -0.2312722, -0.49478456, 0.34761736, 0.6007006, -0.34077066, -0.5150062, -0.1342513, 0.013521173, 0.016263958, -0.10421791, 0.5427044, -0.1221472, -0.6016653, -0.56483144, 0.27901268, -0.06985755, 0.039970558},
			{-0.09060303, -0.37921345, -0.39959893, 0.46553764, -0.27822477, -0.20753044, -0.23895393, -0.36356777, 0.38665095, -0.086746015, -0.3587251, 0.41313398, 0.04314667, -0.14308669, 0.17380367, -0.113820806, 0.12553567, -0.34745786, -0.31450936, -0.2723545, -0.106747165, 0.29181758, -0.12750222, 0.16515163},
			{0.032815102, -0.17962979, -0.0072831744, 0.44331, -0.039688244, -0.1380586, 0.16920997, -0.24112292, 0.40879813, -0.3243961, -0.38169548, 0.3093496, 0.32737797, -0.055411514, 0.071268834, -0.30895114, 0.07881469, -0.36425972, 0.1851013, 0.30157965, 0.18233563, -0.03551895, -0.09423918, 0.24930252},
			{0.2684747, -0.07762141, 0.31528518, -0.4973754, -0.27988124, 0.021166429, 0.28952754, 0.29937035, -0.091245756, 0.40636963, -0.023286793, -0.2744854, -0.0041747335, 0.4556403, 0.26727846, -0.027702745, 0.44042307, -0.5594257, 0.22271922, 0.3656248, 0.46939465, 0.14462392, -0.31405747, -0.14091635},
			{0.15117073, 0.1516106, -0.08398624, 0.050091647, -0.1919056, -0.38982707, -0.19231127, 0.005766974, 0.24607027, -0.0380333, 0.35331866, 0.22226295, 0.011856796, -0.062786624, 0.1785725, 0.5095017, 0.20900434, -0.11836952, 0.20128709, 0.18404631, 0.09568915, 0.36987832, 0.14195989, -0.1595494},
			{-0.41617092, -0.11967241, -0.4440281, -0.27306062, -0.13654137, 0.52564365, -0.0031698283, -0.15065248, 0.2242356, -0.01697128, -0.35126215, -0.18575148, -0.08193353, -0.006464229, 0.085094616, -0.28046295, 0.17562021, -0.1192834, 0.007153542, 0.3647401, -0.17679031, -0.20384678, 0.09085106, -0.26240984},
			{-0.55561155, 0.062018696, 0.23501797, 0.41680673, 0.06489881, 0.21836367, -0.3695502, -0.52270454, 0.47898653, -0.14333238, 0.46860132, -0.31457257, -0.3692472, 0.08893842, -0.32442924, -0.6814992, 0.15544301, -0.2249345, -0.507636, 0.53619707, -0.17092678, 0.07069167, -0.18973376, 0.34150657},
			{0.44891733, 0.30924094, 0.28852692, -0.32307255, 0.07485925, 0.59584254, -0.29826626, -0.18036221, 0.12153628, -0.562133, 0.16513318, -0.12945832, 0.29905397, 0.3286217, -0.7101501, -0.66326725, -0.070341736, -0.038856134, -0.36353537, -0.12716924, -0.08232703, -0.22957042, -0.026623726, 0.14799988},
			{0.1022291, 0.32897398, -0.21657631, 0.11706133, -0.22456543, 0.005983954, 0.027652008, 0.16215947, 0.4373439, -0.3416308, 0.23313886, -0.08064146, 0.46642977, -0.2931863, 0.023241976, 0.44973105, 0.3744082, 0.30231714, 0.36890018, -0.043267492, -0.171521, -0.24291654, -0.17422146, 0.240665},
			{-0.1604475, -0.1614065, -0.12316928, 0.2961429, -0.24198464, 0.23867182, 0.09809119, 0.27109754, -0.0056015197, 0.2056481, -0.2111643, 0.4654328, 0.37725016, -0.07692463, 0.38186878, 0.10223165, -0.29037246, 0.12151638, -0.14835244, 0.45461974, 0.11979822, 0.00866745, 0.008813567, 0.019630177},
			{0.72009796, 0.40571186, 0.1822565, -0.62242585, 0.2957299, -0.009104552, -0.40805784, -0.053934727, 0.25208104, -0.5394377, 0.122287296, -0.17549011, 0.0043370505, -0.28872982, -0.084462926, 0.18010859, 0.075345024, 0.2993805, -0.052548926, 0.5564303, -0.291293, 0.07732772, -0.14406234, 0.12734053},
			{0.18866403, 0.41664505, 0.4610086, -0.49233356, -0.17736201, 0.3323098, -0.39089096, -0.34339657, -0.50932205, 0.13676535, -0.16447324, 0.2632926, 0.33526665, -0.19101246, -0.06492714, 0.5294678, 0.40167293, 0.15470107, 0.053230368, -0.70065594, -0.2850428, -0.190632, -0.058916032, -0.18198106},
			{-0.29338044, 0.2104633, 0.08594183, 0.34743196, 0.13802557, 0.2911304, 0.018490158, 0.2912633, -0.17562431, 0.35716596, 0.018445222, -0.10967996, -0.044449795, -0.28584775, 0.20728068, 0.12465782, 0.12132253, -0.5374085, 0.31562597, 0.068035826, 0.24105208, 0.09981759, 0.24304453, 0.09602642}};

	const float layer1_weights[n_inputs][n_layer1] = {{-0.031460084, -0.15390447, 0.18805726, 0.08067772, -0.19999354, 0.33955163, -0.099163264, -0.0672173, -0.11161049, -0.4621566, 0.047985297, 0.35117567, 0.5091583, 0.25461712, -0.27740255, -0.25049028, -0.07741473, 0.059700083, -0.05120714, 0.22884323, 0.49970207, -0.026885098, -0.06728369, -0.3302052, -0.13796669, 0.2821732, 0.241983, -0.4670524, 0.004629466, -0.31114313, 0.10161639, 0.12828189},
			{0.020029735, -0.26518944, 0.10464556, 0.1811869, -0.26066646, 0.28010544, -0.13909486, -0.2042973, -0.079221725, -0.24844544, 0.031777397, -0.16715117, 0.21477786, 0.18309925, -0.3749157, -0.09563478, 0.08978961, 0.010768341, 0.08861866, 0.10346843, 0.23740289, -0.07559034, 0.13229895, -0.5415861, 0.04555525, 0.36937046, 0.5537347, -0.3582895, -0.14226104, -0.3892216, -0.07324422, 0.104755215},
			{-0.07934685, -0.07415412, 0.19030505, 0.22153683, -0.1999486, 0.12525874, 0.07009809, -0.10583169, -0.18639, -0.101770096, -0.034898736, -0.051007923, 0.09109794, -0.04997601, -0.43522486, -0.10926132, -0.052227523, -0.26564845, 0.11171806, 0.25694335, -0.08774008, -0.072671905, 0.07890681, -0.19401172, -0.13998106, -0.07561582, 0.28673822, -0.12932608, -0.3124067, -0.13401745, 0.4477473, 0.122906245},
			{0.2229534, -0.36531317, -0.09538655, 0.16955124, -0.1288722, 0.028479215, 0.076023236, 0.086170256, -0.076567106, -0.19723591, 0.15851502, -0.15602823, 0.19072218, -0.048040602, -0.30463976, -0.0937381, -0.12273345, -0.12307543, 0.16286941, 0.11634397, -0.11270342, -0.12584361, 0.06985472, -0.12541966, -0.04269113, -0.043436248, 0.5433042, -0.19580692, -0.23778576, -0.020937411, 0.25819686, 0.10210395},
			{-0.18444143, -0.106898546, 0.03435063, 0.17900714, -0.11797542, 0.12667027, -0.15863012, -0.11360173, 0.10210992, 0.07795766, 0.16395019, -0.26698983, -0.026330454, -0.411668, -0.48873425, 0.22622526, 0.07450284, -0.069887586, 0.4153298, -0.33105376, -0.09912956, 0.2769889, 0.4107443, 0.2129033, 0.27956948, 0.38933238, 0.31550577, -0.025984773, -0.16935122, 0.14399907, 0.24285002, 0.33242506},
			{-0.31718606, -0.018267017, -0.017201535, 0.16491637, 0.24942474, 0.02371837, 0.049075656, -0.032135848, 0.007344375, 0.2313568, 0.009795689, -0.2273373, -0.32478258, -0.4287354, -0.5724518, 0.560148, 0.06951127, 0.03785133, 0.4108333, -0.2811893, -0.3463537, 0.37624082, 0.4199715, -0.038959946, 0.30973387, 0.51922274, 0.5311863, 0.13324302, -0.33780378, 0.052076366, 0.10586486, 0.32586497},
			{-0.30172998, 0.3408168, -0.1194543, 0.014010015, 0.2199309, -0.09183227, -0.00015171648, 0.1470921, 0.21719335, 0.43073815, 0.2620219, -0.28500295, -0.27496687, -0.17705047, -0.40758172, 0.5117448, -0.14384297, -0.023099273, 0.3807523, -0.050691713, -0.4707059, -0.026059102, 0.27265438, -0.03182725, 0.22368896, 0.5097143, 0.5127326, 0.19524935, -0.2807747, 0.2941546, 0.29880133, 0.068282075},
			{-0.5388592, 0.13883886, 0.003225632, 0.2467564, 0.12915543, 0.091075875, -0.0014648566, 0.095883355, 0.3258004, -0.034959268, 0.25712687, -0.24371794, -0.33431596, -0.3495448, -0.57636976, 0.40008208, -0.11277349, -0.27650854, 0.46251485, -0.33064786, -0.32345632, 0.07253155, 0.44205147, -0.16367313, 0.28720713, 0.617667, 0.5861369, 0.16800566, -0.15102853, 0.10431341, 0.23350057, 0.37307045},
			{0.081450954, 0.15265688, 0.07647572, -0.036111232, 0.20556837, 0.15412532, 0.16670766, 0.11929704, 0.1774966, 0.37325257, 0.086779304, -0.05808278, -0.29409346, -0.24285641, 0.033627424, 0.22253822, 0.008864161, 0.057295486, 0.23998854, 0.04902377, -0.33395585, 0.13867061, 0.3041427, 0.008593428, 0.04935296, 0.36372352, 0.16669486, -0.03978231, -0.18437539, 0.08486535, 0.16444024, 0.14396758},
			{-0.2124576, -0.014957263, -0.1850667, 0.17652549, 0.093024485, -0.17021719, 0.29932195, 0.1403312, 0.34361285, -0.0665661, 0.13491571, -0.38164338, -0.3868346, 0.12167916, -0.31823418, 0.35748607, 0.14256647, 0.11235625, 0.17668907, -0.5863891, -0.21952209, 0.20552596, 0.35424134, -0.29809144, 0.38078877, 0.47490343, 0.30423632, 0.29250053, 0.01391296, 0.152153, -0.253396, 0.204403},
			{-0.3387905, 0.05421238, -0.04321739, 0.16547693, 0.08003377, -0.050629515, 0.32455993, 0.17387813, 0.26212305, -0.0030708837, 0.020511126, 0.054033387, -0.21172257, 0.08807476, -0.36034298, 0.35392642, -0.13988031, -0.0066353586, 0.370075, -0.43844536, 0.086371854, 0.43974996, -0.075354375, -0.117224686, 0.5356899, 0.35995066, 0.45957768, 0.14693414, -0.018200327, 0.22275169, -0.49125734, 0.014507357},
			{-0.36604822, -0.09502223, -0.12121087, 0.11787369, 0.2578845, -0.26707894, 0.20951994, 0.17995895, 0.33258572, -0.045703672, 0.16789396, -0.36688176, -0.31408074, 0.24541388, -0.62082875, 0.46601552, -0.13387565, 0.17689796, 0.37959707, -0.5842634, -0.102134235, 0.21685828, 0.21165533, -0.038612902, 0.53375995, 0.37980348, 0.54798067, 0.27516404, -0.12358653, 0.3073813, -0.26833662, 0.10682202},
			{-0.09942745, 0.18947038, 0.06450659, 0.105125114, 0.20676336, -0.09842573, 0.18403071, -0.0021985758, -0.07420472, -0.14469454, 0.026378686, -0.02827732, -0.32140413, 0.25743175, -0.53602684, 0.379516, -0.0034022394, 0.18161038, 0.487254, -0.6729751, -0.033053793, 0.4499093, 0.007104452, -0.39747956, 0.3562959, 0.5993001, 0.31086424, 0.0016393493, 0.1997967, -0.097734824, -0.4308369, 0.22166859},
			{0.33368286, 0.29842055, 0.27615762, -0.32460955, 0.2940689, 0.045764767, 0.4898126, 0.23462299, -0.55342466, 0.2892398, -0.49138597, 0.31045812, -0.51938, 0.03270122, -0.2603167, 0.38718605, -0.078052536, -0.46645316, 0.55612344, 0.040134262, -0.52820605, 0.17922385, -0.06506397, -0.40956977, -0.17022048, 0.22248976, 0.3268063, 0.122951694, 0.124289624, 0.011576045, -0.29738975, -0.51780945},
			{0.088131435, 0.38516203, 0.21440056, -0.43060705, 0.3983853, -0.01950956, 0.51070064, 0.29586378, -0.32562673, 0.16557235, -0.2661578, 0.23515679, -0.6157469, 0.08338098, -0.15600596, 0.31737208, -0.23774844, -0.33342066, 0.5284336, 0.075601414, -0.47159466, 0.1604076, 0.21075429, -0.20571178, -0.38913625, 0.17257144, 0.07737509, 0.30703494, 0.1277165, -0.11210116, -0.40084878, -0.41639802},
			{0.1919565, -0.2894848, 0.058357574, 0.15396148, -0.30300224, 0.170601, -0.41554865, -0.107718766, -0.26635566, -0.38475052, 0.14766125, -0.12202337, 0.6128643, 0.02162682, -0.022613201, -0.24040784, 0.083187096, -0.1049339, -0.22022232, -0.05171562, 0.40163362, 0.01857783, 0.09248394, -0.38085938, 0.11053895, 0.23815566, 0.18897878, -0.41839418, 0.030028077, -0.25227803, 0.042304303, 0.0127208065},
			{-0.20539103, -0.20674331, 0.17576641, 0.123909436, -0.32464674, 0.35275254, -0.18556182, -0.01558959, 0.06625519, -0.38910457, 0.02745108, 0.13822229, 0.3254399, -0.02375253, -0.38210627, -0.29552004, -0.08472399, -0.048842464, -0.25392777, -0.009643078, 0.3860185, 0.25775886, -0.17818569, -0.24639295, -0.020130906, -0.0012501951, 0.14014332, -0.16857372, 0.18701011, -0.29615757, 0.2956153, 0.1952787},
			{-0.13270822, -0.08866014, 0.20889282, 0.40099517, -0.401594, 0.40609357, -0.3893689, 0.07570581, -0.13753903, -0.3267383, -0.09410074, 0.189191, 0.33674276, -0.010968632, -0.21398085, -0.22470385, -0.18641073, -0.30344027, -0.09537211, 0.24247947, 0.23537202, -0.02693387, -0.18032424, -0.27803698, -0.33160833, 0.13200589, 0.25733268, -0.23902726, 0.031618085, -0.23207003, 0.59935576, 0.06059557},
			{-0.1406674, -0.2946411, 0.12826471, 0.23017211, -0.21246198, 0.3138741, 0.0034414453, 0.08252603, -0.2127139, 0.12230356, 0.034318417, -0.04395374, 0.014707504, 0.14760247, -0.17995654, -0.49566165, -0.19207309, -0.26437917, -0.021118423, 0.3131739, 0.02204275, -0.28979242, -0.17515406, 0.12206109, -0.47354957, -0.16096748, 0.23471968, 0.08429935, -0.23785695, -0.0966008, 0.6120913, -0.1797687},
			{-0.2867616, 0.03321761, 0.11568605, 0.3640213, -0.09029873, 0.3794562, -0.10905114, -0.07880622, -0.057992447, 0.083774984, 0.09139383, -0.105650656, -0.5048693, 0.082319334, -0.547812, 0.01742308, 0.2440021, -0.44983804, 0.052700765, 0.09249321, -0.3078278, 0.0045789327, 0.4116309, 0.30315596, -0.4159599, -0.14658578, 0.33459494, 0.009991069, -0.17789668, -0.06877096, 0.30201054, 0.014703055},
			{-0.15335073, 0.19718093, 0.06829772, 0.25277895, -0.22607051, 0.17393517, -0.35712844, -0.08786123, -0.0746787, 0.272256, 0.3959066, -0.22818244, -0.5987352, 0.09450509, -0.496528, 0.14416412, 0.30617917, -0.44328046, 0.30898362, 0.14900991, -0.31318653, -0.33269465, 0.36291403, 0.41297737, -0.25671825, -0.23172174, 0.040795363, -0.19807604, -0.29075307, -0.18718237, 0.34876123, 0.30797118},
			{-0.21189699, 0.14870976, 0.29628032, 0.27915612, -0.30430305, 0.2770788, -0.38292617, -0.05288762, -0.33871028, 0.16545129, 0.22521055, -0.068025865, -0.42650118, -0.17823558, -0.22623365, 0.0264484, 0.26469666, -0.57196414, 0.25447962, 0.12375647, -0.15681191, -0.20673864, 0.48376352, 0.1494088, -0.57707083, -0.1323952, 0.21444027, -0.2904554, -0.2778286, -0.14581774, 0.30834636, 0.37737665},
			{-0.400952, 0.21417117, 0.09209838, 0.28929153, -0.100163735, 0.27441043, -0.32100877, -0.16401361, -0.19238879, 0.42843452, 0.10130287, -0.18484974, -0.55005324, -0.16799201, -0.23680815, 0.07594414, 0.2340797, -0.371149, 0.18710756, -0.12377177, -0.13222858, -0.25254998, 0.08553186, 0.3480914, -0.28773293, -0.41388065, 0.23358276, -0.09992152, -0.09507435, -0.045498725, 0.0928387, 0.10231714},
			{-0.10546425, -0.040068813, 0.0478548, 0.10113024, -0.29101378, 0.21883883, 0.026081469, -0.12246131, -0.12889831, 0.1853653, 0.2089488, -0.0721856, -0.5354957, -0.46782768, -0.013145191, -0.026017705, 0.0657009, -0.26636568, 0.0799747, -0.06070338, -0.27205938, -0.064873636, -0.02286413, -0.01025196, -0.30617443, -0.20827472, 0.007195996, -0.11300718, -0.10215614, -0.18405223, 0.12982087, 0.051960222},
			{-0.31760973, 0.2549469, 0.0239719, 0.23038366, -0.17676963, 0.2542671, 0.11939108, 0.06888121, -0.14638756, 0.28361812, 0.21905257, 0.03459057, -0.24421072, -0.3796408, 0.12681739, 0.1592539, 0.025332835, -0.24770339, 0.29181665, 0.20411743, -0.1031754, 0.0062611196, 0.050224748, -0.2157249, -0.16805114, 0.21936853, -0.041600786, -0.042236608, -0.015740931, -0.03744995, 0.23856215, -0.078489915},
			{-0.28174815, 0.29888743, 0.023268778, 0.09380599, -0.21641652, 0.32710692, 0.46572363, 0.13206908, -0.37866667, 0.3220645, -0.07546782, -0.13649991, -0.4480327, 0.13307264, -0.24191591, 0.09749296, -0.052197076, -0.50784844, 0.2726708, 0.08331388, -0.27450085, 0.19222371, -0.05736309, -0.07178111, -0.28126335, 0.1595769, 0.09200124, 0.23351812, -0.16557479, 0.084619775, 0.011864699, -0.18400884},
			{-0.16678528, 0.19822773, 0.1799932, 0.122042045, 0.20936958, 0.12556645, 0.41225797, 0.20314972, -0.0680352, 0.06724683, -0.12790547, -0.16134065, -0.24689627, -0.19516316, -0.5854104, 0.2824253, 0.004544984, -0.28388128, 0.29531163, 0.28002208, -0.3421988, 0.24465676, 0.3977063, -0.095996335, -0.16830488, 0.1616849, 0.23584731, 0.09950554, -0.10860055, 0.22168691, -0.009673708, -0.17375956},
			{-0.2776116, 0.36763594, -0.05124263, 0.1256138, 0.16683549, 0.06553404, 0.37974346, 0.36329383, 0.027296623, 0.46573025, 0.063282244, -0.28841257, -0.29622158, -0.07151023, -0.5655237, 0.34800142, -0.10744172, -0.1494181, 0.36487845, -0.12631842, -0.41758552, 0.25965983, 0.40785792, -0.06650002, -0.15416746, 0.16519496, 0.5925202, 0.24301681, -0.26120356, 0.34429216, -0.22905374, -0.16267839},
			{0.16402262, 0.18202396, -0.10531315, -0.20937297, -0.007908229, 0.15191928, 0.23792425, 0.042985458, -0.08513937, 0.35336098, -0.040280722, -0.147132, -0.4701538, -0.15661247, -0.38491017, 0.3458512, 0.22446766, -0.26480916, 0.54124224, -0.21535838, -0.4136474, -0.17462403, 0.36688626, 0.09527997, -0.38649443, 0.04509004, 0.18620606, 0.20973471, -0.03610779, -0.010118984, -0.348008, 0.1789669},
			{0.21065263, 0.074196234, 0.09699572, -0.12415234, 0.30733967, 0.04419521, 0.45872268, 0.361364, -0.34033126, 0.18577649, -0.3800114, 0.16565663, -0.3256867, -0.018076733, -0.3660058, 0.3860574, -0.03786495, -0.46894574, 0.31141773, -0.33389986, -0.31531402, -0.02752685, 0.0025830125, -0.17879027, -0.37121052, -0.030235492, 0.0148215685, 0.28819856, 0.19795401, 0.05233065, -0.37160861, -0.27851212},
			{-0.18950427, -0.073117584, 0.400273, 0.17272402, -0.07411879, 0.28049937, -0.010837378, 0.12175342, -0.27577823, -0.26884747, 0.05773671, 0.19845979, 0.11028499, 0.24057375, -0.1948817, -0.15966283, -0.14184543, -0.06843029, 0.006817975, 0.16675968, 0.25219032, 0.18635179, -0.07040106, -0.27616885, -0.074131675, 0.12931104, 0.30568144, -0.27850664, -0.1441305, -0.10551411, 0.1874568, 0.042530224},
			{-0.14132059, -0.12109672, 0.11206761, 0.2762172, -0.38553697, 0.20233919, -0.4057637, -0.13557188, -0.1126588, -0.13058294, -0.070654996, -0.0521773, 0.5884595, -0.049116768, -0.24925552, -0.3254427, -0.30964512, 0.14790583, -0.32665575, 0.16880397, 0.6253358, 0.12804651, -0.37017855, -0.2413931, 0.049837857, 0.15256715, 0.37645188, -0.039101627, -0.088124044, -0.090209596, 0.46081537, 0.25314766},
			{-0.21866684, -0.22543433, 0.15301348, 0.46155697, -0.40943915, 0.30489057, -0.34433678, -0.009824298, -0.34414986, -0.23632899, 0.06646985, 0.037905116, 0.29553974, -0.1789388, -0.49801522, -0.28919527, -0.11386647, -0.07682786, -0.16146845, 0.02111301, 0.32259667, 0.0901692, -0.30317003, -0.18270676, 0.004964447, 0.096881695, 0.23372546, -0.06532462, 0.13107793, -0.1746083, 0.2241232, -0.1590433},
			{-0.16647738, -0.1250396, 0.20111355, 0.26728162, -0.25936493, 0.15539822, -0.2163142, -0.029199613, 0.08758792, -0.30294946, -0.08149597, 0.1966839, -0.24869384, -0.37868077, -0.5388984, -0.23894249, -0.051505495, -0.18473414, -0.2486763, 0.006889922, 0.3261999, 0.2120564, -0.09151741, -0.33227196, -0.20807737, -0.20566292, 0.39800343, -0.04757005, 0.0074417586, -0.249279, 0.35292685, -0.1462734},
			{-0.18005541, 0.11249128, 0.04127483, 0.072126, -0.18044339, 0.06251417, -0.1476082, -0.18685332, 0.12045903, 0.12156952, 0.09830033, 0.17076753, -0.049851615, -0.024993703, -0.673298, -0.102560684, 0.041448336, -0.22621022, 0.060650144, -0.11198481, 0.25680694, 0.013871738, 0.1881507, -0.15948078, 0.042751454, -0.24812904, 0.0855958, -0.10106516, 0.08345464, -0.31364933, 0.14101364, 0.16536534},
			{-0.39696035, 0.03386651, 0.22637802, -0.0024848867, 0.13411441, 0.15347868, -0.27855018, -0.027245956, -0.0620685, 0.3999685, 0.15814322, 0.1779946, -0.16499008, 0.09834233, -0.70560265, -0.051392037, 0.12011502, -0.1411856, 0.01275725, 0.0323219, 0.2406946, -0.017734595, 0.34373355, -0.1663235, 0.027676947, -0.42749703, 0.070593975, -0.17663926, 0.2816032, -0.27032012, 0.18417728, 0.2679204},
			{-0.061174054, 0.095665485, 0.19934037, -0.003376752, 0.20213236, 0.05863128, -0.03798479, -0.24317785, 0.06569069, 0.17612207, 0.14186464, 0.28757215, -0.16834404, -0.24856406, -0.43561703, -0.08380145, 0.30676758, 0.10848743, -0.032386, -0.119170845, 0.08150602, 0.1525663, 0.10153568, 0.0038638005, 0.08432257, -0.18076496, -0.016174087, -0.05287477, 0.09579119, -0.29569462, 0.036270406, 0.072924815},
			{-0.027783066, 0.1366631, 0.07345598, 0.15692127, 0.20865661, 0.1766849, -0.062277876, 0.03268104, 0.008891808, -0.060540315, 0.18542875, 0.14108603, -0.20596388, -0.3194947, -0.21988755, 0.0012023686, 0.27265346, 0.024115644, -0.04140081, -0.07635329, 0.07038961, -0.08913845, 0.15005632, 0.12866619, 0.008656167, -0.16908209, -0.056188285, -0.00840423, 0.11136948, -0.35298142, 0.13499531, 0.08507859},
			{-0.19832255, 0.16767748, 0.20045345, 0.25105998, -0.13891277, 0.18999165, 0.11334367, -0.020907344, 0.22504812, 0.12606764, 0.050257135, 0.14212099, -0.44633147, -0.19373634, -0.08790224, 0.12035886, 0.1215058, -0.20980813, 0.04994623, 0.052303858, -0.12873179, 0.046973113, 0.011905824, 0.0021189952, 0.07945885, -0.25409615, -0.09134208, -0.1268815, 0.35683313, -0.22123672, -0.022129238, 0.26567835},
			{-0.30836812, 0.11911012, 0.19807766, 0.22488973, -0.120294034, 0.14678401, 0.13748355, 0.025805842, 0.10558121, 0.13262255, 0.20833598, 0.22165285, -0.20270745, -0.3230602, -0.08001688, -0.029591542, 0.21889132, -0.07536522, 0.19680867, 0.04932599, -0.18780614, -0.076116756, 0.1396721, -0.010879632, -0.17483036, -0.0773247, 0.008278187, -0.028340617, 0.12589681, 0.009998621, -0.27390203, 0.28273544},
			{-0.114730105, 0.21730423, -0.0073117893, 0.3059641, -0.06396542, 0.11550704, 0.057321604, -0.021416245, 0.16960329, 0.22762695, -0.053943608, 0.049250476, -0.07852552, 0.012861296, -0.095984906, -0.00019062652, 0.020013526, -0.16830654, 0.19519407, -0.082638755, -0.31636268, 0.26761, 0.05573228, -0.07239173, -0.12810494, -0.21653077, 0.10783765, -0.024406562, -0.010298567, 0.16635187, -0.35098928, 0.13492376},
			{0.18504739, 0.19859214, -0.008251802, -0.025129734, 0.15121385, 0.023059212, 0.30774382, 0.14309224, 0.10525452, -0.068022765, 0.042592544, 0.07173966, -0.22135068, 0.090968914, -0.23179998, 0.16019468, -0.13616188, -0.20984575, 0.2935724, -0.24282831, -0.23170902, 0.1921131, 0.013086237, 0.018376097, -0.21500999, 0.02042114, 0.06471215, 0.18373804, 0.06735307, 0.14820306, -0.320119, 0.078615636},
			{0.17761585, 0.30497214, -0.14363448, -0.03890833, -0.039540116, -0.1456728, 0.094000585, 0.2769919, -0.0040674107, 0.005187745, -0.040474553, 0.09626284, -0.12435335, 0.14950936, -0.5882137, 0.3105359, -0.21537508, 0.02422581, 0.32377604, -0.23993206, -0.3054574, 0.07531933, 0.20284297, 0.14084618, 0.024145575, 0.30471584, 0.1338795, 0.2651247, 0.075561896, 0.2243831, -0.3706367, -0.12884676},
			{-0.02693335, 0.112298846, -0.21414186, -0.364324, 0.16822557, 0.039845284, 0.31921375, 0.065464206, -0.2805099, 0.13606949, -0.078758895, 0.20953964, -0.28554887, -0.22068243, -0.3712753, 0.42742604, 0.0988956, -0.2580228, 0.32721213, -0.22813915, -0.30361995, 0.070410445, 0.20997849, -0.21055493, 0.008233376, 0.17637177, 0.007796464, 0.12052483, 0.14741282, -0.05204676, -0.5558006, 0.030129697},
			{-0.031907357, 0.023038818, 0.19987324, -0.24627425, 0.4127919, 0.06601127, 0.35492817, 0.4345384, -0.18482156, 0.16223086, -0.107089765, 0.04085255, -0.40377155, -0.085691914, -0.053080168, 0.32117715, -0.057176724, -0.610022, 0.300753, -0.18025559, -0.33431548, -0.07081358, -0.1404201, -0.14872037, -0.2791519, 0.14049475, 0.052622147, 0.21441063, 0.1145423, 0.13810077, -0.25872537, -0.21502364},
			{-0.1250516, -0.3581243, 0.13143063, 0.24487445, -0.18060528, 0.29234147, -0.18306793, -0.15060575, -0.12944676, -0.3691036, 0.15632825, -0.13813737, 0.39441922, -0.034922898, -0.3219223, -0.26070634, 0.053508, -0.0403292, -0.04352252, 0.056475207, 0.19704887, 0.18354268, 0.03086811, -0.2955606, 0.27780867, 0.064197995, 0.42837045, -0.22684753, 0.15406987, -0.011695847, 0.10637932, 0.12030011},
			{0.055830248, -0.13512532, 0.22688243, -0.0352043, -0.43219456, 0.3426163, -0.4374008, 0.09214192, -0.20371687, -0.29126272, -0.15759596, 0.23822902, 0.40799662, 0.24931048, 0.11036882, -0.3549575, 0.061133873, 0.186878, -0.10301486, 0.18345736, 0.40044552, 0.17915398, -0.09914322, -0.23936012, -0.04658973, 0.33234993, 0.09008377, -0.40352413, 0.033945765, -0.23594801, 0.1265384, 0.018100955},
			{-0.040032733, 0.07962695, 0.27787748, 0.22713968, -0.18598308, 0.27639395, -0.116448626, 0.07160808, -0.25479734, -0.1532208, 0.01698837, -0.024213336, 0.12587932, -0.04705746, -0.4369715, -0.19525973, -0.2399957, -0.08935523, 0.1481447, -0.029075928, 0.26142192, 0.15808286, -0.20249715, -0.36741698, -0.017545026, 0.25494367, 0.3326665, -0.1959849, -0.048514362, -0.005431129, -0.013542396, -0.043003794},
			{-0.0075794132, -0.091745764, 0.15059309, -0.16369513, -0.16891122, 0.12740526, -0.23624174, -0.085044436, -0.1163057, 0.011459874, -0.22422443, 0.1988428, 0.12646042, -0.08096333, -0.34524667, -0.14814754, -0.01521206, 0.006058113, -0.034451667, -0.13797717, 0.1520412, 0.14783478, 0.112210244, -0.36264956, 0.141551, 0.14179477, 0.3013194, -0.18860683, -0.029148873, -0.31247422, 0.08602767, 0.046616662},
			{0.07987195, -0.048642635, 0.078633726, -0.013977062, 0.05492083, 0.17175835, -0.1278593, 0.038415417, -0.032736998, 0.13518083, -0.10454049, 0.010652812, 0.28252712, -0.0068968157, -0.27803293, -0.003478457, 0.059322115, -0.08654592, 0.1328057, 0.050375056, 0.20608579, 0.18784653, 0.14263573, -0.2023093, -0.018447945, -0.03874184, 0.32111052, -0.18275413, 0.19796719, -0.344498, 0.045939498, -0.1161445},
			{0.122707404, -0.1294064, 0.08095783, 0.10103821, -0.027747884, 0.09792568, 0.007282573, 0.15426092, -0.018632254, -0.0021412498, -0.16176963, 0.15192163, 0.14861499, 0.0970733, -0.3209094, 0.019620536, 0.12688404, 0.2934061, 0.07095599, 0.038517684, 0.08571105, 0.12076979, 0.12965111, 0.10209538, 0.08541028, -0.0031458684, 0.16078635, -0.20971577, 0.09545594, -0.30055305, 0.005714919, 0.080216706},
			{0.06192679, 0.11405282, 0.05649652, 0.058989488, 0.06081886, 0.04590899, -0.1129639, -0.03337664, 0.054001782, 0.2212626, 0.03419572, 0.17021629, 0.13354625, -0.20263904, -0.3353528, -0.061737377, 0.12791587, 0.3294779, 0.034126017, -0.041388743, 0.07692268, 0.2201005, 0.042362787, 0.2190915, 0.054784916, 0.0068391655, 0.1937682, -0.09455303, 0.13052052, -0.23937821, 0.11832747, -0.020042809},
			{0.16206773, 0.108734764, -0.01374639, -0.011714091, 0.30028656, -0.05718984, 0.08691501, -0.0023760179, 0.3085552, 0.15593117, -0.13248737, 0.23054446, 0.057506595, -0.07345001, -0.2961623, -0.056182366, 0.030599453, 0.30809122, 0.026485927, -0.13296312, 0.1616872, 0.07107956, 0.14294952, 0.20509401, 0.10846911, 0.08741438, -0.20412318, 0.052776452, 0.26952937, -0.018339336, 0.046446055, 0.0863218},
			{0.13691682, 0.17320499, -0.020449448, 0.17534618, 0.04845232, 0.14094476, -0.06394864, 0.06039069, 0.23767112, -0.009595133, 0.031473406, 0.1304985, -0.002590348, -0.16554177, -0.5100142, 0.03621482, 0.3037266, 0.32263422, 0.061565872, -0.31262186, 0.2974949, 0.26871076, 0.11816862, 0.31883028, -0.00301262, -0.16814034, -0.3113573, -0.06894629, 0.22240263, 0.124022275, 0.08714067, -0.022569295},
			{0.20959747, 0.18762371, 0.028576426, 0.13900301, -0.05661358, 0.17136498, -0.018004173, -0.032270826, 0.28685984, 0.025300516, -0.0018862245, 0.27376014, 0.023902794, 0.09801403, -0.28438324, -0.0054613766, 0.09118605, 0.21202402, 0.050449762, -0.36405686, 0.26342246, -0.031473458, 0.06733336, 0.30913457, 0.091491655, -0.08230521, -0.09307234, 0.050914362, 0.097978875, 0.14496961, -0.40577704, -0.06944829},
			{0.3152356, 0.25205237, -0.036880214, 0.021803156, 0.009076759, -0.1104549, 0.036092423, 0.14142285, 0.21619734, -0.09771005, -0.0733805, 0.08013832, -0.16157618, 0.1257684, -0.05356145, -0.023060096, -0.088497594, 0.20734255, 0.024201479, -0.42899424, -0.062210124, 0.03454788, 0.17241228, -0.024558194, -0.11465759, -0.16217233, -0.20058545, 0.092915, 0.25544032, 0.046408217, -0.5431202, 0.0008667816},
			{0.22380424, 0.041110564, -0.07842641, -0.18492575, -0.06059667, 0.06283387, 0.20079663, 0.1742709, 0.21171506, -0.074301645, 0.10398453, 0.05481482, 0.00863365, 0.19569333, -0.060377065, 0.025848668, 0.17072953, 0.08671335, 0.035791874, -0.19615474, -0.12933898, 0.036544636, 0.11495564, 0.025682596, 0.11756083, 0.09801408, -0.057279047, 0.05059623, -0.011733877, 0.043314867, -0.20570365, 0.10435582},
			{0.025689622, 0.24146424, 0.012452024, -0.073184706, -0.055681884, -0.058339667, 0.26313895, 0.027371328, 0.099591665, -0.017830743, 0.1062299, 0.11121077, -0.3053289, 0.2563854, -0.4119807, 0.07969893, -0.11516791, -0.0026872533, 0.21965283, -0.1855838, -0.30970955, -0.029097617, 0.24060474, 0.14140587, -0.20279357, 0.16939563, 0.07779056, 0.21488643, 0.067736596, -0.06008126, -0.31489253, -0.12825099},
			{0.22669852, 0.115399964, 0.15304086, 0.022140494, 0.1270469, 0.059635706, 0.22348817, 0.23464093, -0.28461704, -0.11884197, -0.3042697, 0.051000945, -0.35235038, 0.05727579, -0.28973863, 0.21810408, 0.09943871, -0.39538485, 0.5202601, -0.119806565, -0.19664557, -0.0016081377, 0.10568417, -0.14560966, -0.2746414, 0.1129308, -0.043434143, 0.35179576, 0.16639568, 0.06316218, -0.10798307, -0.13490322},
			{0.20714648, 0.11135579, 0.2870119, -0.22288933, 0.5289104, 0.07901061, 0.35206732, 0.43967518, -0.620544, 0.19379877, -0.42173755, 0.059261482, -0.18576151, 0.13581376, -0.100399554, 0.11649622, -0.09344744, -0.13726255, 0.52848315, -0.010306027, -0.05833513, -0.10649873, -0.20112512, -0.13312706, -0.37665048, -0.043498803, 0.0037077891, 0.12349419, 0.26296958, -0.006448663, -0.10117914, -0.34335324},
			{0.4095484, -0.42245957, 0.13703647, 0.18187086, -0.503081, 0.50560904, -0.38227546, -0.4736437, 0.023821263, -0.52728784, 0.518941, -0.003402006, 0.68363065, 0.19848995, 0.20009916, -0.59223354, 0.39674747, 0.07028786, -0.19201489, 0.03910921, 0.14201672, -0.33490467, 0.25522667, -0.10098824, 0.13705447, -0.17508033, -0.33894828, -0.5826868, 0.2606538, -0.5382105, -0.0097502805, 0.49215013},
			{0.0998514, -0.18512867, -0.010264564, 0.13057357, -0.43782476, 0.080609985, -0.12798846, -0.28214398, -0.047378782, -0.26384315, 0.06013426, -0.16376309, 0.2528614, 0.0658086, 0.059407543, -0.09103231, 0.012530059, 0.08523589, 0.14378288, 0.19251117, 0.26262447, 0.1908954, 0.0801683, -0.01359198, 0.1304479, 0.22126573, 0.10683766, -0.26191872, 0.062230907, -0.51328146, -0.16103956, 0.25872704},
			{0.07822618, -0.204782, 0.19192006, 0.26841637, -0.28098243, 0.23359184, -0.22245896, -0.021047834, -0.008295261, -0.1803666, -0.18749657, 0.051882118, 0.29884678, 0.051107395, -0.038323894, -0.110917054, -0.14440697, -0.020472089, 0.052590404, 0.11069719, 0.02728582, 0.042796057, 0.045563594, -0.20780586, -0.031321973, 0.23751375, 0.5216112, -0.024879161, 0.042850967, -0.33111018, 0.08772433, 0.28674275},
			{0.1186525, -0.038679805, -0.038279787, -0.0845217, -0.16441208, 0.118260846, 0.11833455, 0.20935488, -0.20538346, -0.093869746, -0.13201594, 0.09024222, 0.38241696, -0.06617237, 0.073169924, 0.04176764, -0.11236363, -0.043653112, -0.17634518, 0.12832013, 0.13364477, 0.03963089, 0.09544937, -0.25885147, 0.11748826, -0.069386065, 0.11834169, 0.060177907, 0.043774318, -0.22322087, -0.082007505, 0.023192374},
			{0.15999557, -0.21234393, -0.08233988, -0.14180732, 0.07006656, 0.04127884, 0.05988863, 0.35682118, -0.30589807, 0.15747225, -0.050722096, 0.14740418, 0.3390274, 0.1986537, -0.19280344, 0.03320061, 0.113806434, 0.17327271, 0.0996038, 0.1495441, -0.025366977, 0.056151588, 0.012099094, 0.15467623, -0.04540408, 0.014928034, 0.08390547, 0.13023607, -0.059357323, -0.40191185, -0.20430106, 0.20476562},
			{0.18328315, 0.010015226, -0.045670975, 0.10427242, 0.045645513, 0.0067697014, -0.03854287, 0.07512907, -0.035763275, 0.2157051, -0.071121804, 0.13422957, 0.22893047, 0.14065234, -0.12988262, 0.1317262, 0.30182758, 0.23919152, 0.25203362, -0.15353215, 0.17054535, 0.10137284, 0.16240063, 0.2341304, -0.027241258, 0.08262601, 0.095593415, 0.06697828, 0.11881669, -0.16878828, -0.0697686, 0.21766727},
			{0.11480427, -0.059097078, 0.037311483, -0.090707205, 0.18917929, 0.0033456301, -0.04339038, 0.21111682, 0.05940604, 0.34122297, -0.099439085, 0.2103815, 0.35403752, 0.33570272, -0.11043641, 0.072854415, 0.21113797, -0.0014989479, 0.17046404, -0.12504329, 0.21444452, 0.15099703, 0.30566207, 0.22167532, -0.11351672, -0.101811, -0.03448493, 0.03761851, 0.08926755, 0.21773167, -0.0026570326, -0.04207586},
			{0.29741687, 0.06664904, 0.14078584, -0.16466515, 0.096346766, 0.14897436, -0.09158595, 0.36731964, 0.10924248, -0.06256307, -0.17211488, 0.2283119, 0.4459226, -0.03859121, -0.46457908, -0.018926654, 0.25441188, 0.07773386, 0.2243662, -0.3718885, 0.21148804, 0.025782557, 0.08755349, 0.29833117, 0.068068095, 0.07992542, -0.35624796, 0.071682796, 0.16857068, 0.15808508, 0.42661443, -0.1125361},
			{0.31616706, -0.02838079, 0.076386414, 0.06199264, -0.008999567, 0.14963974, 0.0040782187, 0.3146035, 0.11979758, -0.10128577, 0.03466831, 0.03181055, 0.30789372, -0.26071188, -0.29077944, -0.2645164, 0.15504314, 0.33701012, 0.0727601, -0.294895, 0.1454741, 0.06487967, -0.12338894, 0.33243605, 0.0036658172, 0.14040962, -0.36638165, -0.08615071, 0.16473313, -0.052371826, 0.22486609, 0.065531395},
			{0.17463021, 0.2812153, 0.091157645, 0.04739476, -0.10826165, 0.024328992, 0.14106195, 0.012261585, 0.40931693, -0.11414469, -0.013788268, 0.13071252, 0.020094117, 0.2641413, -0.13436134, 0.06133318, 0.2057427, 0.26969528, -0.073738895, 0.012560469, 0.29006276, -0.0087524755, -0.07636765, 0.058208738, 0.25336048, 0.08569548, -0.10033769, 0.024680335, 0.21646063, -0.08439655, -0.4573374, 0.09688655},
			{0.079948224, 0.09985431, 0.20437025, 0.12606493, 0.06485949, 0.008175512, 0.0018795984, 0.19592734, 0.27484402, -0.2289026, -0.008202667, 0.17718115, 0.01491673, 0.07617917, -0.05118973, 0.10775273, 0.03195884, 0.2801237, -0.014964312, -0.051468715, 0.07593774, 0.07447633, -0.03650216, -0.07249803, 0.06694373, 0.04703435, -0.1271227, 0.021629866, 0.02466509, -0.20431136, -0.4224453, -0.0049388376},
			{0.26282257, 0.113177486, 0.1931177, -0.08275176, 0.11173873, -0.17572413, 0.03144966, 0.20893049, 0.16709514, -0.18508087, -0.1632779, 0.19089967, -0.06957931, 0.23106633, 0.17544292, 0.20050977, -0.08771887, 0.025091335, 0.088385865, -0.07442747, -0.10955103, 0.11084508, -0.011653861, -0.09802508, 0.16416141, -0.027153667, -0.11123622, 0.030175498, 0.078473315, -0.20872134, -0.0948668, 0.1993606},
			{0.05054234, 0.00019753946, 0.08432389, -0.07407074, -0.06358753, -0.19093922, 0.015398874, 0.08802634, 0.08344372, -0.14040683, -0.23028138, 0.01946274, -0.15141086, -0.023109542, 0.33623433, 0.22748241, 0.141021, 0.07793876, 0.0409104, 0.0050390987, -0.43043882, 0.020059787, 0.17195652, -0.017881693, -0.008774694, 0.2503418, -0.059599016, 0.17915222, 0.08961869, 0.011946815, -0.211911, 0.1698918},
			{0.19509646, 0.17805782, 0.30575362, -0.2356637, 0.18054974, -0.36353117, 0.3781452, 0.27742887, -0.30369276, 0.08195872, -0.3537387, 0.22175929, -0.5291225, -0.4486674, -0.10141118, 0.59328157, -0.18902713, -0.071616456, 0.4450965, -0.14555135, -0.2294482, 0.06376387, -0.08865151, -0.21839233, -0.17725308, 0.23371685, 0.023646913, 0.36291948, -0.048899796, -0.11749806, -0.3005483, -0.27951753},
			{0.11004588, 0.006472543, 0.15901202, -0.277336, 0.537071, -0.024750521, 0.29786986, 0.39344588, -0.56144017, -0.035231445, -0.4313989, 0.27327082, -0.28075632, 0.013671608, -0.0737684, 0.42679417, 0.11650445, -0.28643402, 0.25438806, -0.09028247, -0.1990947, 0.3104324, -0.3970473, -0.25788903, -0.013665794, -0.12584162, 0.028463028, 0.22036423, 0.31003872, -0.034182414, 0.10582101, -0.24803647},
			{0.5027163, -0.5421841, 0.19097438, 0.19523618, -0.5363145, 0.8046629, -0.39606756, -0.72531027, -0.21326347, -0.80850184, 0.7546077, 0.24350998, 0.7841094, 0.48122543, 0.6367663, -0.6723116, 0.776374, 0.17704716, 0.052300718, 0.002663282, 0.27224627, -0.44536674, 0.24366048, -0.1425488, -0.008811303, -0.40478528, -0.46904424, -0.67201173, 0.42817533, -0.53179556, -0.26424235, 0.45203876},
			{0.022583004, -0.22614092, 0.115191765, 0.07783965, -0.5315775, 0.20657647, -0.39127693, -0.25628567, -0.34407803, 0.15189488, 0.02224671, 0.04395932, 0.1731314, 0.34975663, -0.0043612137, -0.19962415, 0.06444023, 0.19065078, -0.3473957, 0.118563056, 0.43627217, 0.14047173, -0.17219499, 0.07237453, -0.03852402, 0.17022285, -0.08375637, -0.09622473, -0.022576207, -0.44076893, -0.053275242, 0.30661613},
			{0.18766499, -0.034948573, 0.08803855, -0.0020359945, -0.13664559, 0.23627688, -0.10919399, -0.08384617, -0.13233727, -0.016270157, -0.011963487, -0.05971802, 0.22993076, -0.00066033116, -0.035505086, -0.09781138, -0.0728648, -0.040959284, -0.08348588, 0.38380325, 0.1999131, 0.18371049, 0.033949293, -0.061334014, 0.040357396, 0.067652784, 0.19349478, 0.05299482, 0.03933907, -0.48352578, 0.00037347228, 0.19341542},
			{0.1559811, 0.07646576, -0.26948893, -0.02653521, 0.12369929, -0.13622795, 0.050742462, 0.059841894, -0.24817425, 0.0046541505, 0.017927522, -0.06759755, 0.30115938, 0.104243465, 0.25601304, 0.166838, -0.059996232, 0.11284271, -0.024863904, 0.18177292, 0.07783061, 0.16559952, -0.103846535, 0.20808747, -0.05029747, -0.21830551, -0.0056111026, 0.18938376, 0.2851351, -0.534518, 0.0364073, 0.1974561},
			{0.246428, 0.1804708, -0.35676306, 0.01280448, 0.35780293, -0.21502352, 0.03515015, 0.070344396, -0.03314241, 0.13240506, -0.03384328, -0.05302958, 0.10408114, 0.34324387, 0.1252618, 0.08584551, 0.020152599, -0.040636744, 0.09205005, 0.19598675, 0.05890752, 0.2502418, 0.14475296, 0.17194001, 0.110415295, -0.06220077, 0.18530928, 0.18867673, 0.07488716, -0.30769542, -0.088115335, 0.16409272},
			{0.20893908, -0.11641211, -0.19130579, -0.06779891, 0.28151608, -0.09167561, 0.2520789, 0.05559246, 0.009813561, 0.49859798, 0.10161253, 0.020499226, -0.016321687, 0.26629308, 0.21126254, 0.2043854, 0.029065361, 0.21738337, 0.2678067, 0.13592063, 0.04944878, 0.16845642, 0.04763395, 0.19330086, 0.07098048, -0.12886822, 0.12819456, 0.109308325, 0.15478484, -0.018354718, 0.13804157, 0.07790462},
			{0.37773064, 0.028968232, 0.03318696, -0.2145944, 0.27248707, -0.11165276, 0.05566957, 0.2074449, -0.07656156, 0.18840879, -0.13949831, 0.0673295, 0.24640131, -0.063116856, 0.25855386, 0.1713064, 0.14185284, 0.06778175, -0.008620423, -0.044788077, -0.010117273, 0.18296854, 0.20140229, -0.02990131, 0.17571475, 0.2672991, 0.082239, 0.2180071, 0.059500273, 0.29423887, 0.27619895, -0.1339108},
			{0.3653532, -0.05274768, -0.02105977, 0.14415184, -0.040966425, 0.04771408, 0.15817559, 0.3771485, -0.2686813, -0.29864666, -0.18984574, 0.07895023, 0.3039235, -0.767182, 0.52976197, -0.16389637, -0.18017592, 0.11245998, -0.03378959, 0.15798776, 0.18864849, 0.25034705, -0.049369395, 0.2218633, -0.07418568, 0.12880531, -0.3429106, 0.10620188, -0.073784016, 0.15189543, 0.4998828, -0.25765786},
			{0.11199375, -0.08930291, 0.10682827, 0.34197196, -0.19081226, 0.091777734, 0.009303967, -0.1579387, -0.10618817, -0.358304, 0.37319237, 0.061899725, 0.2081693, -0.07121099, 0.309529, -0.091843605, -0.27011997, 0.09062773, -0.20628044, 0.34472978, 0.1510234, -0.036661446, -0.25206512, 0.052676, 0.10403172, 0.32868746, -0.2097163, 0.19117233, -0.05381618, -0.117707536, -0.32567036, -0.124155134},
			{-0.13965863, 0.011623417, 0.14360766, 0.2971375, -0.22020382, -0.0348616, -0.028184831, -0.1583918, 0.321288, -0.073052324, 0.07658734, 0.06201596, 0.13084662, 0.09154, 0.13621338, 0.08323566, -0.11424961, 0.17723809, 0.078231096, 0.21977602, 0.006174763, -0.054153565, -0.19786353, 0.069571726, 0.36901003, 0.09010468, -0.0495964, 0.17452529, 0.0905222, -0.34176278, -0.26360977, 0.11928314},
			{-0.06643261, 0.05991582, 0.015454278, 0.23933062, 0.012480504, -0.13882196, 0.09131366, -0.021397186, 0.18110234, -0.18804856, -0.057562392, 0.09182456, 0.16280384, 0.104221925, 0.17871523, 0.1831548, 0.05277269, -0.018309416, -0.1026646, 0.19196902, 0.05890512, -0.048058007, -0.08660927, 0.030714126, 0.32247674, 0.11990221, -0.04630941, 0.2495613, 0.001171076, -0.41094354, -0.116456844, 0.1284656},
			{-0.22503763, 0.06716094, 0.16265294, 0.081588976, 0.15910272, -0.1255666, -0.08690217, 0.12562707, 0.20467573, -0.21895279, -0.05586418, 0.001845926, 0.035984937, 0.24612075, 0.13412699, 0.19423461, 0.06775574, 0.1292019, -0.13400842, 0.18448444, 0.15412304, 0.09029513, 0.11963247, 0.11794529, 0.26196116, -0.15491292, 0.18490317, -0.028662797, 0.09814863, -0.30631894, 0.024317339, 0.12855011},
			{0.11790321, 0.006126035, -0.052303154, -0.057584573, 0.055620488, -0.35196534, 0.11356706, 0.0013813116, 0.23514602, -0.17025797, -0.3865466, 0.1478025, -0.09333081, -0.015557201, 0.18214601, 0.1253166, 0.00931908, 0.21744047, -0.16713521, 0.19230454, 0.06556751, 0.09628803, 0.1304165, -0.0032555512, 0.025525715, -0.094305255, -0.30640897, 0.20394939, 0.13501912, -0.3453393, -0.05516035, 0.30956122},
			{0.15825917, 0.19732618, 0.27163282, -0.3201105, 0.43593225, -0.37456444, 0.41046283, 0.3036282, -0.010546291, -0.026413342, -0.25894517, 0.29085124, -0.29353026, -0.07430435, 0.23099771, 0.48971823, -0.13646807, -0.23785986, 0.13378942, 0.27484584, -0.30865836, 0.16486427, -0.08581576, 0.08214511, -0.3747463, 0.11250303, -0.10110924, 0.11403703, 0.12795961, -0.37872097, -0.2011319, -0.3150121},
			{0.40239918, 0.35189435, 0.39260983, -0.35547754, 0.4865912, -0.38365242, 0.4852154, 0.373449, -0.8126472, -0.0070252265, -0.2700623, 0.4395004, -0.22823308, 0.21087566, 0.6243256, 0.2007677, 0.33242854, -0.106726885, 0.0528876, 0.3056248, 0.020427845, 0.11919311, -0.027964871, -0.28834766, -0.25930357, -0.2314579, -0.15976712, -0.19431856, 0.22776425, -0.2587694, -0.3899682, -0.47808728},
			{0.34924954, -0.51280063, 0.2407019, 0.17084049, -0.6359557, 0.74470764, -0.41311556, -0.5631929, -0.1515119, -0.5410081, 0.784854, 0.06706445, 0.5041788, 0.37925655, 0.21459916, -0.46856716, 0.520901, 0.30681297, -0.15382299, 0.13239488, 0.38438743, -0.2980593, 0.18621208, -0.017076436, 0.2025645, -0.25598156, -0.37883595, -0.6296757, 0.36072132, -0.5494181, -0.14956538, 0.35127968},
			{0.1722732, -0.21900769, 0.35769328, 0.020216284, -0.25798288, -0.016206676, -0.3834122, 0.013947517, -0.39369065, -0.047613066, 0.1182803, -0.01969538, 0.15046374, -0.36016592, 0.08394131, -0.2751079, -0.22885025, 0.2879377, 0.015213097, 0.11660565, 0.32444778, 0.024789719, -0.2591772, -0.14063758, 0.09467515, 0.5230293, 0.033071786, -0.17014061, -0.010787067, -0.36706895, -0.033161737, 0.37346217},
			{0.2533101, 0.056531627, 0.1237443, -0.16634455, 0.1699412, -0.1475774, 0.042285204, -0.048839238, -0.13908851, 0.1317067, 0.022002788, -0.019147174, 0.093393296, -0.039041914, 0.10998509, 0.29016808, -0.36872512, 0.107062526, -0.1187396, 0.041756343, -0.12633575, 0.03879952, -0.27604583, 0.09737527, 0.058579266, -0.25272185, 0.08319735, -0.022685383, 0.16711596, -0.43476582, 0.21161003, -0.10671575},
			{0.2134847, -0.017127803, -0.16340707, 0.023665698, 0.24152179, -0.29910776, 0.25575835, 0.19483283, -0.068011396, 0.2096596, -0.046222087, 0.09132914, 0.061963283, -0.123810455, 0.11639644, 0.15749043, -0.17337978, 0.098949194, -0.0630806, -0.0800804, -0.07988741, 0.2244415, -0.06133038, 0.19077559, -0.00948854, -0.0996097, 0.2015806, 0.3022242, -0.027484186, -0.39978567, -0.1079519, -0.13403594},
			{0.018968804, 0.02375641, 0.002590477, -0.1079157, 0.12786782, -0.3310276, 0.26036146, 0.17062272, 0.048693717, 0.32958347, -0.005149423, -0.11049955, 0.005974706, -0.36867985, 0.1457235, 0.24507715, -0.28823105, 0.07416944, -0.060078967, 0.02092864, 0.16108394, 0.014131349, -0.022735823, 0.20036298, 0.2626208, -0.041648418, 0.26754862, 0.29115036, -0.08168278, -0.088315, 0.11174074, 0.044731032},
			{0.0045953067, 0.14980055, 0.0587929, -0.074441776, 0.21485135, -0.01650264, 0.2284985, 0.18343595, 0.0036049697, 0.1697317, -0.021550018, -0.06147087, -0.05666882, -0.6673247, 0.1752195, 0.057937097, -0.13951638, 0.06729103, 0.022674209, -0.013870863, 0.18245442, 0.18749127, -0.18915346, 0.083464995, 0.16689286, 0.2117998, 0.21460404, 0.16929118, -0.010727043, 0.22734472, 0.025293019, 0.25608143},
			{-0.09670941, 0.31248978, 0.11246694, -0.016487317, 0.20507842, 0.08663271, 0.31831226, 0.1148692, 0.01894526, -0.18693727, -0.070662774, -0.05452073, -0.19740655, -0.674052, 0.35778323, 0.3170474, -0.47039637, -0.05387802, 0.24684003, 0.22068694, 0.017341144, -0.02366434, -0.1584675, -0.15182209, -0.077233724, 0.5216274, 0.13400394, 0.23419312, 0.16605547, 0.29267222, 0.18808557, 0.2655536},
			{-0.08888137, 0.05913408, 0.01856398, 0.32102716, 0.21137193, 0.25236118, 0.121507004, 0.11603809, -0.20781337, -0.6076467, -0.26697, 0.26439148, -0.3418932, -0.31578735, 0.4251215, 0.10690912, -0.2916548, -0.27645046, 0.06793838, 0.27513552, 0.14863168, 0.18949679, -0.18703811, -0.022226334, -0.10520975, -0.046341546, -0.2755409, 0.3095792, 0.049278673, 0.1984733, 0.036790114, -0.13418815},
			{-0.054705784, -0.18363656, -0.25522253, 0.20262946, -0.11109069, 0.02420994, 0.20925191, -0.1682903, -0.55484354, -0.02302073, 0.003979646, -0.046551827, -0.15311578, 0.35243863, 0.03770856, -0.18838485, -0.00097451464, 0.21632732, 0.14154498, 0.27268666, 0.29363093, 0.14060724, -0.19528635, -0.08432812, 0.11472287, 0.13233039, 0.13946284, 0.24312803, 0.121196434, 0.12412407, -0.29928195, -0.13569915},
			{-0.087807655, -0.21735899, -0.04187959, 0.33565935, -0.011257768, 0.0408384, 0.1878906, 0.10255062, -0.2208172, 0.11192435, 0.037386376, 0.18748526, 0.26430944, 0.24277261, -0.024400199, -0.009446246, -0.08880754, 0.3516375, 0.14221454, 0.37396017, 0.24029833, 0.1748383, -0.12859227, 0.016698785, 0.20216064, 0.09284021, 0.03835373, 0.22554031, -0.05904085, -0.19690256, -0.08060172, 0.1486818},
			{-0.04607561, 0.061657116, -0.044066895, 0.17872788, 0.043696165, -0.24192223, 0.1210958, -0.07879942, 0.13754885, 0.06770431, 6.511676e-05, 0.2282124, 0.32974437, 0.23019463, -0.029185068, 0.16410579, 0.1157569, 0.17666529, 0.01603551, 0.18627287, 0.06482391, 0.15825799, -0.038906805, 0.23000163, 0.20409058, -0.14599164, 0.10322071, 0.1755544, 0.17859404, 0.05602142, 0.1573615, 0.26232037},
			{-0.14206427, -0.079714, -0.33411154, 0.22585192, 0.13212779, -0.29287058, 0.044729475, 0.09431279, 0.036683287, 0.021216758, -0.070545465, -0.04214923, 0.16233045, 0.02258155, 0.16594972, -0.04711533, 0.07205443, 0.21229133, -0.2592243, 0.2359199, 0.18117967, 0.1829689, 0.22162507, 0.13140969, 0.25630018, -0.22175685, 0.02261099, 0.33643478, 0.08862342, 0.12997271, 0.16317657, 0.21047723},
			{-0.41267994, -0.093986705, -0.30828565, 0.37981826, 0.10737636, -0.47622624, -0.1375551, -0.083976775, -0.036527347, 0.20536523, 0.030129466, -0.16229871, -0.15395774, -0.0016393093, 0.085042685, 0.1551965, -0.046530247, 0.08394431, -0.27866143, -0.0048359307, -0.05644649, 0.15723771, 0.23718292, 0.19207929, -0.11207403, -0.35280347, -0.055107024, 0.45465592, -0.08596199, -0.19450453, 0.29510152, 0.036050253},
			{-0.04894353, 0.05080949, -0.25440642, -0.017152302, 0.110262245, -0.21985814, -0.0670874, -0.21784928, 0.08598672, 0.10340278, 0.09315564, -0.044253446, -0.42147407, 0.17244293, 0.23694617, 0.19440204, 0.024333188, -0.19019082, -0.10328473, 0.15788195, -0.5053043, -0.18592127, 0.49479008, 0.08235005, -0.17073214, -0.37913328, -0.12879509, -0.024880666, 0.1988173, -0.5250738, -0.09120442, 0.0037460097},
			{0.4365646, 0.106013134, 0.19676939, -0.6913045, 0.5320892, -0.17204475, 0.6319016, 0.028593129, -0.8371443, -0.20755291, -0.45897645, 0.65153486, -0.5263757, 0.07325183, 0.8279322, 0.37723693, 0.6186184, -0.64989483, 0.5963047, 0.1291828, -0.34502852, -0.0439536, 0.11999864, -0.609883, -0.3959973, 0.03835802, -0.3287116, -0.5212126, 0.62074876, -0.54504925, -0.5371972, -0.20616108},
			{0.23920734, -0.052695945, 0.12012046, 0.35000324, -0.58481014, 0.5303008, -0.56758004, -0.5278521, -0.19891551, -0.55670196, 0.6920568, 0.015014708, 0.40574554, 0.24154077, -0.077700175, -0.43771693, 0.2684228, -0.12624873, 0.16629554, 0.15492934, -0.0040985215, -0.07670154, 0.44621608, 0.038619693, 0.31060666, -0.03258284, -0.39039007, -0.40804285, 0.3730453, -0.3804851, 0.042441536, 0.6287645},
			{0.1784068, -0.21598761, 0.09198597, -0.05670677, -0.29388133, 0.24263279, -0.29444835, -0.10981401, -0.10804527, -0.06581202, 0.19444604, -0.15005581, 0.021830628, -0.17935613, 0.055331927, -0.3286378, -0.20567432, -0.043038182, 0.07540943, 0.26356214, 0.23026039, 0.04704693, -0.08873595, 0.0014746605, 0.13835354, 0.23353401, 0.02342148, 0.00048010785, -0.15292531, -0.3077311, 0.11611256, -0.0051187556},
			{-0.36023343, 0.16378736, 0.21807116, -0.23871404, -0.05598995, -0.3355136, -0.20550863, 0.038924776, -0.0823677, 0.2479579, 0.13180318, -0.20017032, -0.24332273, -0.3973748, 0.029186737, 0.2748413, -0.34678295, 0.053273432, 0.014640661, 0.13137451, 0.108527415, 0.2909989, -0.2493581, -0.0051375576, 0.17417307, -0.10430699, 0.1427681, 0.033690292, -0.27098045, -0.35353175, 0.020994013, -0.224754},
			{-0.20253916, 0.21320763, 0.1262916, -0.16598685, -0.0063843387, -0.16350502, -0.0112432, 0.06431148, 0.1776847, 0.27446738, 0.048183467, -0.10752409, -0.30259654, -0.2998924, 0.06976135, 0.099399306, -0.2297097, 0.1756706, 0.101029366, 0.1601715, 0.16725329, -0.014000684, -0.19539514, 0.19390382, 0.015685014, 0.1210293, 0.19643673, 0.15982887, -0.23892716, -0.20415284, 0.09785675, 0.119271964},
			{-0.10404764, 0.08327311, 0.24633683, 0.055047363, 0.2611831, -0.118190736, 0.030600477, -0.016261216, 0.105527565, 0.14080611, 0.22026327, -0.07584743, -0.3218205, -0.41217667, -0.030100245, 0.20107009, -0.10261851, 0.051225543, 0.14933394, 0.060338113, 0.057622366, 0.15501992, -0.10994731, 0.09921207, 0.021776944, 0.11860548, 0.16932374, 0.005452859, -0.13727558, 0.09824511, 0.09771799, 0.051696435},
			{-0.2797343, -0.007925029, 0.18674749, -0.0075599975, 0.1690207, 0.11705543, -0.0918921, 0.1275326, 0.11761832, 0.15373929, 0.05819131, 0.10082639, -0.34333226, -0.15544628, 0.25922337, 0.22767489, -0.05591378, 0.036575817, 0.18771878, 0.24566263, 0.07145508, 0.07107732, 0.025053097, -0.120833926, 0.14791234, 0.17663938, 0.10441452, 0.06014506, -0.12884067, 0.21829695, -0.10699216, 0.11164916},
			{-0.5450771, 0.25882396, 0.06292496, 0.2533548, 0.16532952, 0.21435268, 0.23075603, 0.013715955, -0.051596526, -0.2793139, -0.0241549, 0.10880685, -0.3684107, 0.17261536, 0.10897576, 0.22007619, 0.020593664, -0.04821041, 0.09468878, 0.09941233, -0.22889253, -0.07299438, 0.20138672, 0.00890148, -0.06398834, 0.35532832, -0.033007696, 0.14561465, 0.17707826, 0.16313508, -0.109889865, 0.3795754},
			{-0.14642537, -0.12390769, -0.12774524, 0.019418165, 0.1618493, 0.04821981, 0.22085905, -0.14195204, -0.35305545, -0.30854043, 0.14545903, 0.12493032, -0.07956358, 0.31911883, 0.032430574, 0.028330477, 0.24345236, -0.0040938933, 0.16730921, -0.17503507, 0.18167363, 0.18839636, -0.01721449, -0.09503497, -0.18015066, -0.23177607, -0.34137857, -0.004393281, 0.08936998, 0.20974684, -0.07524873, 0.05043642},
			{-0.1682176, -0.22995299, -0.18739258, 0.19855629, -0.041667428, 0.19851506, 0.21480377, -0.10806247, -0.41610068, -0.019766364, -0.01855026, -0.027295746, 0.0043258634, 0.11498186, -0.075783834, 0.080504164, 0.08662349, 0.17007834, -0.0038712916, -0.055477615, 0.19377038, 0.22798373, -0.034773033, -0.07648678, 0.041232105, 0.0106479125, 0.22211657, 0.05216576, 0.18382248, 0.15896441, 0.06982366, -0.0155340545},
			{-0.0065289563, -0.1989763, -0.04275017, 0.13417855, 0.1220902, 0.014376172, -0.16578384, -0.07182961, -0.20544079, -0.0675619, 0.029086627, 0.048648056, 0.16662028, 0.26819453, -0.11325148, 0.042732015, -0.006353906, 0.086837865, 0.14251012, 0.21572135, 0.12678197, 0.14742804, -0.15602571, -0.032876734, 0.2354123, 0.11147664, -0.042774245, 0.23000166, 0.09326961, 0.11292429, 0.066515505, 0.14192899},
			{0.021609962, -0.10651882, 0.07610758, 0.10131782, -0.0649587, -0.1677066, -0.0458167, 0.0761907, -0.24577375, 0.12696663, 0.14839482, 0.0032958062, 0.11928267, 0.09243074, -0.052402224, 0.08210984, -0.12901978, 0.05696028, 0.1292569, 0.039287865, -0.017584665, 0.20642619, 0.019552661, -0.057810318, 0.28285939, -0.0062862136, 0.1816514, 0.09854165, 0.0466868, 0.116933234, 0.0133985905, 0.1514621},
			{0.020575048, 0.046770345, -0.16592562, 0.07949749, -0.13890845, -0.1879457, 0.017138269, 0.0076603196, -0.2099265, 0.08143794, 0.061883267, 0.0744196, 0.007542991, -0.028891826, -0.03308594, -0.074009575, -0.16495287, 0.053051442, -0.13241896, -0.031126298, 0.04412477, 0.0038068949, 0.067413405, 0.20386072, 0.08328609, -0.06250875, 0.19414221, 0.1686749, -0.1474521, 0.04624712, 0.008034614, 0.13284421},
			{-0.20221923, 0.039427593, -0.1242514, 0.09146818, -0.07875096, -0.08301079, -0.4139983, 0.2521224, 0.076429285, 0.19216491, 0.02788924, -0.13916776, -0.143331, 0.04952657, 0.118516125, 0.043330137, -0.12081143, 0.1640304, -0.009676364, -0.16528714, -0.32666215, 0.13171808, 0.42326817, 0.2228238, -0.22698256, -0.15101874, 0.28985384, 0.05732602, -0.15836452, -0.12965289, 0.16444343, -0.027105946},
			{-0.287592, 0.010901931, -0.148349, 0.027167667, -0.3964426, 0.04468796, -0.21593894, -0.2631245, 0.018414127, 0.14732805, 0.48230746, -0.25485927, -0.056675218, 0.09435178, 0.26290172, 0.09127947, 0.19390436, 0.05199577, 0.09178657, -0.012390634, -0.50914806, -0.3433756, 0.3771263, 0.11009732, -0.2108395, -0.21993554, 0.14130296, -0.012355444, -0.34959057, -0.48377517, 0.02784076, 0.32077837},
			{0.40487996, -0.005392138, -0.13227081, -0.14161853, 0.011142014, 0.28294536, 0.17260814, -0.28925067, -0.5659671, -0.29431316, 0.41765797, -0.12975098, -0.06222895, 0.04453443, 0.55761516, 0.21153241, 0.4963802, -0.4366596, 0.67117375, -0.13642748, -0.37212214, -0.24663472, 0.34375387, -0.29374722, 0.110433206, -0.23636864, -0.19834352, -0.3187431, 0.41675806, -0.6670411, -0.5932111, 0.35397148},
			{0.33286583, 0.07867235, 0.41669023, -0.24323638, -0.06674211, 0.47290993, 0.055177975, -0.17907202, -0.42763954, -0.22464572, 0.027148558, 0.4743192, 0.22989872, 0.5665153, 0.34673157, -0.455374, 0.35437766, 0.061268363, -0.13355261, 0.24855743, 0.37416735, 0.07169422, -0.3298366, -0.13748772, -0.11866156, 0.15860938, -0.036782566, -0.4784156, 0.36076048, -0.299739, -0.37835473, -0.02487713},
			{-0.09595822, -0.088369176, 0.28962785, 0.07939356, -0.14737639, 0.22154585, 0.077996194, -0.3247012, -0.44752362, -0.1346245, 0.25398734, -0.12850136, -0.1834489, -0.0579261, -0.0056496025, 0.021185016, -0.16915153, -0.25229132, 0.3396891, -0.21703629, 0.04295178, 0.14655899, -0.07642559, -0.34598663, 0.09146182, 0.24078952, 0.24773975, -0.34207836, -0.007946274, -0.24852866, 0.06930079, 0.20393826},
			{-0.35170892, 0.111886896, 0.037589636, -0.051767915, -0.46834505, -0.051610228, -0.21552844, -0.31233692, 0.16445503, 0.006854201, 0.26296106, -0.058102794, -0.29205042, 0.20766911, 0.11638186, -0.079408675, 0.112965785, 0.12331743, 0.2581118, 0.06582437, -0.16147657, 0.097980864, -0.23966354, -0.04908177, 0.21392086, -0.09826387, 0.17888883, 0.086095035, 0.13574995, -0.14207791, -0.098089896, 0.15682545},
			{-0.26763216, -0.09126789, -0.04156983, 0.15371875, -0.15600587, -0.05479306, -0.12901023, -0.032021165, 0.14539887, 0.17079817, 0.271379, -0.0582903, -0.3428686, -0.014461403, 0.1404905, -0.08022814, 0.2252179, 0.21324101, 0.12575978, 0.034208857, -0.0848153, 0.15341744, 0.10216305, 0.18777482, 0.054724302, 0.087646216, 0.23967934, 0.12303962, -0.1552875, -0.21643089, -0.097574554, 0.010662044},
			{-0.10041335, 0.2857592, -0.1824411, 0.20033152, 0.024811221, 0.018858371, -0.16830462, 0.10546235, 0.15114203, 0.17534266, 0.0150971245, -0.0867143, -0.053411048, -0.0059165084, 0.14535822, 0.28726465, 0.13229257, -0.010091211, 0.18105476, -0.03692288, -0.111402914, 0.35561, 0.042769417, -0.029180545, 0.085915275, 0.1241944, 0.24720064, 0.055925183, -0.09405488, 0.094036974, 0.024133418, 0.28512576},
			{-0.17716114, 0.15383418, -0.33501002, -0.016345436, 0.2510383, 0.023492808, -0.19046393, -0.1068217, 0.045223363, 0.085591316, -0.042729974, -0.11648268, -0.11631863, 0.25490242, 0.13913463, 0.01621819, 0.12930007, -0.044062052, 0.22473153, -0.08291432, -0.07875138, 0.07656647, 0.337496, 0.14185676, -0.072817184, 0.10595507, 0.01461587, 0.02682439, -0.036278367, 0.06728812, 0.064147964, 0.1312658},
			{-0.16143917, -0.01952351, -0.17596392, 0.2069951, -0.030000059, 0.256141, -0.047935843, 0.096132934, -0.1691523, -0.13504115, 0.0581789, 0.04612346, -0.019691573, 0.0915171, -0.07723908, 0.23466088, 0.14853016, -0.28416643, 0.25226992, -0.15249296, -0.049944166, 0.05171092, 0.1855008, 0.04865004, -0.14532967, 0.18875238, -0.2347291, 0.20514074, 0.20970112, 0.1112079, -0.11321428, 0.22968364},
			{0.13706785, -0.04968231, -0.25369948, 0.14849547, -0.053116377, 0.25568768, 0.12662786, -0.2216752, -0.16270368, -0.23688039, 0.06779407, 0.2677517, -0.034409408, 0.21608014, -0.0524988, 0.051699188, 0.24644525, -0.39829025, 0.066798, -0.21044613, 0.06864192, -0.0129388245, 0.09447239, -0.26352695, -0.097331606, -0.13818814, -0.14919978, 0.044998392, 0.071895555, 0.15542388, 0.09752143, 0.08070392},
			{-0.14389871, -0.31829616, -0.2363574, 0.2614018, 0.0033322957, 0.14344785, -0.11391953, -0.08987853, -0.33568767, -0.24359454, 0.036226355, 0.016108999, -0.026513606, 0.16161628, 0.08762894, 0.044613205, -0.01494799, -0.04808993, 0.26371396, 0.025180107, 0.13264704, 0.25975403, -0.011784748, -0.19383846, 0.1920742, 0.1360884, 0.28170097, -0.046591546, 0.022053529, 0.07167243, 0.0133328475, 0.038833737},
			{-0.27801788, 0.16691698, 0.026133612, 0.17786089, 0.12308082, 0.016815476, -0.18248895, -0.09162292, -0.123913646, -0.12799995, 0.13479862, 0.053521674, 0.11122992, 0.003969297, 0.13645142, 0.19334053, -0.053022843, 0.2322397, 0.15192531, 0.08911198, 0.19377537, 0.22804387, 0.09781997, 0.042276625, 0.2695463, 0.37206477, 0.23006497, 0.08040349, 0.095662005, 0.03403209, -0.20574749, 0.09568427},
			{-0.12065436, 0.19848745, 0.21252245, 0.13321915, -0.26316017, 0.22349219, -0.2284316, 0.09166255, -0.15046024, 0.2107329, 0.13261712, -0.10237811, -0.05329751, 0.013649869, -0.016339784, -0.03312294, -0.17570165, 0.164445, 0.15061918, 0.18172745, 0.24881178, 0.24806298, 0.122281365, 0.020441504, 0.08147206, 0.124943234, 0.11423293, 0.11914131, -0.16141713, -0.03835547, 0.069066584, 0.080919206},
			{-0.050590105, 0.11884166, 0.23534137, 0.09892294, -0.21369551, 0.25148383, -0.32863262, -0.11352958, -0.00067576894, 0.18885161, 0.18737657, -0.069764696, 0.034640945, 0.044690493, 0.124065526, -0.10364446, -0.15331373, 0.29143727, 0.04714331, -0.0096519645, -0.01487575, 0.13980347, 0.13273121, -0.021670561, -0.22373442, 0.053967617, 0.18627709, -0.13316557, -0.20967823, 0.055553176, -0.0025988165, 0.22198929},
			{-0.31655422, 0.15456757, 0.1577238, -0.008179376, -0.20071977, 0.12817536, -0.16888621, 0.08400571, 0.020008551, 0.21545357, -0.12715174, 0.13434176, 0.13912834, -0.023105392, 0.072367944, 0.04268628, -0.1639282, -0.06778601, 0.13298218, -0.29082644, 0.0064446516, 0.121953465, 0.010356164, 0.084867224, -0.14296684, 0.09788091, 0.19958845, -0.13856801, -0.20069167, -0.058845595, 0.09291741, 0.20753643},
			{-0.15900536, 0.30341062, -0.0020466363, 0.17594723, -0.0017390641, 0.20684865, -0.1622764, -0.12276004, -0.24406572, 0.22088328, 0.3507617, 0.061189562, -0.012056179, -0.11654176, 0.15200137, 0.09292657, 0.13582504, -0.27569577, 0.19731233, -0.11300423, -0.41359404, -0.21974364, 0.13314451, -0.06714941, -0.323903, -0.20688695, -0.10819373, -0.23216721, -0.14891572, -0.28817967, 0.32183802, 0.4047026},
			{0.081052706, -0.2538912, -0.2731776, 0.042711128, -0.11307387, 0.36139426, 0.08955323, -0.49879298, -0.13948174, -0.45484823, 0.4453478, -0.33513752, -0.20469593, 0.014132207, 0.16470957, 0.13352238, 0.27209166, -0.34448755, 0.6315411, -0.39366525, -0.69694275, -0.3635255, 0.31280515, -0.28581482, 0.39632946, -0.38158634, -0.039949, -0.41927323, 0.117472656, -0.47892898, -0.33310354, 0.31414172},
			{0.6807083, 0.2207977, 0.5105137, -0.67747426, 0.3125855, 0.10863362, 0.32901505, 0.56664765, -0.6389301, 0.16660807, -0.49385476, 0.65214145, -0.34710172, 0.6014565, 0.5080559, -0.18030591, 0.0796123, 0.08602572, 0.1442618, 0.42815146, 0.5711255, 0.2891597, -0.4072356, -0.3750206, -0.36068362, 0.41498074, 0.22838533, -0.45396206, 0.57417154, -0.49664006, -0.6139341, -0.37034628},
			{-0.0832488, 0.3651555, 0.17243089, -0.061177384, -0.11839801, 0.24236074, 0.19965309, -0.050546363, -0.42033663, -0.07888016, -0.109282136, 0.04391009, -0.06037213, -0.057675727, -0.059467573, -0.19798142, 0.062959045, -0.3034543, 0.5339798, 0.0010070847, -0.11310437, 0.03422954, -0.124951854, -0.3773852, -0.12966856, -0.00043826783, -0.001828098, -0.24978757, 0.1553653, -0.15980019, -0.31597117, -0.09247225},
			{-0.2292311, 0.03311202, 0.12737276, 0.012991269, -0.3690126, 0.19374265, -0.118032806, -0.10821551, -0.018376514, -0.026429087, 0.08551863, 0.03522107, -0.44460282, 0.46477515, 0.107782714, -0.0904178, 0.16639997, -0.035176303, 0.40739378, 0.27943346, -0.19942422, 0.05764532, -0.09332151, -0.16864558, -0.042974066, -0.051805876, -0.026595568, -0.050571263, 0.10641821, -0.082503475, -0.35683078, 0.04632446},
			{-0.16726425, -0.07077393, -0.17421256, 0.1422403, -0.27358496, 0.00836475, -0.13675472, -0.099063605, -0.018408658, -0.06765799, 0.057228763, -0.046841122, -0.25943965, -0.26580578, 0.074910074, -0.022313235, 0.07803657, 0.10140585, 0.1492209, 0.27754194, -0.3615401, 0.013252992, -0.07483818, 0.12163153, 0.10592366, 0.07677808, -0.03202756, -0.107811965, 0.04702268, -0.21365745, -0.12815131, -0.10445034},
			{-0.11708361, -0.18418188, -0.3481995, 0.17248446, -0.23851596, -0.15071729, -0.19655536, -0.1101404, 0.1645237, -0.013115736, 0.1869445, -0.019528322, -0.20867251, -0.15898576, 0.03553779, 0.14606158, 0.28218168, 0.052064154, 0.020597115, 0.066033036, -0.22568879, 0.047865395, -0.052216336, 0.095546514, 0.18641792, -0.057838004, 0.04848633, 0.29765207, -0.017590752, 0.09161094, -0.07599001, 0.29439193},
			{-0.22682123, -0.20400876, -0.33151472, 0.030312074, -0.15528508, 0.041474577, 0.07627085, 0.040635202, 0.05682884, 0.122048154, 0.081007436, -0.052928284, 0.15828149, -0.15093125, 0.10379709, 0.32178697, 0.08106295, 0.20027177, 0.16490811, 0.0763588, -0.17002489, -0.061992716, 0.17250834, 0.20329307, 0.24608168, -0.22768381, -0.1058523, 0.3212749, 0.1620166, 0.17688785, 0.09056574, 0.07610258},
			{-0.0011138772, -0.12207611, -0.22238848, 0.18898168, 0.14181142, -0.022726662, 0.10460979, -0.19728942, -0.2900495, 0.08295093, 0.17344959, -0.30926415, 0.17016439, 0.106573544, -0.047003116, 0.40050247, 0.0028686558, 0.011728199, 0.061347127, 0.18365853, 0.06538345, 0.08786263, 0.40336227, -0.19294122, 0.14076932, -0.28235587, -0.28384918, 0.08933283, -0.067109406, 0.030587958, 0.054910224, 0.1376844},
			{0.21287109, -0.3077584, -0.28052384, 0.16115029, 0.032575946, 0.14131263, -0.032017145, 0.099357255, -0.43563172, -0.45487452, 0.17935021, -0.25899848, -0.012146897, -0.028515063, 0.14617503, 0.12130405, -0.13886881, -0.102077216, 0.2550778, 0.16050889, 0.076962166, 0.16526109, 0.024712987, -0.2156907, 0.28655002, 0.208396, 0.09647973, -0.036121167, 0.0411433, 0.11369192, 0.21137547, 0.0053276033},
			{0.07589446, -0.1255067, -0.022810433, 0.09196787, 0.17269339, 0.020449135, -0.22099204, 0.0701737, -0.31707463, -0.41435072, 0.23250298, 0.0026817266, -0.026862524, -0.09961336, -0.050673388, 0.14279322, 0.1611596, 0.087789975, 0.23721482, 0.22248095, 0.17772691, 0.24148329, -0.043132994, 0.055198733, 0.19016916, 0.28587198, 0.45706907, 0.11674573, 0.14009196, 0.1286391, -0.03777397, 0.21851304},
			{0.005815254, 0.28507927, 0.12069887, 0.11283174, -0.105296426, 0.17014834, -0.09042945, -0.06600865, -0.08702779, 0.18871823, 0.08420983, -0.012331445, -0.085493475, 0.054291353, -0.028271565, 0.11922879, 0.026932597, 0.05019031, 0.2728277, 0.054604065, 0.23030427, 0.030771716, 0.05358574, 0.20560537, 0.070875466, 0.34593174, 0.07206304, -0.03690247, -0.115950376, 0.036823597, 0.003030991, 0.18166836},
			{-0.043727186, 0.09842304, 0.21737272, -0.008111148, -0.09386171, 0.32038724, -0.012261572, 0.08490463, -0.07051841, 0.12127328, 0.20704125, -0.09380573, -0.019651452, -0.015992051, 0.12163572, 0.00011178704, 0.07263454, 0.052243445, 0.31120703, -0.17811894, -0.124745384, 0.19855331, 0.0009954448, 0.16800325, -0.22408341, 0.06132509, 0.20356122, 0.051927358, 0.009624911, -0.056582775, 0.05756655, 0.05066601},
			{-0.1518078, 0.011271032, 0.22857118, -0.06670148, -0.16936801, 0.1662338, -0.066723734, 0.004730673, -0.06991574, 0.12179194, 0.043830745, 0.029967397, 0.009288756, -0.21827367, 0.05947502, -0.053537406, -0.063721575, -0.13526382, 0.087726414, -0.27608788, 0.08872227, 0.09790734, -0.087361455, -0.08365901, -0.13518797, -0.100802794, 0.24894926, -0.24323535, -0.19084048, 0.1502544, 0.031939715, 0.013681117},
			{-0.2872756, 0.20902535, 0.05919176, 0.085392915, 0.02767916, 0.1384514, -0.05359947, -0.05089529, -0.17270312, 0.21773724, 0.13439888, -0.026678605, -0.15654662, -0.34855062, 0.057136424, 0.11553483, -0.028363505, -0.32933903, 0.1561485, -0.45373204, 0.038647894, 0.0069707897, 0.026014673, -0.023549391, -0.21313371, -0.22259052, -0.12291748, -0.33509213, 0.0048879376, -0.2167879, -0.076090306, 0.4070738},
			{0.110473186, -0.16369887, -0.24769637, -0.05125324, -0.16318303, 0.26594603, -0.034104936, -0.1648069, -0.27192062, 0.015949605, 0.15377383, -0.14092684, -0.07549976, 0.01971789, -0.0140178045, -0.2077448, 0.00126673, -0.108882874, 0.078993365, -0.15934695, -0.3723148, -0.12025994, 0.259281, -0.008439144, -0.04026774, -0.2013187, -0.13317408, -0.27733225, -0.045787532, -0.23946692, 0.097071484, 0.11794211},
			{0.3517048, -0.8169727, -0.32107878, 0.21498452, -0.5461385, 0.18180922, -0.31109613, -0.5134569, 0.19393866, -0.6300491, 0.39248702, -0.46950707, 0.077750355, 0.18282324, 0.15520403, -0.2418353, 0.25742906, 0.01658248, 0.07611282, -0.040338904, -0.14914861, -0.22439733, 0.29189783, -0.05386409, 0.4680146, -0.2236107, -0.08599064, -0.3443337, 0.13991159, -0.2718746, 0.12435443, 0.13883539},
			{0.63192236, 0.3148998, 0.36134034, -0.6017256, 0.4777884, 0.04667276, 0.47167864, 0.41965446, -0.71528953, 0.15315636, -0.48526078, 0.6480321, -0.32542378, 0.5223557, 0.25699085, -0.25908858, 0.04914007, -0.16549322, 0.18735301, 0.34091607, 0.24892263, 0.32127377, -0.31945166, -0.2764015, -0.55484, 0.32183257, 0.10868787, -0.26616615, 0.49254453, -0.40709883, -0.3558171, -0.54323345},
			{0.107104816, 0.4225647, 0.24147502, 0.10672241, -0.09952162, 0.19420257, 0.043159157, -0.033189956, -0.40395567, 0.3198378, -0.17196988, 0.25875172, 0.22455315, 0.103290774, -0.040838122, -0.32493842, -0.068670966, -0.24100661, 0.29444057, -0.020244807, -0.049749166, 0.16381553, -0.19404677, -0.27914834, -0.1310821, 0.06615355, 0.1360998, -0.2278953, -0.087838136, -0.11568719, -0.3663146, 0.11594198},
			{0.07985072, 0.09007328, 0.06668532, -0.13630679, -0.112550244, 0.14039008, -0.30479255, -0.2192444, -0.023159966, -0.10301536, -0.0076055164, 0.075561866, -0.31300977, 0.1492952, -0.22059469, -0.09816301, 0.12499943, 0.037982624, 0.40541524, 0.17567724, 0.10554848, -0.09615536, 0.0022917653, -0.048204385, 0.026921915, -0.060362972, 0.107135765, -0.23781174, 0.024101617, -0.053999763, -0.11279892, 0.11678546},
			{-0.10364148, 0.23663771, -0.078006625, -0.03336109, 0.032942615, 0.096299686, 0.005614545, 0.036074862, 0.012377293, -0.2524887, 0.15421925, 0.23203993, -0.4040849, -0.13139944, -0.22506897, 0.0002742318, 0.013208917, 0.020978367, 0.16086577, 0.19689614, -0.2599191, 0.10094512, 0.024747446, 0.060893223, 0.0082410695, -0.09763562, -0.191755, 0.027495228, 0.19577277, -0.10441031, -0.3366928, 0.15697813},
			{-0.014568598, 0.06804704, -0.050019044, 0.30608174, -0.03566398, 0.09493035, -0.0372002, -0.0831752, 0.1328697, 0.101368845, 0.20806931, -0.0072946446, 0.023649523, -0.19912736, -0.038182143, -0.012621946, 0.107914604, 0.0045633325, 0.21589622, 0.2863208, -0.2563377, -0.06757874, 0.08364011, 0.13553186, -0.07207654, -0.28613353, -0.089959465, -0.10722613, 0.028998258, -0.30183053, -0.32835466, -0.069146655},
			{-0.06616752, -0.09052432, -0.25594738, 0.28522938, -0.20181794, -0.11175651, 0.15175119, 0.009513643, 0.2575441, 0.16894221, -0.056055743, -0.048914067, 0.06699611, -0.13390197, 0.03946562, 0.090811424, 0.18675582, -0.06283966, 0.029496009, 0.41595504, -0.24706258, 0.0022601557, 0.3363756, 0.12652947, -0.06813651, -0.19213724, -0.43053135, 0.15498333, 0.091031596, 0.020580418, 0.142112, -0.05342174},
			{0.13320543, 0.023108246, -0.13579936, 0.093426414, -0.30456182, 0.0624334, 0.1269621, 0.105852365, 0.07149311, -0.018526558, 0.11885508, -0.23521028, 0.035138797, 0.02063007, -0.02082129, 0.12339751, -0.006763757, 0.2649232, 0.30631137, 0.4638566, -0.32207194, -0.03569905, 0.32926714, 0.05046671, 0.21424036, -0.18186194, -0.21879935, 0.038436644, -0.14762154, 0.21697043, 0.25714797, -0.15157324},
			{0.16793852, -0.048827946, 0.06514155, 0.18192661, -0.2505508, 0.19465694, 0.14921996, 0.003005943, -0.14151779, -0.38870314, 0.12868185, -0.007008997, 0.055674903, -0.1691868, -0.08194202, 0.06327356, 0.0740882, 0.13446324, -0.04762767, 0.5450169, -0.11109538, -0.0693774, 0.016288579, 0.04787024, 0.04727573, 0.06415863, 0.31743002, 0.02324658, 0.05729598, 0.09812379, 0.22929575, -0.12279354},
			{-0.022493998, 0.06844975, 0.19566078, 0.02393813, 0.1640448, 0.09024784, -0.08073934, -0.1011365, -0.17557022, 0.045823164, 0.22736675, 0.027910369, 0.09395403, 0.028395306, -0.15239641, -0.077541806, -0.07012772, 0.07434931, 0.11980621, 0.19613805, -0.06366537, -0.08053354, -0.03399775, 0.05909804, -0.23214194, -0.011733804, 0.24789189, -0.02667343, -0.0052117324, -0.06556527, 0.051216595, 0.045418814},
			{-0.074949495, 0.33580086, 0.1844219, 0.15614787, 0.13473623, 0.3010949, -0.06120337, 0.0054653888, 0.1555742, 0.29730982, 0.121311486, 0.1326561, -0.029049102, -0.12249848, 0.026045525, -0.1530235, 0.13858494, -0.013861049, 0.2883821, -0.10115874, 0.057643425, -0.081804164, 0.017675512, 0.23417433, -0.044260312, 0.0010996343, 0.19080886, -0.055969886, 0.12161036, 0.0042287405, 0.059890535, 0.09987833},
			{0.03208981, 0.15391509, 0.114751704, 0.028758358, -0.098990224, 0.049629107, 0.013123599, 0.0741336, 0.019908752, 0.29998326, 0.25305253, 0.08842182, -0.017829768, 0.024211787, 0.1437357, -0.024135722, 0.14734195, -0.16991253, 0.024627764, -0.3249322, -0.030248623, 0.19222227, -0.13331585, 0.16485861, -0.25998494, -0.16535676, -0.041502967, -0.065027356, 0.07177972, -0.05265024, 0.15449445, -0.0040648514},
			{-0.24368697, 0.23633118, -0.050641607, -0.014162691, 0.03938133, 0.07733462, -0.20018561, 0.04581376, 0.14305784, 0.21776123, 0.18874744, 0.1025329, 0.04354811, -0.025400534, -0.1545688, 0.02083403, -0.026778258, -0.36844042, 0.1360913, -0.46077916, -0.02804778, 0.052256983, 0.1331307, 0.083187364, -0.18660033, -0.42460823, -0.0145541495, -0.1780439, 0.16614665, -0.28043833, 0.07756631, 0.19106202},
			{-0.07149575, 0.12392061, 0.15037383, -0.10700008, 0.04695227, 0.31827956, -0.0703261, -0.10865623, 0.07141814, 0.06039533, -0.00017516338, 0.113596596, -0.0030220249, -0.33289948, 0.10781136, -0.09769931, 0.13532278, -0.5144791, 0.029413061, -0.4370012, -0.26207668, -0.14111514, 0.09040411, 0.057419613, -0.09197377, -0.38247928, -0.29463875, -0.28965518, 0.25270057, -0.30286536, 0.12679823, -0.08768222},
			{0.3189959, -0.28256384, -0.16151437, -0.06383538, -0.018493734, 0.24583259, 0.118362784, -0.0032887964, -0.32237554, 0.285974, 0.2612606, -0.17740764, -0.27782044, -0.43156505, -0.13767612, -0.27039957, 0.23757024, -0.19398054, -0.036790192, -0.27833185, -0.42795134, -0.28242996, -0.032094944, 0.13442679, 0.01591339, -0.22808833, -0.06480272, 0.0010260289, 0.012657778, -0.18226154, -0.07633235, -0.31634444},
			{0.4946677, -0.7391975, -0.44159824, 0.2089567, -0.5723326, 0.35582757, -0.18184125, -0.5772285, -0.08809677, -0.44102985, 0.5455551, -0.398912, 0.12993558, -0.122445494, 0.15432489, -0.2787049, 0.36128297, -0.24393854, -0.0003563596, -0.2110678, -0.5220404, -0.53629917, 0.25083217, 0.096770436, 0.20520419, -0.1360797, -0.025209647, -0.32201466, 0.085555844, -0.052457903, 0.16941722, 0.10344699},
			{0.49442524, 0.2823789, 0.39191064, -0.44656926, 0.42823943, 0.26638654, 0.48255825, 0.5410835, -0.38355073, 0.2857404, -0.361418, 0.35006696, -0.27790263, 0.45610267, 0.28939348, -0.2682179, -0.0676999, -0.10827701, 0.29221946, 0.32483262, 0.36542416, 0.4372711, -0.4072746, -0.20091188, -0.55173004, 0.28330272, 0.3117387, -0.41588587, 0.2781668, -0.26909137, -0.33295816, -0.5607926},
			{0.25129184, 0.19347899, 0.0660063, -0.050524972, -0.1122534, 0.2505247, -0.3059699, -0.09242487, 0.058050677, -0.09907479, 0.23654391, 0.015420042, 0.106683634, -0.0108308485, -0.1117594, -0.408644, 0.2992049, -0.15071087, 0.47670537, -0.09188825, -0.16098431, -0.18476288, 0.1670635, -0.06855604, -0.1370866, -0.0013353622, -0.041749015, -0.29951236, 0.0024958502, -0.33601445, -0.5359152, 0.18521261},
			{0.11602851, 0.13345489, 0.067961596, 0.1152746, 0.022931978, 0.15824752, -0.076960236, -0.042212564, 0.1558825, -0.023678388, -0.05905001, 0.05133792, -0.27948523, 0.19010444, -0.22847569, -0.030726716, 0.16732852, 0.043664124, 0.19590682, -0.31560358, -0.033123966, -0.08702089, 0.24342543, 0.03477704, -0.13953093, -0.19131598, -0.04906092, -0.058552224, 0.22950599, -0.24953027, -0.3549625, 0.0389231},
			{-0.005000571, 0.11821538, 0.10587857, 0.086811915, 0.012186238, 0.03223526, -0.009560276, 0.09918007, 0.1182918, -0.17425382, 0.06559452, 0.11095436, -0.34982404, 0.133185, -0.123751454, -0.19216654, 0.19770798, 0.1763296, -0.07945436, -0.086200446, -0.1206249, -0.16649722, -0.011024387, 0.09950241, -0.04184854, -0.30432463, -0.25564477, 0.00036803848, 0.20772772, -0.15208215, -0.30133995, 0.16087991},
			{0.013634511, 0.072698876, 0.17777678, 0.08411777, 0.12934254, 0.121200174, 0.09489162, -0.036444582, 0.2008435, -0.30822068, 0.0047165323, 0.009129145, -0.20073858, 0.07643565, -0.40497583, 0.04828614, 0.1244817, -0.0010277967, 0.04995342, 0.088365756, -0.16427974, -0.16277027, 0.071838364, 0.11832217, 0.010522324, -0.25913328, 0.025646513, 0.12110661, 0.07673287, -0.10923801, -0.18776578, -0.09812611},
			{0.20265914, 0.05762613, 0.20731951, 0.25233155, -0.1679417, 0.014087905, 0.11770773, 0.19740604, 0.2374228, -0.18152396, -0.0010436557, -0.0007323504, 0.090042226, 0.07003936, -0.40444562, -0.13773443, 0.1972257, -0.009977492, 0.1809459, 0.1622631, -0.36481598, -0.11086176, 0.103050515, 0.1914393, -0.027000377, -0.08273805, -0.06836042, 0.039136127, 0.05012219, 0.0114995185, -0.1727373, 0.0047431253},
			{0.042236757, 0.22012764, 0.22371326, 0.08824674, -0.1260906, 0.21170077, 0.2060517, 0.2358816, 0.24703082, -0.16072227, 0.049607873, 0.13408183, 0.049555413, -0.073144644, -0.18380618, 0.027505616, 0.03657369, 0.20628658, 0.14561671, 0.20691632, -0.09526199, -0.07552317, 0.42624456, 0.05359473, 0.109983735, -0.07126298, -0.1075367, -0.02719145, -0.016171295, 0.16292539, 0.2546007, -0.054315545},
			{0.124625675, 0.2352485, 0.1884324, 0.05179017, -0.00643096, 0.24436018, 0.15575567, 0.14629957, 0.21017218, -0.001175251, -0.0010225754, 0.28377378, 0.12539011, -0.063099295, -0.11286634, 0.049754195, -0.0707937, -0.038048442, 0.018224774, 0.026138892, -0.063155204, -0.09616914, 0.29139057, 0.14874601, -0.1766405, 0.002788734, 0.043188907, 0.17830029, -0.086090565, 0.031566624, 0.08244943, 0.024034543},
			{0.13911362, 0.31708983, 0.11610894, 0.124086075, 0.25387922, 0.29094258, 0.15944844, 0.36687762, 0.13254441, 0.10590722, 0.09057701, 0.117980145, 0.07718507, 0.0815156, -0.18798421, -0.10455967, 0.11361388, -0.004607531, 0.10037917, -0.14296693, 0.01731173, -0.026794257, 0.2174185, 0.13707216, -0.12988049, -0.029964793, 0.20055617, 0.12919597, -0.015512882, 0.10236866, 0.15608422, -0.09057665},
			{0.064899236, 0.28956705, 0.16127631, 0.08762397, 0.21367966, 0.28424945, 0.11723807, -0.025278404, 0.08394056, 0.2785345, 0.05460496, 0.052527107, -0.052943073, 0.014970603, -0.095646724, 0.012225477, 0.0132640395, -0.2030003, 0.24248497, -0.14170912, -0.0024283414, -0.10966484, 0.12290875, 0.07316468, -0.08828734, -0.28843015, 0.087201536, 0.018865399, 0.003074838, 0.045168426, 0.11873242, 0.14136095},
			{0.17494671, 0.27573147, -0.12956092, 0.2104402, 0.20084587, 0.19765122, 0.050452996, -0.18061855, 0.16500661, 0.23286018, 0.111751586, 0.021355618, -0.009080309, -0.11987377, -0.14947452, -0.13926128, 0.22397737, -0.2769215, 0.12251621, -0.4574629, 0.049367346, -0.037352867, -0.018742442, 0.14979853, -0.12667497, -0.27619845, 0.12963225, -0.23541059, 0.35703412, 0.049898706, 0.058177114, 0.052809466},
			{0.28090847, 0.107691266, -0.12869474, -0.004981338, 0.022263577, 0.26508683, 0.0816645, -0.1135929, 0.30178875, 0.12412844, -0.069573104, 0.073817775, -0.24181597, 0.12234324, -0.30078927, -0.08429271, 0.09519448, -0.30965644, 0.16632745, -0.6237025, -0.16432491, 0.011108223, 0.15269716, 0.15092072, 0.068878606, -0.42651802, -0.013558245, -0.06985731, 0.26436937, 0.026856434, -0.08497031, -0.021915616},
			{0.32973304, 0.060264606, -0.0022664357, -0.14673507, 0.2010767, -0.009368482, 0.0630155, -0.18729892, 0.13017766, 0.23835912, -0.030441467, 0.05706296, -0.0136453565, -0.23928319, -0.14825833, 0.06738808, 0.2686473, -0.26814777, 0.15629776, -0.5932102, -0.25439265, -0.057836067, 0.116491206, 0.19245782, -0.019775277, -0.28037453, -0.31118193, -0.24566689, 0.10680459, -0.1853419, 0.027599141, -0.027884288},
			{0.46316716, -0.55975527, -0.21335171, 0.002093104, -0.1620084, 0.06365713, 0.09662409, -0.14445204, -0.15211947, 0.026535155, 0.24996427, -0.11632211, -0.23179676, -0.15708731, 0.103084, -0.31577596, 0.18041386, -0.00043074615, 0.017520756, -0.4815618, -0.18702593, -0.17696157, 0.012784861, -0.071923874, 0.2145409, -0.052372433, -0.10672902, -0.30433786, 0.29752368, -0.2452103, -0.15821134, -0.13060306},
			{0.055077966, -0.41670254, -0.33008444, 0.13035263, -0.42997745, 0.37694007, -0.56055295, -0.3082714, 0.176625, -0.30450144, 0.3841591, -0.39477238, 0.12759738, -0.058403872, 0.07288578, -0.4001011, 0.06839928, -0.14749885, 0.2077595, -0.17282082, -0.38965237, -0.34139773, 0.26721856, 0.1594249, 0.18717384, -0.35219464, -0.017792169, -0.33222914, -0.032975882, -0.012653861, 0.27697954, 0.2888851},
			{0.47357386, 0.3839112, 0.6593366, -0.5153467, 0.5391401, 0.2409472, 0.3069668, 0.6269238, -0.6354133, 0.2559538, -0.57261336, 0.5779678, -0.24311955, 0.40688294, -0.024419097, -0.3024958, -0.14903843, -0.31416655, 0.18268631, 0.18770885, 0.4232613, 0.46613514, -0.61048406, -0.4990054, -0.531231, 0.3041026, 0.22587474, 0.054733817, 0.30314285, -0.51163435, -0.2714044, -0.6345099},
			{-0.18044141, 0.43730962, 0.5074092, -0.18469, 0.22170359, 0.25175497, 0.04396699, 0.31397456, -0.05547427, -0.019387968, -0.2763591, 0.3427981, -0.25911632, -0.18074271, 0.30159432, -0.14463061, 0.10956179, -0.43481922, 0.21542315, 0.30466262, -0.01524092, 0.05685082, -0.07650853, -0.061437514, -0.36755896, 0.059908573, 0.23736696, -0.32188594, 0.2666509, -0.2033478, -0.46090233, 0.274007},
			{0.08810875, 0.09760878, 0.13378368, -0.1727966, -0.008025401, 0.17005971, 0.12476436, -0.039514985, 0.08800429, -0.2631005, -0.07379593, 0.20794438, 0.01526993, 0.09904373, 0.10430783, -0.29698214, 0.20638412, -0.108408384, 0.22646451, -0.3805496, 0.111843936, -0.15512244, 0.019084224, 0.028818619, -0.34867406, -0.31624904, -0.0740395, -0.24349001, 0.16087702, -0.11737091, -0.17967339, -0.23238064},
			{0.082055554, 0.093144, -0.084362656, 0.028896691, -0.13217084, 0.041841835, 0.16031185, 0.12569256, 0.07076634, -0.22576433, 0.021149581, 0.10560805, 0.021528754, 0.15228435, 0.04598822, 0.008035929, -0.18408056, 0.10766725, 0.013467137, -0.45817387, 0.22764403, -0.10873282, 0.02803805, 0.24881236, 0.042127997, 0.011499231, 0.063172504, -0.092182234, 0.042296797, -0.14508228, -0.16222015, -0.013011353},
			{0.029495265, 0.22889493, 0.019197147, 0.06983008, 0.04983257, 0.036917157, -0.04143996, 0.19181737, 0.3158601, -0.35108706, -0.020767514, 0.11172183, -0.027822774, -0.054483585, 0.052863616, 0.03290436, 0.060381655, 0.1166431, 0.12227358, -0.4528529, -0.03173364, -0.01023265, 0.11837543, 0.43426135, 0.10935907, -0.048872698, -0.022950288, -0.057544928, 0.04679695, -0.09916655, -0.24335286, -0.024984824},
			{0.04800691, 0.19769041, 0.1932961, 0.08087537, 0.3114349, -0.12109478, 0.010293316, 0.25235644, 0.12605017, -0.11624506, 0.06719627, 0.10511044, 0.04735109, 0.04359351, -0.044672787, -0.010255866, -0.14966895, -0.006585151, 0.16327977, -0.10521323, -0.005214841, -0.06303336, 0.0759023, 0.09589591, -0.088358626, 0.09363549, -0.025245758, 0.08466182, 0.07659388, -0.15460189, 0.09855756, 0.07954928},
			{0.099520996, 0.084761225, 0.14628182, 0.2757625, 0.17013244, 0.17159307, 0.078617565, 0.11254704, 0.3380651, -0.05689196, -0.13206342, 0.11113391, -0.014980094, -0.18509209, -0.17612597, 0.02337873, -0.021456977, 0.13650958, 0.039215747, -0.1631324, -0.08773961, -0.11648632, 0.20677406, 0.046174664, 0.078048445, -0.057321932, -0.13969338, 0.085679874, 0.13350238, 0.06266543, -0.08573176, 0.12516755},
			{-0.0211841, 0.056328975, 0.038872786, 0.10022157, 0.24640763, 0.14032957, 0.2145906, 0.36697835, 0.18019158, 0.13010311, -0.0738896, 0.24003254, 0.095955774, -0.07901927, -0.03859748, 0.068836436, -0.047103357, -0.044571005, 0.15132341, -0.21901156, -0.038221724, -0.08364332, 0.14014642, 0.0789099, 0.107207954, -0.21060084, 0.030655114, 0.1735951, 0.13224818, -0.07717891, 0.07386724, 0.09557078},
			{0.025736531, 0.2353151, -0.040351216, 0.1579984, 0.08702979, 0.121266246, 0.31345588, 0.23784518, 0.23645552, 0.31797197, -0.015020986, 0.23601164, 0.15590017, 0.057312146, 0.03542378, 0.021436451, -0.09141553, -0.15424016, 0.19769037, -0.2550725, -0.0056817653, -0.06542912, 0.119390525, 0.24473695, 0.090252355, 0.025328219, -0.070268914, 0.19377531, 0.025745751, -0.070331104, -0.06731585, 0.109833285},
			{0.06449642, 0.06169823, 0.03489414, 0.25654134, 0.33144554, 0.3031361, 0.18866839, 0.18090321, 0.30935296, 0.27076516, 0.13255216, 0.10381408, 0.039158054, -0.0002798002, 0.15579645, 0.15046415, 0.10803523, -0.30196908, -0.042503946, -0.38515344, -0.12448092, -0.22590686, -0.1287253, 0.17869967, -0.067035705, -0.059864588, 0.07521283, 0.023581935, 0.15373997, 0.0067443503, 0.16010486, 0.17718627},
			{0.016837724, 0.1368564, -0.0805339, 0.008666756, 0.2005267, 0.26175672, -0.037286945, -0.037682228, 0.37440994, 0.071741514, 0.23052706, 0.13138731, -0.046865333, -0.06849979, -0.1842594, 0.17086487, 0.14145263, -0.30210778, 0.075296365, -0.4544622, 0.0008436817, -0.15266357, -0.14183208, 0.14562581, 0.047470123, -0.017446445, 0.12156259, -0.03776568, 0.15336865, 0.20059879, 0.16627173, 0.28633243},
			{0.028634463, 0.012363296, -0.25414827, -0.17849298, 0.23553532, 0.1938898, -0.08665081, -0.086194515, 0.34854695, 0.27009907, 0.14430588, -0.094193295, -0.12764317, -0.10726693, -0.09460263, 0.15096278, 0.30528647, -0.1177218, 0.22557256, -0.5053736, -0.02460508, -0.058823504, -0.015269292, 0.05345322, 0.14889668, -0.25507438, 0.036771335, -0.07055013, 0.15949108, -0.2080286, 0.034179967, 0.0955745},
			{0.2071057, -0.07872547, -0.24230413, -0.023672968, 0.21430233, -0.061692886, -0.32505652, -0.098729335, 0.24634534, 0.023954213, 0.06274253, 0.16377872, -0.25456128, -0.0029635825, -0.2594509, 0.037451867, 0.3111322, -0.0722309, -0.04142496, -0.4335713, -0.0814443, -0.13835478, 0.15785903, 0.10015385, 0.28185785, -0.22307126, -0.2100347, -0.10506453, 0.5692971, -0.31006932, -0.15203245, 0.36655238},
			{0.42138016, -0.43331277, -0.2842475, -0.18959315, -0.17896469, -0.06002177, -0.0485385, -0.14039207, 0.11780432, -0.032350395, 0.2209731, -0.13485505, -0.21191715, -0.31390452, 0.23106165, -0.2646513, 0.5740155, 0.13490681, -0.11707846, -0.3108632, -0.14167051, -0.121177875, 0.21533136, 0.24746215, 0.24445464, -0.14147644, -0.32511967, -0.3986732, 0.49922428, -0.035190474, -0.18258354, -0.19133572},
			{0.435146, -0.3111105, -0.27163815, 0.06981113, -0.61947346, 0.19861123, -0.27739695, -0.29195112, 0.2957098, 0.05871052, 0.42470583, -0.46882808, -0.029197646, -0.3316696, 0.063132286, -0.47825918, 0.309101, -0.023914732, 0.26649874, -0.20083392, -0.5807124, -0.344027, 0.3450534, 0.35528755, 0.27496547, -0.3298629, -0.087043464, -0.25708103, -0.28989774, 0.049209904, 0.33661804, 0.058082324},
			{-0.24930272, 0.15703139, 0.23070665, 0.08586826, -0.14258888, 0.20292048, -0.29290518, 0.25207067, -0.084278926, -0.18451755, -0.11457141, -0.027669806, 0.44550154, 0.50120884, -0.13166384, -0.120710924, -0.35141647, 0.012075759, -0.0658047, -0.7183527, 0.38843912, 0.44104883, -0.15977116, -0.14307483, -0.27977338, 0.07457945, 0.043474074, 0.045921396, -0.23209353, -0.23214988, -0.11033421, 0.07468367},
			{-0.15699041, 0.18767807, 0.54251385, -0.011460756, 0.0013297407, 0.2161821, -0.13001327, 0.47171733, -0.053492904, 0.22988139, -0.23405723, 0.39479905, -0.009337432, 0.26437333, 0.1170287, -0.06896907, -0.12003797, 0.12691095, 0.09831994, -0.21188487, 0.14794706, 0.09392039, -0.15224998, 0.19166803, -0.1752898, -0.1598942, 0.066959985, -0.34690723, -0.1395957, -0.3243147, -0.17234613, -0.030580435},
			{-0.10426875, 0.17608264, 0.2892757, -0.16264372, -0.26678327, -0.039738964, -0.46745738, 0.20272629, 0.19307385, 0.025456885, -0.36092973, 0.29232493, 0.27693698, 0.29150242, 0.26166898, -0.19408146, -0.2744104, 0.15613697, -0.2570118, -0.3917137, 0.33560807, 0.3506143, -0.30713937, 0.1748672, -0.13693354, -0.0901037, 0.14539564, -0.06766798, -0.25483188, -0.1863929, -0.08349973, -0.044492006},
			{-0.30965042, 0.21854535, 0.35689712, -0.06790073, -0.00048179395, -0.04720941, -0.0088803535, 0.037012722, 0.03527521, -0.07674532, -0.29260376, 0.22460768, 0.22824809, 0.03012035, 0.08041039, -0.119205885, -0.21547706, 0.09126212, 0.041208602, -0.4403395, 0.36844024, 0.3040203, -0.19734338, 0.1441549, -0.17925195, -0.037193004, 0.111151546, 0.052438308, -0.050852507, -0.09388305, -0.16728139, 0.07984339},
			{-0.057566315, 0.25273657, 0.36840644, -0.036551077, 0.11278963, 0.11191021, 0.057348896, 0.29131386, -0.050864138, -0.30973482, -0.29812646, 0.1762771, 0.10712886, 0.04459458, -0.12148025, -0.06446098, -0.024212083, 0.11345085, 0.034292247, -0.43262482, 0.27738014, 0.21092297, -0.11311636, 0.05964776, -0.2609354, -0.029818758, -0.12147679, 0.22139502, 0.1308752, -0.26605308, -0.230531, -0.022737429},
			{-0.25008893, 0.31983006, 0.2606819, -0.049742322, 0.14465612, 0.05667259, 0.06900349, 0.2511529, -0.059117917, -0.18475005, -0.16125613, 0.1540078, 0.08087988, 0.07508069, 0.0924704, 0.011909277, 0.10997639, 0.17244767, 0.1015281, -0.41220242, 0.08663003, 0.06475432, -0.15573256, 0.008469009, -0.04783395, -0.008560034, -0.02281956, 0.20232137, 0.099464096, -0.046516195, -0.280854, 0.19979475},
			{-0.1148162, 0.3401333, 0.2083678, -0.057323046, 0.02738453, 0.062066402, 0.14832996, 0.36183923, -0.1456811, 0.01547628, -0.36193895, 0.27885017, 0.21521974, 0.03412178, -0.056657005, 0.03867311, 0.046071492, 0.18301582, -0.02481414, -0.52833205, 0.03933137, 0.16426548, 0.036086943, 0.08557131, -0.05739567, -0.011703063, 0.10221484, -0.18917383, 0.23624964, -0.18619972, -0.066395976, 0.17843737},
