#include "matmul.hpp"


/* Layer 1 matrix multiplication */
void hwmm_layer1(float input[n_inputs], const float weights[n_inputs][n_layer1], float output[1][n_layer1]) {

    col: for (int j = 0; j < n_layer1; ++j) {
      float sum = 0;

      prod: for (int k = 0; k < n_inputs; ++k){
        sum += input[k] * weights[k][j];
      }
      output[0][j] = sum;
    }

  return;
}



/* Layer 2 matrix multiplication */
void hwmm_layer2(float input[1][n_layer1], const float weights[n_layer1][n_layer2], float output[1][n_layer2]) {

  row: for (int i = 0; i < 1; ++i){

    col: for (int j = 0; j < n_layer2; ++j) {
      float sum = 0;

      prod: for (int k = 0; k < n_layer1; ++k){
        sum += input[i][k] * weights[k][j];
      }
      output[i][j] = sum;
    }
  }

  return;
}



/* Layer 3 matrix multiplication */
void hwmm_layer3(float input[1][n_layer2], const float weights[n_layer2][n_layer3], float output[1][n_layer3]) {

  row: for (int i = 0; i < 1; ++i){

    col: for (int j = 0; j < n_layer3; ++j) {
      float sum = 0;

      prod: for (int k = 0; k < n_layer2; ++k){
        sum += input[i][k] * weights[k][j];
      }
      output[i][j] = sum;
    }
  }
  return;
}



/* ReLU layer 1 activation function */
void hw_act_layer1(float input[1][n_layer1], float output[1][n_layer1]){
	loop1: for (int i = 0; i < n_layer1; i++){
		if (input[0][i] < 0.0)
			output[0][i] = 0.0;
		else
			output[0][i] = input[0][i];
	}

	return;
}



/* ReLU layer 2 activation function */
void hw_act_layer2(float input[1][n_layer2], float output[1][n_layer2]){
	loop1: for (int i = 0; i < n_layer2; i++){
		if (input[0][i] < 0.0)
			output[0][i] = 0.0;
		else
			output[0][i] = input[0][i];
	}

	return;
}



/* Softmax layer 3 activation function */
void hw_act_layer3(float input[1][n_layer3], int &pred){
	int max_idx = -1;
	float max_val = -999.9;
	loop1: for (int i = 0; i < n_layer3; i++){
		if (input[0][i] > max_val){
			max_idx = i;
			max_val = input[0][i];
		}
	}
	pred = max_idx;
	return;
}



/* Connect NN Layers */
int nn_inference(float input_img[100]){
//#pragma HLS ARRAY_PARTITION dim=1 type=complete variable=input_img
//#pragma HLS INTERFACE  register
//#pragma HLS LATENCY min=1 max=1
//#pragma HLS INTERFACE ap_none port=input_img
	//#pragma HLS INTERFACE ap_none port=input_img[1][100]
	//#pragma HLS INTERFACE mode=ap_memory port=return



	const float layer1_weights[n_inputs][n_layer1] = {{-0.07618034, -0.060086504, 0.09386347, -0.017001677, -0.0027233032, 0.27060372, -0.50662756, -0.40647006, -0.117480345, 0.25098252, 0.51123995, 0.36296052, -0.120323725, -0.20529585, -0.015749685, 0.316849, 0.03826622, 0.49207056, -0.18875973, 0.19792269, -0.16981943, -0.77571404, 0.33272493, -0.12410826, -0.12311026, -0.530126, -0.11422135, -0.19641982, -0.09452793, 0.015581178, 0.3607992, -0.08473767},
												{-0.041750584, 0.035705812, 0.08177883, 0.23408403, 0.13603605, 0.028891921, -0.3011627, -0.17473891, -0.13272296, 0.13841055, 0.31496903, -0.054579597, 0.14157183, -0.29752, 0.17536883, 0.32276785, 0.15610664, 0.22318894, -0.10153637, 0.35730824, -0.066159986, -0.7135419, 0.045721404, -0.44680226, -0.084781736, -0.023916043, -0.045693174, -0.34195414, -0.07850988, -0.000384113, 0.21362408, -0.15801527},
												{0.66431886, 0.41518205, 0.1056299, -0.015870657, 0.10273092, -0.13621296, -0.14756837, -0.18599337, -0.16148664, 0.5041565, 0.049492456, 0.0056588743, 0.15781388, -0.23917434, 0.42904696, -0.058068465, 0.15341562, 0.08839385, -0.170226, 0.23266502, -0.100308396, -0.23421027, 0.01943812, 0.23107672, -0.13473353, -0.025528092, -0.23355223, 0.305285, -0.08479358, 0.05841158, 0.1365048, 0.123532146},
												{0.52355826, 0.51485544, 0.18982549, -0.17325981, -0.7424425, -0.3325946, 0.008132241, 0.33945566, -0.7532609, 0.40948576, -0.35513657, 0.1239722, -0.5076318, -0.14057006, 0.36019862, 0.25375655, -0.3676355, -0.40623322, 0.5661566, 0.44279507, -0.18815348, -0.55126077, 0.2034565, 0.45050183, -0.45265085, 0.68784165, 0.3537339, 0.16137487, 0.20913337, 0.08846533, -0.5820741, 0.31744644},
												{0.7083467, 0.3887299, -0.07313688, -0.0063679595, -0.5464978, -0.06793779, 0.12299431, -0.020648656, -0.45426673, 0.29732785, -0.49355492, 0.012072784, -0.22038066, -0.067073956, 0.34937903, 0.25291678, -0.08069678, -0.42544636, 0.7617264, 0.314072, -0.28366315, -0.11032508, 0.106886156, 0.4055756, -0.692862, 0.5232358, 0.11331883, 0.21392699, 0.10536919, 0.14009188, -0.45692128, 0.44307035},
												{0.45758325, -0.011206055, -0.11831878, -0.002798624, -0.19377117, -0.3439027, 0.23212297, -0.45095792, 0.030145254, 0.24034712, -0.2783765, -0.2108126, -0.2177045, 0.027980486, 0.29876152, 0.54421574, 0.034415986, -0.2115747, 0.6526053, 0.18215495, -0.055085693, -0.045451842, 0.49802798, 0.068802856, -0.3545823, 0.3323998, -0.06023709, 0.38797605, 0.12240894, 0.5364614, -0.4520595, 0.44913808},
												{0.30584997, 0.27814147, 0.26373595, -0.17058232, -0.0572059, -0.1692902, -0.15399739, 0.08722694, -0.28795388, 0.2090274, -0.15185033, -0.02034477, -0.30740777, 0.29871014, 0.24482885, 0.20257369, -0.022866793, -0.12444899, 0.35948855, 0.36209026, 0.045463514, -0.3182557, 0.2507916, 0.23432118, -0.24329418, 0.26818997, 0.4184942, -0.048935186, 0.31512842, 0.101045705, -0.04081246, -0.288694},
												{0.15802622, 0.13714741, 0.28324518, 0.0638926, -0.33968392, -0.46346167, 0.07287975, 0.66937476, -0.51359457, 0.16156495, 0.11180022, 0.030061988, -0.48023787, 0.24040774, 0.7348593, 0.5167973, -0.37262976, -0.14514211, 0.21009925, 0.12057458, 0.13456738, -0.21706891, 0.022660894, 0.32555276, -0.12489893, 0.30548134, 0.39132854, -0.09118439, 0.4089588, -0.06925803, -0.14340736, -0.43994355},
												{0.078531824, 0.35648042, 0.41805825, 0.16129294, -0.46851262, -0.18718332, 0.33667776, 0.5048402, -0.29169768, -0.024922695, -0.022883778, 0.17763764, -0.6760191, 0.31157863, 0.72272444, 0.4336902, -0.41776004, -0.11347836, 0.42614764, 0.50799304, 0.07045773, -0.4703756, 0.25680506, 0.3068846, 0.099498816, 0.33749843, 0.5611379, 0.07350307, 0.5416222, -0.19825934, -0.15515953, -0.46211398},
												{-0.1588337, -0.32713732, -0.02881892, 0.36127952, 0.13407913, 0.2934053, 0.46809885, 0.4618443, 0.49663413, -0.22542846, -0.317468, -0.1783876, -0.07851388, 0.36964256, 0.24062362, -0.44623154, -0.8334743, 0.1047653, -0.37813938, -0.27553502, -0.72795904, -0.20569728, 0.39202538, -0.4458547, 0.21563356, 0.22406702, 0.057400748, -0.43509504, 0.44350788, 0.06166692, 0.26399368, -0.3617509},
												{-0.010912561, 0.13337311, 0.06669198, -0.16530457, 0.18632345, 0.21520214, -0.62228817, -0.25383446, -0.08721409, 0.33620372, 0.32078925, 0.37819842, 0.2077593, -0.40817615, -0.029328994, 0.29837558, 0.03874047, 0.2530638, -0.42603877, -0.0018629457, -0.020456089, -0.2858811, 0.30728814, -0.40422428, -0.112238936, -0.42913553, -0.033984642, -0.0038613277, -0.22490679, -0.20278428, 0.392173, -0.19791442},
												{0.1309032, 0.39853442, 0.20955142, 0.01961475, 0.038739726, -0.18600991, -0.37802193, -0.49598128, 0.16170612, 0.5534885, 0.04784209, 0.32516927, -0.045641042, -0.78448504, -0.013349963, 0.36050066, -0.18393387, 0.26917675, -0.20339276, 0.020833896, -0.41984314, -0.27943653, 0.42729154, -0.29504544, -0.083901875, -0.1811622, 0.22173972, 0.0355807, -0.4553113, -0.07078896, 0.18653053, 0.11625087},
												{0.2223239, 0.26242664, 0.23659857, 0.12638527, -0.14142549, 0.079567775, -0.106697775, -0.41937065, -0.14090538, 0.45902073, 0.0035038113, -0.017950963, 0.08240072, -0.3388403, -0.022781232, 0.28525886, 0.2160607, -0.080249764, -0.23223588, -0.04363928, -0.030838823, -0.41648787, 0.24566296, -0.17443419, -0.06709548, -0.31490484, 0.09386327, 0.35625038, -0.27955076, -0.05287786, 0.20672949, -0.20959587},
												{0.13895461, 0.14693812, 0.22513089, -0.10046525, -0.25863, 0.19216383, 0.13441145, -0.35498443, -0.4242095, 0.4298216, -0.14231993, 0.08017923, 0.39927956, -0.32652333, -0.06543063, -0.041591786, 0.16679749, -0.59383315, -0.19303837, 0.3189557, -0.4757169, -0.53321964, 0.21333265, -0.22514929, -0.28224555, 0.23029485, -0.21756396, 0.20939514, -0.2034691, -0.11781986, 0.0023097608, 0.20028327},
												{0.12704334, 0.118499406, 0.4157138, 0.03506844, -0.37405345, 0.4047711, 0.2438337, -0.19596191, -0.08582742, 0.2471441, -0.45953307, 0.24971344, 0.2769547, -0.26863873, -0.34573784, 0.049781114, 0.23490037, -0.16444358, 0.1243776, 0.19549689, -0.088240825, 0.3824428, 0.031112896, -0.47674522, -0.3860972, -0.12673208, -0.16913754, 0.19351698, -0.33194637, 0.1504452, -0.32805642, 0.26150525},
												{0.05447009, -0.0637111, 0.26692846, 0.018899307, -0.17892979, 0.44595748, 0.27812886, 0.016216774, -0.023300428, 0.21047807, -0.49005097, 0.4907523, 0.3691199, -0.04993511, -0.013649304, 0.23815122, 0.3454793, -0.38632515, 0.05447447, 0.25614697, -0.42185766, 0.48175514, 0.19848567, -0.23884353, -0.24113463, 0.37159285, -0.063938245, 0.0027037514, -0.09118535, -0.012327509, -0.43302494, 0.5679889},
												{0.3622558, -0.022866743, 0.35357594, 0.36389765, -0.21572796, 0.06987984, 0.059750475, -0.0066163633, 0.16734661, 0.20608923, -0.61617076, 0.30298507, 0.10491038, 0.12664051, -7.6298966e-05, 0.3015999, 0.043743327, -0.7792169, 0.1396324, 0.22501847, -0.200251, 0.20871139, 0.308523, 0.08645381, -0.15802735, 0.38892135, -0.20545939, -0.0074960296, 0.17586118, 0.08809985, -0.050753865, -0.13375986},
												{0.24855222, -0.046933714, 0.2329652, 0.039693817, -0.2301377, -0.2458175, 0.26218298, -0.10511479, -0.058410577, 0.15769382, -0.18066822, -0.3890362, 0.0008469344, -0.07849097, 0.20925881, 0.12009471, -0.39469603, -0.53908575, 0.16572374, 0.075900614, -0.22190627, 0.37981522, 0.050985698, 0.34788364, 0.27020934, 0.45277014, 0.121957496, 0.034697868, 0.22309113, -0.16374525, -0.33794883, -0.3082877},
												{-0.046625745, -0.16641958, -0.21632607, 0.21321331, -0.18683112, -0.3328197, 0.47455063, 0.3996133, -0.18475929, 0.30482858, -0.4114235, -0.36774457, -0.33565947, 0.07044517, 0.28034088, 0.31891307, -0.2569221, -0.13457869, 0.45768285, -0.30190006, -0.19711863, -0.21005675, 0.16826047, 0.19858892, -0.11514476, 0.25263467, 0.29066303, 0.0869332, 0.2737511, -0.077285066, -0.14836667, -0.5886384},
												{-0.36373433, -0.4141366, 0.14369145, 0.21327181, -0.08494885, -0.14501652, 0.6004287, 0.6981583, 0.091275506, 0.0039671515, -0.36616448, -0.04040372, -0.06084759, 0.26782453, 0.2857189, -0.2258736, -0.33065522, -0.6539614, -0.25841197, 0.12403309, -0.37262166, 0.16149814, 0.55893314, -0.5516602, -0.20332891, 0.16290936, -0.25531477, -0.12847596, 0.33299765, -0.4362076, 0.5093928, -0.3247034},
												{-0.1114773, 0.20606308, -0.15820488, 0.06110524, 0.31281444, 0.3478587, -0.6754376, -0.57633907, -0.31846547, 0.4974969, 0.4767227, 0.22304948, 0.047034167, -0.12941249, 0.49304104, 0.50108105, 0.3927126, 0.61222136, -0.016541269, 0.07929451, 0.02199596, -0.52917135, 0.39010003, -0.34131613, 0.06764102, -0.37143135, 0.055782933, -0.08884619, -0.28931615, 0.17370677, 0.6073688, -0.02466407},
												{-0.2134562, 0.11856677, 0.01759463, -0.14358011, -0.20411554, 0.26853395, -0.51575464, -0.2939524, 0.069176644, 0.37190506, 0.35327822, 0.20594253, 0.21796782, -0.33014718, -0.110155836, 0.6624759, 0.3378634, 0.30502757, -0.52058214, -0.07429528, -0.15278617, -0.72263867, 0.027395837, -0.44630054, -0.30927634, -0.40861532, -0.056575816, -0.098994814, -0.4875406, -0.67666095, 0.20172104, -0.042112164},
												{0.16250747, -0.050065152, 0.06091516, -0.117871754, 0.09353586, 0.004999754, -0.11524297, -0.078914344, -0.2739032, 0.27456918, 0.3883494, 0.060791783, 0.19225027, -0.26201713, 0.30887303, -0.1325965, 0.11696861, 0.31088823, -0.28519115, 0.21442996, -0.22134623, -0.59374565, -0.044201326, -0.44650722, 0.0005208624, -0.179198, 0.10536277, -0.33272433, -0.20854269, 0.015937638, 0.18809529, -0.044578213},
												{0.16092359, 0.10503254, 0.30824262, -0.16879791, 0.29524282, 0.27631444, 0.24359344, -0.26994088, -0.34054318, -0.052213136, 0.006021373, 0.3372777, -0.038715616, -0.0087527195, 0.18155037, -0.13966107, 0.22425213, 0.50073826, 0.14204608, 0.30426785, -0.00832624, -0.2826144, 0.24768336, -0.52494806, -0.053136382, -0.38541886, 0.13230824, -0.13676175, 0.1810602, -0.037213728, 0.24869435, -0.13192795},
												{0.08352566, 0.1871925, 0.23582736, 0.14001957, 0.17924818, 0.30466056, 0.4473932, -0.18358415, -0.13834356, -0.19897275, -0.008596108, 0.50541514, 0.24618916, 0.16213462, -0.18145777, -0.1771786, 0.18693778, -0.042987533, 0.42799598, 0.3927482, 0.17505851, 0.05391492, 0.10406924, -0.34079117, 0.15146272, -0.43682435, 0.3043648, 0.13893989, 0.21035823, -0.04538452, 0.1775786, 0.53412193},
												{0.015989836, 0.29131135, 0.31467095, 0.08470099, 0.3329073, 0.17678875, 0.5864714, -0.30716273, -0.038377203, -0.30510667, 0.041481335, 0.4205907, -0.010740128, 0.12359318, -0.2565217, -0.12552786, 0.2904836, 0.012803563, -0.15476348, 0.19170333, 0.5493864, 0.4605682, -0.2490502, 0.07884683, -0.18947934, -0.32773617, 0.06316579, 0.38916302, 0.059304804, 0.083872415, -0.028151818, 0.12954615},
												{-0.25770372, 0.39983892, 0.2895182, 0.07681656, 0.38066104, 0.20215511, 0.28944415, 0.11957074, 0.3021988, -0.32485515, -0.10002684, 0.0027711047, 0.0876711, 0.2817689, -0.03807894, -0.03637883, 0.5478169, -0.022146838, -0.15001175, 0.34961346, 0.31727454, 0.3587466, 0.055624142, 0.078248166, 0.13808675, -0.08750475, 0.12555513, -0.19071585, 0.2858333, -0.055685725, 0.08019525, -0.33408782},
												{-0.44149888, 0.18712239, 0.08667859, 0.073010005, 0.21972235, 0.037508555, 0.5153184, -0.07902655, 0.26870194, -0.034232218, -0.21162902, -0.18627092, 0.273995, -0.036342297, 0.14102568, -0.02724173, -0.025927018, 0.058280632, 0.25520465, 0.2659673, 0.11307831, 0.26400706, -0.046051905, -0.061098393, 0.5201616, 0.197671, 0.21093316, -0.4474497, 0.14365838, -0.042872116, 0.02936994, -0.037732795},
												{-0.57797384, 0.021033252, 0.1305543, 0.12497361, -0.13456596, 0.17511506, 0.2861663, 0.4484569, 0.062221758, -0.22105223, -0.28865957, -0.11949653, -0.16887194, 0.20841837, 0.5317325, -0.087048195, -0.29523054, 0.2094591, 0.24355744, 0.37236464, -0.0363532, -0.1637272, 0.15742242, -0.04794008, 0.19688715, 0.36417198, 0.14738505, -0.09569733, 0.25994977, -0.06953593, 0.11784398, -0.28026304},
												{-0.6411491, -0.36671445, 0.08566738, 0.11598306, -0.12296627, 0.23266064, 0.5358009, 0.76606095, 0.30656436, 0.13868232, -0.3040557, 0.015442084, -0.09677987, 0.044774953, 0.663168, -0.47439623, -0.5657274, -0.19797733, -0.15310776, -0.024159804, -0.7687194, -0.13451453, 0.568566, -0.35552117, 0.27814245, 0.22070456, 0.09565251, -0.17377685, 0.5675444, -0.2680951, 0.24874066, -0.12935857},
												{-0.9022878, -0.13952889, -0.18063803, -0.09258475, 0.2442119, 0.70226884, -0.8158947, -0.67466974, -0.05178893, 0.8795385, 0.55844903, 0.13414177, 0.33564276, -0.30923495, -0.30633935, 0.57831943, 0.59345317, 0.58624953, 0.2654938, 0.24999353, -0.008223724, -0.4130954, 0.359013, -0.98491716, 0.041492067, -0.2198433, -0.49149567, -0.24835634, -0.8060042, 0.5878854, 0.7446554, -0.35895222},
												{-0.4905649, -0.092901066, -0.04622347, -0.17356063, 0.2607355, 0.4176342, -0.7452808, -0.37483242, 0.1263286, 0.31857926, 0.39456153, -0.054515496, 0.2829253, -0.27486604, 0.058989715, 0.43691063, 0.29201844, 0.3603016, -0.23103733, 0.40900886, 0.15648353, -0.357264, 0.1349185, -0.7364644, 0.19001545, -0.17881455, 0.05730813, -0.31727558, -0.4556071, -0.47000325, 0.5193364, -0.06489087},
												{-0.05257426, -0.37943274, 0.23517215, -0.25123474, 0.10353709, 0.27629843, 0.40234527, -0.017067047, 0.0058657173, 0.15544985, 0.30031413, -0.1517183, 0.040506948, -0.1277308, 0.23797646, -0.39124915, -0.008471713, 0.2512889, -0.15678364, 0.5497916, 0.1251152, -0.00068807084, -0.22828987, -0.55021435, 0.3201093, -0.06863749, 0.13927862, -0.1552262, -0.09681679, -0.3013048, 0.29138997, -0.1378448},
												{0.119532906, -0.24602962, 0.51656604, -0.21627961, 0.42811543, 0.042136334, 0.47440597, 0.40822756, -0.25510398, -0.17118154, 0.20968986, -0.03989875, -0.03065745, 0.15317546, 0.20171815, -0.29645225, 0.028002685, 0.010685691, 0.48102912, 0.35174155, 0.19611712, 0.010013147, 0.021094084, -0.12667212, 0.102150604, 0.09056929, -0.12503405, -0.15350382, 0.39267623, -0.3196826, 0.11330901, 0.1089395},
												{0.0001843095, -0.012441277, 0.15992132, 0.111255735, 0.40066132, 0.07436964, 0.5855342, 0.10160938, 0.24300802, -0.24550164, 0.33384433, 0.14494231, -0.2072047, 0.2957148, 0.022265319, -0.30285728, -0.38768238, 0.29738718, 0.50536305, 0.11317728, 0.17601345, -0.16973592, 0.33579597, 0.11404079, 0.036982812, 0.0766643, 0.0008358228, 0.33358684, 0.1756935, -0.7401128, 0.17084622, 0.5226702},
												{-0.38596058, 0.29503506, 0.16575012, -0.050548628, 0.26257157, 0.28739724, -0.5015587, -0.4399863, 0.4245363, -0.092300795, 0.49795786, 0.09863559, 0.3313825, 0.2276536, -0.22798252, -0.14171112, 0.1290189, 0.4013286, -0.036410663, -0.08675411, 0.25417224, 0.24889395, 0.08367251, 0.027113056, 0.1953571, 0.014487721, 0.11558791, 0.41957918, 0.17384657, 0.27016822, 0.3657853, 0.116353065},
												{-0.6812915, 0.2616802, 0.06678296, -0.0053624087, 0.1174296, 0.13651367, -0.8247732, -0.095091574, 0.17218226, -0.17777953, 0.1598587, 0.120485246, 0.32185453, 0.28054973, 0.12660886, -0.08940102, 0.4722943, 0.48570415, -0.27287945, 0.03154499, 0.57240605, 0.06745556, -0.104286335, -0.20784128, 0.003856584, -0.040757593, 0.19733442, -0.4780801, 0.25539902, 0.10291405, 0.0587461, -0.2557825},
												{-0.26608333, 0.19061865, 0.23441459, 0.19551846, 0.01664848, 0.39824784, -0.7483462, 0.16002455, 0.4369267, 0.058112144, 0.014155734, 0.1141319, 0.315838, 0.12259764, 0.20530678, -0.18774424, 0.5202977, 0.17934573, -0.13498387, -0.0183606, 0.34934872, 0.18281081, -0.26451054, -0.4284919, 0.11486879, -0.25226253, 0.086681075, -0.44725442, 0.13625677, -0.20971526, 0.14658527, -0.051589962},
												{-0.1821621, 0.13061254, 0.22883084, 0.3670587, 0.1907308, 0.48768646, -0.72161984, 0.20755586, 0.50704193, -0.5071717, 0.070083864, -0.12288425, 0.24099907, 0.3268125, 0.2527624, -0.65379316, -0.56871915, 0.22542751, -0.004800201, 0.07522778, 0.05867517, 0.010505749, -0.24678484, -0.49131948, 0.25152066, 0.11504134, -0.042806916, -0.57767344, 0.43588954, 0.019531876, 0.016348692, 0.20112224},
												{-0.5557674, -0.77098846, -0.055996433, 0.4813078, 0.06779829, 0.50398624, 0.41317928, 1.0795543, 0.61911833, -0.8847444, -0.17707705, -0.09103377, 0.42782488, 0.77260363, -0.04050371, -0.30809772, -0.79336566, 0.32829884, -0.62336653, -0.51888645, -0.62012845, -0.2561494, 0.38532338, -0.62107676, 0.8843929, 0.52820987, -0.2185902, -0.67788893, 0.4743901, 0.35136428, 0.56361955, -0.5286419},
												{-0.9992164, -0.043094344, -0.13831733, -0.09638117, 0.39503258, 0.6990368, -0.75575477, -0.84035534, 0.09091658, 0.8460992, 0.83805895, 0.31758735, 0.5106651, -0.71608514, -0.27832165, 0.9102065, 0.8570922, 0.51182896, 0.582695, 0.10348504, -0.15106533, -0.33236557, 0.19251376, -0.8600197, 0.06244956, -0.4254694, -0.15989478, -0.37815055, -0.50964427, 0.4490095, 0.85371727, -0.04223792},
												{-0.09891204, -0.15195769, 0.010369633, -0.42698827, -0.03242797, -0.2948827, 0.3308273, 0.18905513, 0.25722468, -0.336687, -0.09165362, -0.34304252, -0.04059352, -0.17324412, 0.15564959, -0.35422516, -0.6399873, -0.09137429, -0.3932604, -0.16213782, 0.22314127, 0.11026258, 0.29393658, -0.17865391, 0.37450397, -0.22722542, 0.13312039, 0.2607705, 0.48283, -0.47743338, 0.11095251, 0.45006344},
												{0.4302814, 0.133229, 0.07256773, -0.23191278, -0.07829251, -0.15537953, 0.3016974, 0.57187814, 0.23521663, -0.043223497, 0.23248583, -0.5769563, -0.18219084, 0.20367388, 0.4247849, -0.40283883, -0.57371235, -0.30056897, -0.621428, -0.028188925, 0.25303638, 0.368117, -0.23971565, 0.032556262, 0.24280633, 0.17149337, 0.44025356, 0.12161584, 0.24246955, -0.4533126, -0.07877195, 0.5325689},
												{0.22381233, 0.0821724, 0.12187819, 0.18923275, -0.23337609, -0.30849814, -0.16843756, 0.42338732, -0.17702709, -0.014086643, -0.09636648, -0.32390735, -0.45435062, 0.35191345, 0.24723992, -0.31201753, -0.4074541, -0.17970532, -0.4260194, 0.036275063, 0.38066006, -0.34001368, 0.11982041, 0.38755772, 0.263737, 0.2459658, 0.4369525, -0.05346128, 0.14073436, -0.57635754, 0.05972339, 0.2852558},
												{0.10430084, 0.07695281, 0.11228114, 0.4282105, -0.42396453, -0.24568072, -0.21490121, 0.67121524, 0.11165841, 0.11734491, -0.27289522, 0.15098463, 0.059111502, 0.07280996, 0.37550595, -0.106186524, -0.44912878, -0.34049222, -0.38475022, -0.52983, -0.12429273, -0.016676025, 0.11456014, 0.26991543, 0.22032282, 0.45635802, 0.30108348, -0.050974045, 0.4918901, -0.35809886, 0.010258851, 0.06711132},
												{-0.051527053, -0.20804018, 0.55493224, -0.35556313, 0.31832314, 0.09340617, -0.3392057, 0.13388541, 0.28599343, -0.12438932, 0.16730498, 0.17749368, 0.1183931, -0.3646671, -0.23216571, 0.24718855, -0.6455723, 0.022822676, -0.03880332, -0.41001478, -0.2425858, 0.21212189, 0.15249291, 0.40914813, 0.3406382, -0.2146807, 0.7740316, 0.20260379, -0.09332406, 0.26176494, -0.2179268, -0.4025761},
												{0.30134052, 0.32545227, 0.39798823, -0.28677753, 0.28514844, 0.045315377, 0.05714001, -0.105797134, -0.08198581, 0.16543177, 0.15905306, 0.25445142, -0.2834205, 0.056422275, 0.30209443, -0.20862885, 0.45038897, -0.34871405, -0.64517385, 0.27044037, 0.23673268, 0.028018678, 0.1953171, 0.009214299, 0.093899205, -0.2777719, 0.21865197, 0.011206938, 0.15623726, -0.04400375, -0.19897294, -0.15702817},
												{0.3521134, 0.22564048, 0.29157847, -0.42880714, -0.07608284, 0.23111881, 0.033499084, 0.0723817, 0.090512365, -0.16964611, 0.046228554, -0.11734819, 0.014832598, -0.1686838, -0.07419924, -0.33483595, 0.2932922, -0.54284304, 0.13977656, 0.29382604, 0.47582716, 0.2693188, -0.2592042, 0.208875, 0.21095805, 0.0010210759, 0.28402695, 0.12281719, 0.0053047603, -0.17799851, -0.39869705, 0.33262688},
												{0.5532573, 0.30870426, -0.4975266, -0.6111167, -0.51266885, -0.25573236, -0.8152315, 0.21132988, 0.18567231, 0.06734818, -0.32824993, -0.15535964, 0.026432939, 0.04575984, 0.26860854, -0.31797257, -0.4664404, -0.677202, 0.56977946, 0.307646, 0.33273542, 0.60735977, -0.43382022, -0.11442583, -0.29670328, 0.11466562, 0.08562133, 0.12964696, 0.16844468, -0.26392016, -0.56605244, 0.43613878},
												{-0.4512043, -0.79282874, 0.15944046, 0.43840563, 0.04391784, 0.32465026, -0.114065476, 0.58088, 0.8146318, -0.67354625, 0.049580872, 0.14386778, 0.63814366, 0.68207425, -0.4811734, 0.21400037, -0.19127777, 0.5148406, 0.041634005, 0.023502745, -0.80843043, -0.28806177, -0.24834308, -0.8712961, 0.80107063, 0.49009338, -0.8048412, -1.0100445, 0.14095813, 0.4595917, 0.19564033, -0.4160757},
												{-0.7460924, -0.037071615, -0.108947806, 0.3521253, 0.3128716, 0.75910825, -0.4676046, -0.6988856, 0.25089133, 0.40063903, 0.44009298, 0.47179845, 0.70112103, -0.10993818, -0.33876517, 0.6991874, 0.5852453, 0.67904204, -0.15595318, 0.20981129, -0.49833956, -0.48217496, 0.4638724, -0.7183102, 0.29430595, -0.12594947, -0.45006138, -0.46515372, -0.3083598, 0.67506737, 1.0753117, -0.53828245},
												{-0.33808717, 0.42261967, -0.16088477, 0.20959668, -0.23951021, -0.11249869, -0.5756111, 0.076669596, -0.2608835, -0.0008234407, -0.16322505, 0.3597526, -0.15952799, 0.12850337, -0.03484559, 0.31622198, 0.03240373, -0.1827329, -0.53864765, -0.19356236, 0.15611018, -0.06625639, 0.12553035, -0.14637491, 0.14117791, 0.13301839, 0.10508116, -0.0990508, 0.06010347, -0.040737513, -0.4217223, 0.54648966},
												{0.040751927, 0.110228725, -0.46873298, -0.08261426, -0.36517206, -0.3782905, -0.4635555, 0.261081, -0.15625541, 0.10473046, -0.045577727, 0.018828124, -0.05885241, 0.33315128, 0.46360812, 0.115726806, 0.09299125, -0.22981656, -0.19082975, 0.049192157, 0.3238764, -0.12705456, -0.2751465, 0.37283, 0.118783064, 0.15419547, 0.2352338, 0.05093211, 0.26283357, 0.03507552, 0.18386982, 0.426595},
												{0.03839468, 0.21571071, 0.101658925, 0.43464527, -0.1999976, -0.27572995, -0.14411047, 0.17732605, -0.34095716, 0.14755845, -0.263314, 0.07942908, -0.13282885, 0.4985339, 0.17526257, 0.18181585, 0.12238343, -0.03002493, 0.07690482, 0.32047504, 0.35739496, -0.31946453, 0.009358843, 0.57415843, 0.01994684, 0.18912405, 0.09208305, 0.069511704, 0.24769036, -0.029963598, 0.36883876, 0.0001054164},
												{-0.2781107, -0.18271467, 0.4496362, 0.36091146, -0.3030967, -0.28123492, -0.026069958, 0.2726905, -0.09311457, -0.03560151, -0.40963832, 0.052114885, 0.09466377, 0.16616243, -0.18046097, 0.39390147, -0.071701474, -0.294652, 0.3053134, 0.2180979, -0.20435345, 0.5185813, -0.3099103, 0.26590618, 0.3044202, 0.5001332, 0.31022635, 0.4162467, 0.21052375, 0.23749031, 0.42365775, -0.42421108},
												{-0.22812347, -0.30216643, 0.47593188, -0.12421978, 0.23477687, -0.3653175, -0.19598459, 0.2430784, 0.067655295, 0.26311097, 0.23090431, 0.36496818, -0.15629016, -0.5970048, 0.2248137, 0.2574844, -0.063873366, 0.18930377, 0.10127401, 0.46079442, -0.26609924, -0.07756265, -0.031305812, 0.31671828, 0.5874751, 0.16073965, 0.3792278, 0.24702327, -0.062906295, 0.41098955, 0.13940306, -0.31508887},
												{-0.01813593, 0.35939413, 0.059828687, 0.17922096, 0.10715583, -0.0007596873, -0.20644282, 0.07091352, -0.38710123, 0.26115876, 0.22565286, 0.35141444, -0.21156463, 0.24843292, 0.23225749, 0.061918356, 0.22409923, 0.13024946, -0.22965781, 0.2047714, 0.22428961, -0.2907466, 0.3113412, -0.0062109805, 0.19263901, -0.13307603, 0.5472166, 0.046591964, 0.29368696, -0.08039909, -0.10675112, 0.051493872},
												{0.22918317, 0.15525635, -0.26364225, 0.13498558, -0.15259938, -0.27391028, -0.15915191, -0.29551724, -0.052701026, 0.19459386, 0.38442126, 0.036542986, 0.088005945, -0.070507005, 0.11168768, 0.05564047, -0.20179722, 0.013864429, 0.20487078, 0.1848026, 0.3052217, -0.30299863, 0.4924165, 0.13472176, 0.03800954, -0.0016309229, -0.09046526, -0.050597273, 0.18233481, -0.2920637, 0.38196614, 0.2056159},
												{0.40121555, 0.12862207, -0.36642855, -0.012390424, -0.08019776, -0.20444022, -0.11021569, -0.09324012, -0.26608866, 0.20197763, 0.06160452, -0.020977214, 0.3081621, 0.26720023, -0.19832107, 0.072950326, -0.36930257, 0.33286425, 0.05280688, -0.0113954805, 0.30208492, -0.50490457, 0.15628566, -0.09489533, -0.12268844, 0.41119972, -0.36258122, -0.09660265, 0.23436856, -0.43079713, 0.38851047, 0.46077386},
												{-0.65933955, -0.49670595, -0.25738588, -0.008443975, 0.3175382, -0.0030311076, -0.084488586, -0.23234384, -0.19554326, 0.22712669, 0.25296247, 0.4312982, 0.47335547, 0.049718536, -0.34290928, 0.7890655, 0.56154805, 0.6428586, 1.2177137, 0.7027819, -0.2845446, -0.15380436, -0.56315345, -0.5626376, -0.3285666, 1.0294718, -0.9591909, -0.054941405, -0.65534645, 0.6067316, 0.3420137, -0.65506613},
												{-0.50108516, -0.41854382, 0.1540468, 0.31892967, 0.76327944, 0.29857937, 0.727056, -0.2705338, 0.7308999, -0.05430171, -0.10499721, -0.005170306, 0.079386294, 0.69242734, -0.4623657, 0.5556074, -0.18977219, 0.59023225, -1.0800471, -0.6223714, -0.45350435, -0.24426524, 0.9646869, -0.45004755, 0.6720844, -0.51547045, -0.10244199, -0.7569142, 0.46069154, 0.7250664, 0.6519373, 0.39600778},
												{-0.18588239, 0.30242383, -0.07837042, 0.13901564, -0.06527587, 0.30080804, -0.002457533, -0.7434563, 0.10590486, 0.29653892, -0.5893778, 0.3695467, 0.17750585, 0.22818711, -0.577391, 0.3534498, 0.052711815, 0.014393104, -0.4751364, -0.0730412, -0.029397095, -0.32090685, 0.2398967, -0.77412665, -0.21346618, -0.3718868, -0.15680343, -0.775506, -0.045056302, 0.549347, -0.35596547, -0.1125823},
												{-0.045452084, 0.26616612, -0.03703495, 0.22290295, -0.058537826, 0.058863375, -0.5467903, 0.20038608, 0.0076701078, -0.11112002, -0.42592865, 0.391203, 0.2352285, 0.0490416, 0.0566177, 0.4639602, -0.07376201, 0.020455621, 0.056462076, 0.37553367, -0.04337464, -0.1038416, -0.031798247, -0.093342006, -0.5175533, -0.08724451, -0.07161743, -0.47673106, 0.13482104, 0.6059367, -0.77862364, 0.27103987},
												{0.31836376, -0.019614283, 0.13740933, -0.39025286, -0.07664495, -0.18852776, -0.34331453, 0.25784373, -0.06286185, -0.06957641, -0.6369534, 0.07605718, -0.09056219, 0.18469559, 0.16633858, -0.2150437, -0.013909567, -0.041099872, 0.4727016, 0.38931054, 0.39787522, 0.3585145, -0.3644415, 0.014511502, -0.55552995, 0.13434632, -0.15044536, 0.18798429, 0.09172956, 0.36558563, -0.5267581, 0.015761439},
												{0.2157184, -0.6103236, 0.2343013, -0.14112295, 0.06430821, 0.048963796, -0.33772707, 0.42008278, 0.2017094, 0.26215354, 0.23451851, 0.234274, 0.080155514, -0.15921853, 0.21305132, 0.17005803, 0.14397727, 0.54464614, 0.6920668, 0.29745823, -0.40369427, 0.30259162, -0.6217509, 0.14083003, 0.13799152, 0.15660314, 0.09483467, 0.36875987, 0.06410068, 0.55088836, -0.28948244, -0.6632734},
												{-0.18650809, 0.007822268, 0.36466387, 0.05038746, 0.09484648, -0.033089977, 0.12426659, 0.0911787, -0.10805118, 0.29184434, 0.24199125, 0.34175205, -0.23380026, -0.114767626, 0.4027663, 0.5252433, 0.19137765, 0.28011003, -0.2830989, 0.14190228, 0.116234116, -0.20019138, 0.0993361, 0.08747056, -0.0021230453, 0.42717463, 0.19237413, 0.28778213, 0.28590125, 0.3460193, -0.11019588, 0.15497544},
												{-0.059638083, 0.20777269, 0.2037268, 0.27355343, -0.08066324, -0.2101955, -0.036596872, -0.36689922, 0.014265622, 0.2842639, -0.45692506, 0.3253051, 0.1128816, 0.4634014, 0.17868733, 0.49800965, 0.18838266, -0.05565511, -0.5297095, 0.3391424, 0.35128644, -0.09971859, 0.45923755, 0.026063373, -0.29017252, 0.30896202, -0.20688657, 0.027213315, 0.0082860505, -0.39185113, 0.2148541, 0.46695206},
												{0.12136434, 0.041961215, -0.11085215, 0.07555446, 0.16934344, 0.124747284, 0.038319428, -0.2126091, -0.37194356, 0.3460365, -0.080958, 0.27840486, 0.12639089, 0.04955863, -0.26941624, 0.31969827, -0.21185172, -0.056945235, -0.27974662, 0.14394735, 0.12395456, -0.07980674, 0.21182993, 0.04246805, -0.16214602, 0.09428478, -0.1517017, 0.09343289, -0.041293316, 0.041477367, 0.32593217, 0.48037317},
												{0.06843883, 0.07913823, 0.11214531, 0.2069323, -0.006949924, 0.27404663, 0.10242069, -0.34921727, -0.15282875, 0.175966, -0.2064373, 0.34623548, 0.30815658, -0.014508201, -0.48620027, 0.42333782, -0.10032682, 0.41109076, -0.30018595, 0.37573895, -0.3805761, -0.4059808, -0.34827733, -0.23700486, -0.19893387, 0.39467472, -0.61512387, 0.12402814, -0.100462474, 0.18140699, 0.29641113, -0.21822},
												{-0.28617314, -0.2633549, -0.28410816, -0.34580296, 0.52062964, -0.008289836, 0.09849286, -0.95124507, -0.7242876, 0.23566464, 0.031338885, 0.20310408, 0.49381837, -0.03388334, -0.5076881, 0.7495227, 0.5186105, 0.80181205, 1.0410287, 0.5131292, -0.28371832, -0.42746407, -0.80238914, -0.13006522, -0.63950515, 0.72387916, -0.68955356, 0.09765357, -0.7759863, 0.7155309, -0.19437198, -0.31994346},
												{-0.41014817, -0.17275742, 0.17853811, 0.32212394, 0.64301646, 0.09153624, 0.8154751, -0.54746765, 0.4630372, -0.03935584, -0.3698396, -0.16792032, 0.18641078, 0.4914431, -0.28755683, 0.43987554, -0.52017206, 0.30250847, -0.78365165, -0.74499834, -0.51273644, -0.18971044, 1.0201511, -0.74641246, 0.49042088, -0.026620237, -0.045138396, -1.1030123, 0.81302756, 0.62396395, 0.8442129, 0.27689043},
												{-0.5405046, 0.39430583, 0.052177522, -0.0058784024, -0.047077484, 0.38551953, 0.57734096, -0.5365027, 0.06721639, 0.19399126, -0.44285336, 0.4067778, 0.13001472, 0.059928797, -0.52012485, 0.32380265, 0.44233227, -0.26945254, -0.07779681, 0.098292515, -0.15307143, 0.051355235, 0.16699426, -0.2090673, -0.35678923, -0.31274006, -0.3868823, -0.76859915, -0.14575124, 0.052032422, -0.052144315, 0.3572722},
												{-0.44140875, -0.011122273, 0.27162683, 0.1968577, 0.10730209, 0.20006174, 0.33641532, -0.088956736, 0.35859877, 0.12897417, -0.6311414, 0.28405827, 0.24794315, 0.10069405, -0.38243383, 0.29123384, -0.038777646, -0.15644345, 0.18324858, 0.4921403, 0.09607568, 0.59462464, 0.07032186, -0.25792503, -0.4458944, 0.00215929, 0.064817645, -0.4891552, 0.010993254, 0.31705594, -0.3879055, -0.02240219},
												{0.17064299, -0.010613023, 0.0064836084, 0.21916641, 0.018228792, 0.15865049, -0.05027343, -0.19820406, 0.22310111, 0.14341795, -0.30672732, -0.058650002, 0.31527826, 0.28191364, -0.15938048, -0.02042734, 0.26054657, 0.049442917, 0.4111839, 0.065853365, -0.35854974, 0.18996873, -0.18116903, -0.2972998, -0.32571584, 0.22877969, -0.38656878, 0.04297354, 0.19298762, 0.29338026, -0.3839407, -0.32662937},
												{0.44917902, 0.3231262, 0.35340157, -0.07350431, -0.1467316, 0.17215523, 0.03713377, -0.11864007, 0.28168067, 0.34842232, 0.45894775, -0.043439213, 0.4570303, 0.44063148, 0.14606756, -0.14523461, -0.10484137, 0.17048341, 0.39142922, 0.15633729, 0.03306772, 0.1069346, 0.14614649, 0.16728291, -0.3372402, 0.48457715, -0.18299936, 0.005840425, 0.2906039, 0.34497342, -0.2497813, -0.58734494},
												{0.286451, 0.11261919, 0.49811828, 0.20809674, -0.23243864, -0.018268062, 0.3714034, -0.12130468, 0.308909, 0.43333763, 0.18754385, 0.20216267, 0.36952847, 0.08754523, -0.039544404, 0.2790106, -0.15731576, -0.02412438, -0.10392891, 0.28667665, -0.13912681, 0.16124243, 0.41956005, -0.0019609286, -0.36461818, 0.43719864, -0.08911758, -0.010560869, 0.16875194, 0.040117487, -0.24074845, 0.76891017},
												{0.053489957, 0.087874606, 0.1471155, -0.07500003, -0.029202424, 0.04300919, 0.33853886, 0.038619477, 0.09536447, 0.35828638, -0.391068, 0.26169425, 0.3770013, 0.089938074, -0.04321504, 0.56800246, -0.11136548, -0.59618485, 0.2229907, 0.21116357, -0.17810535, 0.10001538, 0.3151469, -0.05853645, -0.15518276, 0.097810216, -0.19886886, 0.07352025, 0.17496791, 0.16884542, 3.794569e-05, 0.27760065},
												{0.07801345, -0.028559115, 0.31688997, 0.21072774, -0.14292492, -0.0512428, 0.5676835, 0.1406902, -0.4830749, 0.12400822, -0.19004913, 0.47678617, 0.2813524, 0.12965693, -0.21128316, 0.13851944, -0.03533131, -0.517578, 0.040927164, 0.22888684, -0.23364481, -0.022721324, -0.28028256, -0.23213688, 0.08220563, 0.12906232, 0.010517678, 0.32177776, -0.33515346, 0.05670715, 0.19974396, -0.0021909075},
												{0.080892175, -0.45957604, 0.04240481, 0.057953123, 0.30808434, 0.15955754, 0.5373067, 0.19418402, -0.6908337, -0.30413276, -0.2699165, 0.1453348, 0.2977205, 0.3157022, -0.17838566, 0.2229793, 0.08998343, -0.45775616, 0.12424033, 0.13599345, -0.28180993, -0.17474596, -0.34942836, -0.16430174, 0.037438963, 0.45710385, -0.5186137, 0.022427201, -0.17766151, 0.3105632, -0.07872673, -0.27254894},
												{-0.37787637, -0.65287435, -0.30009538, -0.10732128, 0.6299912, 0.0022842193, 0.6078983, -0.7647579, -0.54365665, -0.25575382, -0.14295426, 0.27208662, 0.41491905, 0.3202871, -0.5884499, 0.12733965, 0.5377982, 0.46201047, 0.34167463, 0.087390676, 0.1099019, -0.23644856, -0.5439563, -0.0023284843, -0.2209188, 0.123394854, -0.5980766, 0.2594259, -0.59987366, 0.76143056, -0.37470877, 0.23190959},
												{-0.1912051, -0.2307201, -0.059856024, 0.46645692, 0.42755148, 0.27507025, 1.0165697, -0.22504582, 0.72422665, -0.08328188, -0.058974713, -0.079520926, 0.2876315, 0.67282104, -0.13993417, 0.6901491, -0.27665892, 0.33357483, -0.8279387, -0.6440553, -0.6262304, -0.25245002, 0.95839655, -0.55962974, 0.5608869, -0.19285585, 0.011756491, -1.0255623, 0.70770985, 0.8600902, 0.77068776, 0.08536559},
												{-0.53051203, 0.13525872, -0.055076253, 0.325795, 0.3935374, -0.025334645, 0.19763929, -0.6767128, 0.31866175, 0.43615064, -0.4498475, -0.099432066, 0.07111653, -0.1015015, -0.43865493, 0.28228644, 0.12594607, 0.44227555, -0.0054460964, -0.4865034, -0.19617392, 0.30189118, 0.210961, -0.12692551, 0.10748502, -0.4236995, -0.109088354, -0.3583276, -0.062336527, 0.32082245, 0.48776448, -0.20951201},
												{-0.6365001, 0.11864446, 0.06612688, -0.102387704, 0.33401117, 0.11518394, 0.14772132, -0.23455465, 0.075376496, 0.15458503, -0.04774229, 0.10556957, 0.037980426, 0.06420707, -0.18093637, -0.08903271, 0.35775167, 0.22447288, 0.20377015, -0.103489585, 0.3554761, 0.08002621, -0.21779288, -0.2082241, 0.15900768, -0.06529156, 0.1755664, -0.04006528, -0.0730059, -0.1876739, 0.40612808, -0.43264076},
												{-0.5957278, 0.42960194, 0.34412527, 0.018622365, 0.095568985, 0.15882757, 0.1461458, -0.1093594, 0.09356491, -0.0689017, -0.31413102, -0.039374664, 0.27432054, 0.38630092, 0.068089634, -0.08732495, 0.05928548, 0.056046635, 0.2998831, 0.24851024, -0.0010144637, 0.07284374, 0.2598713, 0.089172654, 0.19747342, -0.21657695, 0.036722723, -0.17866872, 0.091842525, -0.55081993, 0.39439404, -0.09920461},
												{0.028288892, 0.31889436, 0.15679768, 0.38853014, -0.036062308, 0.42596254, 0.065404005, 0.20966178, -0.008762279, -0.2725018, 0.087522045, 0.42925724, 0.14954458, 0.22760059, 0.0571924, -0.3597595, -0.09997049, 0.14650866, 0.31295756, 0.2576088, 0.18844803, 0.2730899, 0.044927273, -0.27564678, 0.14117436, -0.36522812, -0.0047874255, -0.112913184, 0.39091888, -0.19039954, 0.15405545, -0.15642497},
												{-0.015535886, 0.06316472, 0.24249844, 0.25629696, -0.20707315, 0.4322645, 0.20484151, 0.37312716, 0.16953196, 0.10494915, 0.28044024, 0.08330499, 0.20505273, 0.3044473, 0.26748857, -0.28646505, -0.063036166, 0.026485344, 0.12535568, 0.62323785, 0.02795559, 0.33849102, 0.04848715, -0.2794827, 0.11069718, -0.08074756, 0.0872304, -0.20829664, 0.10081672, -0.19373038, 0.3311307, 0.40299788},
												{-0.04294247, -0.25113893, 0.12646, -0.0930041, -0.11583218, 0.35786167, 0.26951018, 0.39608553, -0.34420845, -0.05496664, -0.060232185, 0.38043964, 0.1277282, 0.06618056, 0.011005771, 0.22742389, -0.33252814, -0.26265797, -0.14078988, 0.3497481, -0.05939356, 0.2792546, -0.10642166, -0.06058223, 0.31600744, 0.20793056, -0.17953758, 0.0063038003, 0.23578645, 0.1379158, 0.05089244, 0.4382961},
												{-0.48949096, -0.23483638, 0.49023575, 0.07812928, -0.036664933, 0.1927019, 0.6400803, 0.37008694, -0.9351253, -0.15766956, -0.31205812, 0.20418133, -0.24754882, 0.30203804, -0.18238889, 0.16274673, -0.2271897, -0.664499, 0.20051399, 0.16174525, -0.01544413, -0.103320226, -0.52892447, -0.11126281, 0.09964322, 0.1757499, 0.117288046, 0.20168573, -0.2512288, 0.3000729, -0.08915838, 0.09609023},
												{-0.4600747, 0.17429328, 0.371244, 0.37268397, 0.35246846, 0.1780834, 0.75627595, 0.1579088, -0.57915074, -0.40796322, -0.53720844, 0.23105077, -0.1482279, 0.6082234, -0.33367974, -0.23623125, 0.24456216, -0.62219906, 0.03135359, 0.26496637, 0.102018856, -0.1103971, -0.81486124, 0.1679191, 0.15335305, -0.030412512, 0.0993953, 0.08953179, 0.028666452, 0.13487469, -0.26669526, 0.07673257},
												{-0.011190593, -0.51750356, -0.24404873, 0.14505827, 0.26693538, 0.35465053, 0.6762204, -0.30574787, -0.4833239, -0.18239853, 0.08183873, 0.3772082, 0.2770585, 0.52260834, -0.3545008, 0.47999308, 0.27306923, 0.17304462, 0.2544268, 0.24453925, -0.33327702, -0.5307855, -0.8550467, -0.21421427, -0.23488802, 0.63733023, -0.4466238, -0.21326827, -0.37824565, 0.57137656, -0.24393004, -0.35359395},
												{-0.19795744, 0.4717996, 0.3587216, 0.3804823, 0.65541667, -0.0059603774, -0.3135415, -0.4478224, 0.024958769, 0.37517554, 0.11260382, 0.02524498, 0.112990476, -0.0861969, -0.06491102, 0.1777856, -0.31480706, 0.46747395, -0.68032694, -0.54086906, -0.17810625, -0.1394996, 0.46248475, -0.08953946, 0.07490104, -0.6210432, 0.32916462, -0.028368047, 0.25646117, -0.3844418, 1.0744077, -0.7349716},
												{-0.12833835, 0.4265691, -0.045347985, 0.0073224087, 0.5060179, -0.4778659, -0.3468638, -0.4900901, -0.13925584, 0.35363594, 0.17039053, -0.102696255, -0.33925158, -0.25442225, 0.20519201, 0.053315323, 0.25650203, 0.4900379, -0.23804443, -0.442567, 0.21283694, -0.22097604, 0.10101402, -0.01373886, 0.21915665, -0.57041425, 0.69512457, 0.36530495, 0.47967908, 0.03761232, 0.7386656, -0.80650616},
												{-0.46874043, 0.44085, 0.024207732, 0.0977909, 0.49622014, -0.33918232, -0.12575309, -0.7170989, 0.09419487, 0.074280575, 0.16134487, -0.09936145, -0.20159598, -0.2873741, -0.1152296, -0.09033621, 0.22220577, 0.025081314, -0.66741234, -0.2740452, 0.6242958, 0.117583774, 0.3464235, -0.0629903, 0.06393341, -0.84090275, 0.22325951, 0.41066074, 0.23926431, -0.45337743, 0.7337174, -0.7487981},
												{-0.22255105, 0.15524228, 0.55257547, 0.04244394, 0.16985308, -0.15025207, 0.119633555, -0.5344868, 0.3062019, -0.027075285, 0.24979188, -0.10742858, -0.0680442, -0.34579885, 0.02670662, 0.04236495, 0.28464642, 0.2179498, -0.9349184, -0.32280886, 0.14079396, 0.20192175, 0.39541352, 0.08063349, 0.15887126, -0.7349378, 0.40125343, 0.3641514, 0.24852622, -0.36556804, 0.7202374, -0.20441617},
												{-0.33109006, 0.32034487, 0.42464098, 0.04696804, 0.44588333, -0.0016566698, 0.51307726, -0.38123688, 0.3432512, 0.02751696, 0.14480492, 0.116029635, 0.07438649, -0.0653302, 0.20534736, -0.38971695, 0.50412565, -0.098984286, -0.5809041, -0.49272195, 0.2436915, 0.3852819, 0.4095962, 0.27560532, 0.037638325, -0.5416968, 0.07802523, 0.30858308, 0.17624284, -0.19039887, 0.80753446, -0.11829208},
												{-0.63019264, 0.07102418, 0.457005, 0.10309357, 0.3617985, 0.1629871, 0.0687245, -0.5466017, 0.11243878, -0.05136944, 0.26186445, 0.08287544, -0.04559098, 0.33658326, 0.13495083, -0.6961237, 0.2857246, -0.17415251, -0.46255198, -0.11274774, 0.56230766, 0.21443622, 0.26289204, 0.18994363, -0.06029325, -0.8477974, 0.22704095, 0.35151935, 0.45241344, -0.47758672, 0.8256463, -0.15802431},
												{-0.5579831, -0.15360801, 0.12494517, 0.07302562, 0.58074427, 0.20456693, 0.62256485, -0.5147608, 0.19307654, -0.6286166, 0.4906231, -0.09035856, -0.0013317306, -0.19344862, -0.033408258, -0.6673183, 0.30084038, 0.04567577, -1.1756887, -0.43025643, 0.3568996, 0.6287268, 0.4844134, 0.3685776, 0.118915975, -0.5616531, 0.21958824, 0.2515084, 0.17932127, -0.5774287, 0.47216016, 0.3319328},
												{-0.8144674, -0.27609402, 0.2660397, -0.22565658, 0.5376036, 0.18252333, 0.9432102, -0.44576564, 0.23160844, -0.25415304, 0.34613788, -0.3475247, -0.31884158, 0.14463979, 0.026045114, -0.89158595, -0.46933585, -0.26477188, -0.78373134, -0.6731655, 0.5598764, 0.82082725, 0.18970796, 0.51211804, 0.48014715, -0.5580913, 0.15108217, 0.5284969, 0.14745219, -0.5392283, 0.05617693, 0.5578193},
												{-0.5644042, -0.10965827, -0.06845011, 0.3183896, 0.29759142, 0.0002756313, 0.7980722, 0.033041805, -0.122885615, -0.41824394, 0.21889286, -0.5250668, -0.07993529, 0.38810763, 0.12332229, -0.36078548, -0.5723694, -0.5148449, -0.75418746, -0.41109487, 0.06880589, 0.08302741, 0.3199968, 0.21598531, 0.06481629, 0.00010033412, 0.25005153, 0.13228682, 0.645075, -0.4682146, 0.2791641, 0.26436046},
												{-0.27373993, 0.33405837, -0.05965103, -0.1577083, 0.35721794, 0.2375161, 0.46376505, -0.41101322, -0.14514591, 0.055506565, 0.111131966, -0.18487206, 0.24363258, 0.25344265, -0.33885822, 0.08307291, 0.5253849, -0.10154896, 0.5033141, -0.07333698, 0.28096643, 0.20165747, -0.47027737, 0.44456354, -0.15237404, -0.0060268594, -0.26011166, 0.1685442, -0.41525424, 0.44537345, -0.49510792, 0.30159307}};


	const float layer2_weights[n_layer1][n_layer2] = {{-0.5019165, -0.57425076, -0.14132129, -0.13637914, 0.17589712, -0.42414144, 0.61026335, 0.83985555, 0.2988201, 0.30697513, -0.57676584, -0.47128874, -0.1119582, 0.49496955, -0.092329636, -0.99351054},
												{-0.100532874, -0.5370236, -0.12641978, 0.08300055, 0.14566045, 0.22783284, 0.36430386, -0.057425324, 0.5093681, 0.49652085, -0.17981663, 0.6243327, -0.25251213, -0.30361602, -0.23335336, 0.28915742},
												{0.23789431, 0.4993439, -0.15503769, -0.13331619, 0.40007782, 0.46289584, 0.16309226, 0.57716423, -0.05768304, -0.17393593, 0.48137194, 0.48815393, -0.14697722, -0.28362256, 0.1827421, -0.32657444},
												{0.31195754, -0.36585376, -0.2008698, -0.26555374, 0.471928, -0.20449772, 0.40718424, 0.15455616, -0.19661236, 0.08445711, -0.23839174, 0.596633, -0.31497848, 0.511359, -0.119311154, 0.017230548},
												{0.7316927, -0.02194494, -0.1647233, -0.045656685, -0.45412683, 0.31611434, 0.2653953, -0.5652023, -0.03228752, -0.062221542, 0.58509713, -0.18534236, -0.2454745, -0.32711414, 0.5933643, -0.39554954},
												{0.5300177, 0.3407574, 0.1281526, 0.34903768, -0.5942751, -0.45604154, 0.18461627, -0.07567462, 0.42462832, -0.42364183, 0.5920933, 0.47680327, -0.17818809, 0.4340866, 0.19476156, 0.4539235},
												{0.47521406, 0.15770784, -0.14397894, 0.33268607, 0.13957669, -0.58484685, 0.9453991, -0.50222117, -0.46184227, -1.040575, -0.27198935, -0.90593076, -0.1440838, 0.79526395, 1.0183702, -0.13574822},
												{-0.80082774, 0.39193457, -0.22133479, -0.027196439, 0.6055647, -0.50412947, -0.667551, 0.21368533, -0.32399812, -0.46667114, 0.1178775, 0.1946706, -0.039091744, 0.23871894, 0.2850707, -0.032420028},
												{-0.18908998, 0.30648455, -0.2926899, -0.14820823, -0.5385737, -0.25000584, 0.31184056, 0.4979586, 0.25984973, -0.40232083, 0.50733894, -0.123528324, 0.07861986, 0.5706451, 0.46551543, -0.64652735},
												{0.20381649, 0.13406733, -0.07897253, 0.05711219, -0.068675, 0.32901487, -0.1418872, 0.5646381, -0.10418025, 0.5456205, -0.5059456, -0.48945025, -0.31801745, 0.022112284, -0.6301293, 0.14963344},
												{0.43577757, 0.62251234, -0.08599823, 0.37575933, -0.34352353, 0.14730784, -0.5819018, -0.7845423, 0.44853923, 0.5111956, 0.27233523, -0.32166392, 0.26010197, 0.48120806, 0.3115508, 0.4100819},
												{0.39081475, 0.45182148, 0.046535876, -0.13524657, 0.13484257, 0.5607502, 0.42528242, 0.35366255, -0.2076748, -0.23042084, 0.37500036, 0.6109842, -0.06458326, -0.42534593, -0.40303952, 0.36504102},
												{0.18507686, 0.2773985, 0.1744041, -0.389668, -0.6871014, -0.5647216, 0.37155408, 0.049657844, 0.46404824, -0.45005596, -0.49102363, 0.09050774, 0.13020971, 0.34323546, -0.38724434, -0.09682808},
												{0.05146692, -0.42118195, -0.10545944, 0.2467154, 0.6840172, -0.20356935, 0.40832916, 0.11529305, 0.2776694, 0.18144605, 0.09714034, 0.47689503, 0.1834468, 0.45964876, 0.444521, 0.6241105},
												{-0.3503957, -0.53911936, 0.16719379, 0.16266553, 0.6210946, -0.01677605, -0.6223819, 0.019955562, -0.063895844, 0.6991438, 0.43514746, -0.26971197, 0.07631419, -1.9716448e-05, -0.21585187, 0.08565942},
												{0.65066403, 0.563494, -0.27951625, 0.10324766, -0.02484944, 0.23592196, -0.26060218, 0.18875827, -0.9968863, 0.5827443, -0.23347938, -0.41481525, -0.124110036, 0.3583611, -0.47103566, 0.28848606},
												{0.6220116, 0.26623228, -0.35208532, 0.08944407, -0.6881218, 0.35974234, -0.14633866, -0.84209496, 0.4965818, 0.37322313, -0.5737805, 0.28275213, 0.15911546, -0.41092604, 0.5233387, 0.4872955},
												{0.4128861, -0.38533804, -0.08359629, -0.06675056, -0.6612594, -0.004069585, 0.04741456, -0.22829802, -0.25787506, 0.60530096, 0.62132514, -0.31029502, -0.33080745, 1.0010304, 0.48597342, 0.7489148},
												{0.39763182, 0.591151, 0.11749508, 0.28140706, 0.44872522, -0.0734558, -1.0655597, 0.17806934, 0.58935255, 0.06286224, -0.039515667, -0.9117467, 0.2182941, 0.5658962, 0.13455103, 0.95238423},
												{0.42373526, 0.384062, -0.11520254, -0.31819028, 0.6503022, 0.35621378, -0.12641339, 0.41322663, 0.59909624, -0.1150414, 0.2287634, 0.31353936, -0.25550476, -0.19159546, -0.10506922, 0.42692497},
												{-0.41264015, -0.20008251, 0.1981886, 0.09139815, 0.09725213, 0.43733606, 0.27136752, -0.6224201, 0.8167927, 0.5787431, 0.26462662, 0.56593275, -0.17837799, -0.3517125, 0.67562366, 0.62070024},
												{-0.22465412, 0.43734968, -0.30445492, 0.100018986, -0.27595776, 0.028769387, 0.7170288, 0.11710631, 0.569293, -0.8441663, 0.031807423, -0.12840758, -0.15334345, -0.046627734, -0.14882194, -0.5392557},
												{0.24319957, -0.5069921, -0.30407155, -0.081987076, -0.6197892, 0.15256757, 0.1914076, 0.128236, -0.6258037, 0.5558852, 0.3478411, -0.14477396, -0.1613315, 0.5569947, 0.21037133, -0.5891588},
												{-0.6779945, 0.37850863, -0.097799264, -0.33227018, 0.64581573, 0.62939286, 0.27485704, -0.29432136, 0.3208088, 0.6825176, -0.4771011, -0.18403529, 0.048095714, 0.2431783, 0.40384832, 0.096272856},
												{-0.0621736, 0.4179655, 0.01755304, -0.014057299, -0.23080298, 0.11475207, -0.39040646, -0.6718087, -0.59435606, -0.0140023045, 0.37065688, 0.06963555, -0.07286756, 0.4244928, 0.31421185, -0.54582363},
												{-0.29856348, 0.66803926, 0.10285217, 0.09107683, 0.6196373, -0.30750987, -0.054785676, 0.4616389, -0.0049981466, 0.10179399, -0.6452189, -0.13622387, 0.31558615, 0.6356202, 0.030503862, 0.55633116},
												{-0.6142777, 0.34715208, 0.05149379, 0.35580552, 0.20224927, 0.61502373, -0.073408745, -0.39292237, -0.48142743, 0.51638985, 0.6520654, 0.1456164, 0.36662853, -0.2486218, 0.24591221, -0.42123643},
												{-0.22563387, 0.6096991, -0.23020557, -0.13037275, 0.3499648, 0.55255216, 0.5086202, -0.26893136, 0.6161671, 0.26022, -0.017927228, -0.39663073, -0.30572823, -0.18930371, -0.14570774, -0.2560137},
												{-0.31237707, -0.43939242, -0.14926437, 0.1934795, 0.49886212, 0.019050764, 0.32712412, 0.46429205, 0.13105021, 0.17417438, 0.6504258, 0.5309249, -0.20813468, 0.4753238, 0.15966938, 0.11584397},
												{0.5317387, 0.12909332, -0.2755432, 0.09147354, -0.3257739, -0.09432945, 0.4697144, -0.26965204, -0.34808713, 0.29606384, -0.4931568, -0.5647895, -0.095844805, 1.1528916, 0.81367975, 0.4667861},
												{1.063821, -0.37920734, 0.093090594, -0.15748791, -0.8943281, -0.2996563, 0.5334962, 0.37597412, -0.746616, 0.19099031, 0.318692, 1.1025617, 0.23321043, -0.09381794, -0.12983532, -0.3398338},
												{-0.82741636, 0.06931877, -0.18537752, 0.25901213, -0.38569602, 0.41663826, 0.060104586, -0.8044993, 0.039285444, 0.5218808, -0.0381551, -0.21016015, -0.04616125, 0.5992362, 0.6080676, -0.021687675}};


	const float layer3_weights[n_layer2][n_layer3] = {{-0.5473389, -0.2416825, 0.9650103, 0.53508455, -0.5002604, 0.44296768, -0.8270833, 0.45608264, -0.20626965, -0.8575047},
												{-0.6210509, 0.71149665, 0.5106604, 0.07014932, -0.016869938, -0.8911179, -0.13246617, -0.6386298, 0.540369, -0.10696249},
												{-0.11018389, 0.40509444, 0.16169235, -0.0772455, -0.36938554, 0.14221923, 0.33604088, 0.42708004, -0.12676437, -0.38464007},
												{-0.10061304, -0.120429195, 0.38954118, 0.067073844, 0.14437115, -0.20555842, -0.1572628, 0.45333347, 0.25859267, -0.14200576},
												{0.068114795, -0.6745604, 0.024474468, -0.8220362, 0.6099405, 0.2686247, 0.5829302, -0.9288761, 0.19687615, 0.11101643},
												{-0.7590869, 0.13540733, -0.20175445, -0.02151491, 0.3576144, -0.83678997, 0.16847451, 0.5345077, -0.35365576, 0.71038914},
												{0.47323528, 0.60517347, -0.19953628, 0.7984245, -0.90775627, 0.6323199, 0.03387807, -0.5491281, -0.2762143, 0.36195832},
												{-0.17457017, -0.6559428, -0.242812, 0.37372535, -0.061316583, 0.4187976, 0.7938737, -0.76380223, 0.37929338, -1.0309373},
												{0.9697001, -0.25592837, 0.13864242, -0.28496128, -1.0507336, -1.0296932, 0.46018735, 0.07923743, 0.18051808, 0.13314733},
												{-0.29111627, -0.5060144, 0.02971348, -0.040957507, 0.23297505, -0.5213055, 0.3113339, 0.6618966, -1.0750021, -0.21297091},
												{-0.55224, -0.25230843, -0.45196643, -0.07667775, 0.2893808, 0.058920395, -0.5837625, 0.51650536, 0.645017, 0.3697225},
												{0.52092975, -0.88870794, 0.02472306, 0.7975585, 0.17977482, 0.2642093, -0.77033246, -0.44060472, 0.38836002, 0.009184692},
												{-0.0622963, 0.18301782, 0.019486086, 0.30756867, -0.4960749, -0.09775564, -0.19484165, -0.45202377, -0.13056181, 0.17894785},
												{-0.16611795, 0.9499135, -0.28139722, -0.26633298, -0.43836018, 0.80900383, 0.09626664, 0.24181312, -0.5159211, -1.1036234},
												{0.16506962, 0.65920293, -0.07259953, -0.49494353, -0.15834863, 0.80586165, -0.61074626, 0.81718636, -0.3751901, 0.45973137},
												{0.5407681, -0.7096278, 0.85161215, -0.8170886, 0.27081367, -0.11745464, -0.20520443, 0.35637608, -0.22777012, -0.53403574}};

	float temp_output[1][n_layer1] = {1};
	float temp_output2[1][n_layer2] = {1};
	float temp_output3[1][n_layer3] = {1};
	int prediction = -1;

	hwmm_layer1(input_img, layer1_weights, temp_output);
	hw_act_layer1(temp_output, temp_output);
	hwmm_layer2(temp_output, layer2_weights, temp_output2);
	hw_act_layer2(temp_output2, temp_output2);
	hwmm_layer3(temp_output2, layer3_weights, temp_output3);
	hw_act_layer3(temp_output3, prediction);

	return prediction;

}
